Weights for layer dense: [[-5.23473248e-02  1.26101568e-01  1.08449332e-01  1.00710109e-01
  -1.05797231e-01  4.97894622e-02 -1.73845142e-02 -6.56805858e-02
   5.33073172e-02  1.24541879e-01 -1.02628358e-01  1.45775929e-01
  -1.65058896e-01  4.31702249e-02  1.80991162e-02 -1.22755416e-01
   1.43212989e-01  6.37701452e-02 -5.72287701e-02 -1.99877545e-02
  -9.21446458e-02 -6.65090755e-02  3.97339351e-02  8.64659026e-02
  -2.76411455e-02  9.05860439e-02 -1.37540177e-02 -1.04149178e-01
  -9.89027247e-02  2.53848489e-02  4.30016592e-02  1.36383146e-01]
 [ 1.82804428e-02  7.08448514e-02  1.06860600e-01 -4.91148829e-02
   1.31295413e-01  1.41658604e-01  6.55128807e-02 -3.12097631e-02
  -7.62953982e-02  7.88269415e-02  1.13808550e-01  1.43128946e-01
  -1.19905479e-01  5.23624234e-02 -2.17296053e-02 -3.32881771e-02
   1.06686801e-01 -9.77700017e-03  4.62270118e-02  1.15424685e-01
  -1.13076186e-02  4.76242155e-02 -3.73239778e-02  7.54832523e-03
   7.87426755e-02 -8.45667943e-02 -3.96936610e-02  1.03321940e-01
   1.24263495e-01  3.90343741e-02  7.60617806e-03  8.20929110e-02]
 [ 2.59244982e-02 -1.23962663e-01 -1.16741605e-01  6.33033291e-02
  -5.63416369e-02 -4.15744297e-02  6.89914590e-03  1.59096979e-02
  -1.09345041e-01 -4.19699065e-02  7.81990960e-02 -1.01190642e-01
   5.42417318e-02  1.33212790e-01  1.09218154e-02  7.22419992e-02
   1.29368722e-01  1.42666429e-01 -1.00493431e-01  6.91475123e-02
  -8.46536979e-02 -1.05815344e-01  7.15554282e-02  1.13480844e-01
   1.39674023e-01  3.94899324e-02 -1.02828711e-01 -1.16883963e-01
   9.59177688e-02 -1.26283005e-01  9.13529694e-02  1.12304866e-01]
 [ 5.15067056e-02  1.10297650e-01  1.15363963e-01  9.79015529e-02
   2.85885166e-02  1.17317840e-01  5.04185725e-03 -1.28416240e-01
   6.90124882e-03 -1.33611917e-01  8.45302120e-02  1.11658357e-01
   8.09684396e-02  1.06956959e-01  1.42286256e-01 -1.35862395e-01
  -1.25099003e-01 -9.77989584e-02 -1.06522247e-01 -1.15472972e-01
   9.96224657e-02 -2.53884383e-02  1.11107223e-01  9.99242142e-02
  -6.64337277e-02  7.47523531e-02  1.27311036e-01 -1.26119614e-01
   1.10277668e-01  1.80334449e-02 -7.86917508e-02  2.54237354e-02]
 [-1.16944239e-01  8.83398019e-03  1.50170296e-01  2.18756478e-02
   4.07281741e-02  9.90263745e-02  7.63255656e-02  1.28154010e-01
   1.45014584e-01 -3.69163714e-02  1.16863228e-01 -4.40784842e-02
  -8.54326189e-02  3.82947037e-04 -2.93894764e-02 -2.48526521e-02
   1.00458572e-02  1.53754771e-01  4.71797492e-03 -1.25558540e-01
  -5.37668467e-02 -2.57536788e-02  1.14219047e-01  2.88488641e-02
   1.61591679e-01 -3.38151008e-02 -3.64857391e-02 -3.33812498e-02
  -6.90849572e-02  8.02121982e-02  1.02931350e-01  5.12633771e-02]
 [ 6.51065558e-02  3.40471901e-02 -1.05059832e-01 -2.83586551e-02
   9.77668613e-02  1.39184415e-01  1.41196921e-01  1.20035812e-01
   4.05649617e-02 -1.00164257e-01  1.14270873e-01 -8.62913392e-03
  -9.66743827e-02  7.90334120e-02 -1.01793416e-01  6.87709302e-02
   4.53895368e-02  9.42163840e-02 -9.36437473e-02  1.23492293e-01
   5.21332696e-02 -4.62349132e-02 -1.07404232e-01 -1.12872884e-01
  -9.05765444e-02 -1.76946782e-02  1.23431876e-01  9.34055969e-02
   8.53681639e-02  7.95733854e-02  1.05746828e-01 -1.46260411e-02]
 [ 1.18247129e-01 -1.39737993e-01  5.21781445e-02 -1.93783771e-02
   7.89044017e-04  1.18584350e-01  1.24351894e-02 -2.22723605e-03
   8.06991011e-02  3.89004089e-02 -8.27106833e-02  6.74300045e-02
   1.04362495e-01  7.02130422e-02  8.14834237e-02  1.28723040e-01
   1.15755834e-01  1.23495281e-01 -1.03104904e-01 -3.61594697e-03
  -5.23460582e-02 -5.80386594e-02  5.14821336e-02  1.03831217e-02
   1.15970494e-02 -1.63887404e-02  1.28751084e-01  1.48442566e-01
   1.52119971e-03  8.70094225e-02 -1.18419044e-01 -2.83347443e-02]
 [ 6.59869686e-02 -1.28429711e-01  8.63467306e-02 -1.04076594e-01
  -3.22213732e-02  3.34498137e-02  1.01972975e-01 -1.59117347e-03
   1.55224815e-01 -9.97758657e-02 -2.77196690e-02  1.54914275e-01
   7.55290091e-02  2.86077056e-02 -4.16926630e-02  4.09569079e-03
  -3.95658845e-03  4.32224460e-02 -6.93282336e-02 -1.74048934e-02
   4.63681370e-02  3.27849644e-03  5.91457188e-02  6.23117909e-02
   7.83917308e-02 -1.03181869e-01  1.08494252e-01 -8.68581235e-02
  -2.64329687e-02 -4.03793380e-02 -1.06585585e-01  7.48055279e-02]
 [-3.30888443e-02  3.30902860e-02 -1.08567581e-01 -1.15132689e-01
  -1.19449958e-01  1.25316724e-01 -7.93978870e-02  1.00522906e-01
  -3.74374650e-02  1.17389373e-01 -1.58936158e-02 -1.08572423e-01
  -1.05922744e-01  1.44933239e-02  7.01742321e-02 -7.77596682e-02
  -2.94243507e-02  1.98238809e-02  1.04586035e-01  5.12493700e-02
  -5.06713949e-02  6.44665435e-02  1.86131056e-02  1.31139085e-01
   1.48016199e-01  5.97002693e-02  5.07517979e-02  4.78081368e-02
   4.06666622e-02  5.84410727e-02  1.31927133e-01  2.92270631e-02]
 [ 1.71975121e-02 -1.38700813e-01 -1.18774131e-01 -5.43792918e-02
   8.59448463e-02  1.43706411e-01  1.69821218e-01  5.12195118e-02
   1.32247075e-01  4.67355140e-02  1.15446202e-01 -3.25930975e-02
  -1.17009468e-01 -6.28865585e-02  3.04966746e-03  1.29746586e-01
  -1.45429391e-02  1.26128092e-01  4.92746979e-02 -8.42454880e-02
  -6.44284114e-02 -9.27702412e-02 -8.59366208e-02 -4.30733860e-02
   1.28892720e-01 -7.67724067e-02  1.21429190e-01  3.56707275e-02
   7.99365193e-02  1.16089799e-01 -6.90648258e-02  1.07375085e-01]
 [ 1.16376072e-01 -6.92933202e-02  1.27879187e-01 -2.98501905e-02
  -5.45522459e-02 -8.34961534e-02 -9.29419249e-02  1.40766606e-01
  -8.74415115e-02 -3.06061991e-02  4.40180525e-02  1.60202548e-01
  -6.65923506e-02 -4.67481427e-02  5.29705845e-02 -8.05638954e-02
  -1.26309678e-01 -2.75959726e-04  9.53935385e-02 -9.26584452e-02
  -6.36595339e-02  1.07246660e-01 -3.46316285e-02  1.30470559e-01
   9.02863890e-02  8.88193101e-02  5.07875606e-02  6.17680550e-02
  -7.11823851e-02 -9.42822695e-02  2.33906321e-04  2.70762295e-02]
 [ 9.35000703e-02 -9.45607871e-02  1.15969582e-02  6.45009130e-02
   9.28552225e-02  1.27876252e-01  3.66511643e-02 -1.05415218e-01
   1.32727847e-01 -5.37654534e-02  1.39032722e-01 -9.85200610e-03
  -6.74519539e-02  1.40550107e-01  4.80852686e-02  6.76369816e-02
  -1.15928993e-01 -1.11116484e-01  5.23724109e-02 -3.32631618e-02
   1.03838287e-01  6.15347512e-02  1.19620204e-01 -1.22025922e-01
  -1.32447323e-02  1.93918906e-02  1.03182226e-01 -4.10768799e-02
  -4.76553105e-02  2.75730826e-02  9.02313963e-02 -4.14480343e-02]
 [ 1.14078633e-01  8.29656869e-02 -1.14717595e-01 -8.66904110e-02
  -1.03334516e-01 -5.91027886e-02  3.49898264e-02  6.48504272e-02
  -6.72808960e-02  1.05776303e-01  9.71930623e-02  2.63965055e-02
  -1.48262724e-01  1.33898959e-01 -3.80328037e-02  5.62271476e-02
  -5.98772801e-02 -5.38060777e-02 -1.22505501e-01 -1.26519397e-01
  -1.14831470e-01  4.37431894e-02  1.16628267e-01  1.31348088e-01
   3.07514286e-03  7.16034546e-02 -1.08919837e-01 -1.22056507e-01
   2.32055839e-02  3.27262692e-02  5.77779934e-02  1.26943141e-01]
 [-9.15217698e-02  6.79050013e-02 -4.12436798e-02 -7.02538788e-02
  -1.16070703e-01  1.23256236e-01 -4.57898043e-02  1.49376765e-01
   6.48524091e-02 -3.08064185e-02 -1.07155452e-02  2.63741799e-02
  -9.73875374e-02  4.44086008e-02  6.14157505e-02 -1.23735778e-01
  -5.59763163e-02 -9.46149603e-02 -1.11142695e-01 -9.29820687e-02
   7.18596056e-02 -1.10872455e-01  3.03333811e-02 -2.71414518e-02
   9.06790644e-02  7.02660531e-02  1.41308103e-02  7.36374408e-02
  -5.14242873e-02 -1.18264504e-01  6.38985913e-03 -1.40456602e-01]
 [-1.00506999e-01 -4.87885363e-02  1.41608700e-01 -8.18772018e-02
   6.92643374e-02  1.35607168e-01  1.29819447e-02  3.13610174e-02
   7.53988549e-02  1.48232251e-01  3.16052288e-02  2.33069882e-02
  -9.98675600e-02 -5.88431302e-03 -9.32261571e-02 -8.15789625e-02
  -7.32597662e-03 -1.82587337e-02 -6.43946454e-02 -9.07073990e-02
  -1.25171080e-01  4.16790396e-02 -2.71717180e-02  1.38897225e-01
  -7.01438338e-02 -1.24710193e-02  1.46194175e-01 -1.48350513e-03
  -8.77373219e-02  1.07625104e-01  1.21722721e-01 -1.37929559e-01]
 [ 2.96069719e-02  8.87140483e-02  5.48465131e-03 -4.82335314e-02
   9.85550135e-02  1.14959441e-02 -5.49268164e-02 -8.33149105e-02
  -3.35291140e-02 -3.32091935e-02  9.35431197e-02 -1.11939274e-02
   8.05848762e-02  4.60651033e-02  1.31370530e-01  3.80279794e-02
  -1.23679586e-01 -1.52526600e-02 -1.28011197e-01  1.30981356e-01
   5.40780984e-02 -5.19800857e-02 -4.53391932e-02 -2.09478438e-02
  -1.57680959e-02 -5.28369285e-02  6.69355094e-02 -1.56083694e-02
   1.67760011e-02  6.01257421e-02  9.00970176e-02  1.35770261e-01]
 [-8.14210176e-02 -9.15051922e-02  4.77419831e-02  1.90203656e-02
   6.12193868e-02  8.03883076e-02  1.25344425e-01  5.02934270e-02
   6.15236759e-02  2.57246383e-02 -3.89363132e-02 -1.79337617e-02
  -1.30434692e-01 -4.73423786e-02  4.02125120e-02 -1.43770725e-01
   2.88969018e-02  9.84636173e-02  8.11974853e-02 -2.16620835e-03
  -1.05450369e-01  3.97944190e-02 -2.24543102e-02  1.11907594e-01
   8.50501731e-02  1.32806394e-02 -7.66138658e-02  1.41514435e-01
   1.26736015e-01  2.11694110e-02  9.36254486e-03  7.60691315e-02]
 [-8.49675238e-02  1.25829494e-02 -7.90018588e-02 -1.11865681e-02
  -5.82402870e-02 -1.11356020e-01 -5.05767390e-02  3.47822048e-02
   1.14929393e-01  1.17936060e-01  1.39404744e-01 -5.99028394e-02
  -1.56442299e-01  1.15574233e-01 -1.16057724e-01 -9.49579775e-02
   2.15725061e-02  7.06709027e-02  6.76989381e-04 -4.31681983e-02
   9.85652059e-02  8.03760290e-02 -8.81260410e-02  1.36905953e-01
   4.62810062e-02  3.62042859e-02  1.31321087e-01  1.17417879e-01
   3.38103585e-02  5.93736246e-02  6.19943067e-02 -3.73729393e-02]
 [-1.40229806e-01  9.29654315e-02  1.04010152e-02  1.16910495e-01
  -3.18928435e-02  2.24675108e-02  8.72923806e-02 -8.25035274e-02
   1.14870265e-01  9.38199982e-02 -1.02991529e-01  9.93438512e-02
  -2.45834216e-02  9.77680087e-02  3.46561819e-02 -6.37561381e-02
  -1.09988965e-01 -9.70368311e-02 -5.58475219e-02 -2.00941525e-02
  -1.25448406e-01 -8.14606771e-02  1.53605435e-02  6.28390238e-02
  -9.75301340e-02 -1.25605851e-01 -4.60536927e-02 -9.49095469e-04
   7.37458989e-02 -1.21128093e-02  4.84434143e-03  7.73678571e-02]
 [-1.44854292e-01  2.80630365e-02  1.23865262e-01 -2.56231036e-02
   3.75529751e-02  8.37097410e-03  2.85761040e-02  1.73469679e-03
   3.65172811e-02  1.45381212e-01 -3.00363824e-02  1.07149988e-01
  -1.68976411e-01 -1.57150887e-02 -4.17841673e-02  7.78151751e-02
  -9.14800167e-02  1.54994294e-01 -1.58430357e-02  1.59031197e-01
  -1.17781468e-01 -1.22728787e-01  1.34318382e-01  7.47134835e-02
   1.76336449e-02 -8.25677998e-05 -5.34465462e-02 -8.96252096e-02
  -1.20171376e-01 -1.20384805e-01 -1.05241448e-01  9.62069482e-02]
 [-2.79753860e-02 -3.87016349e-02 -1.33919477e-01  3.54985110e-02
  -5.14051020e-02 -6.48872331e-02 -1.61383171e-02  1.24746479e-01
  -6.93661943e-02  2.94698346e-02 -3.18579301e-02 -6.20620809e-02
  -1.08060375e-01 -5.48650697e-03  5.92074580e-02 -7.06563666e-02
  -1.02164619e-01  1.27135785e-02  1.30227521e-01  1.55047640e-01
  -1.29432470e-01  2.36073248e-02  6.61655962e-02  2.46863887e-02
   1.12188198e-01 -6.50233775e-02  9.32775438e-02 -4.32305261e-02
   2.24761404e-02  1.41771808e-01  8.15531313e-02 -1.95534006e-02]
 [ 6.27569109e-03 -8.04328620e-02  1.04644112e-01  8.09252039e-02
   8.32713842e-02  5.27175702e-02 -8.54502022e-02  3.14426124e-02
  -3.30096371e-02 -8.47441480e-02 -1.11954831e-01 -5.69826216e-02
  -4.63178903e-02  1.24569438e-01  2.24337038e-02  7.18870386e-02
   1.09719835e-01  5.42748608e-02 -1.30389437e-01 -6.31610900e-02
  -4.14001532e-02  1.19636975e-01  1.23863466e-01 -5.89618795e-02
   1.68977201e-01  1.20130487e-01  2.76785102e-02  1.70254055e-02
  -1.19889177e-01 -3.23260552e-03  8.50387216e-02 -7.93331042e-02]
 [ 6.32320717e-02 -1.08449094e-01 -6.85707852e-02 -2.34724185e-03
  -1.01321638e-01  5.96948825e-02 -1.09451346e-01  1.06054015e-01
  -7.33617246e-02  1.28134757e-01 -1.19551815e-01 -5.79579268e-03
  -1.85447112e-01 -1.10829502e-01  7.90697485e-02 -9.59743932e-02
  -1.96323581e-02  7.75114894e-02  2.97432095e-02  1.26059111e-02
   7.55591020e-02  5.57993576e-02 -7.87041113e-02  6.70392290e-02
  -1.75220333e-02  1.36280179e-01  7.60474354e-02  6.68574795e-02
  -5.46455607e-02  2.76137367e-02  2.24577002e-02  3.59754711e-02]
 [ 6.01091571e-02 -2.82403938e-02  1.08884253e-01 -1.21271737e-01
  -1.07004687e-01  9.88615081e-02  1.37712717e-01 -9.03604850e-02
   1.33148372e-01 -1.20021723e-01 -4.11829613e-02  1.44579068e-01
  -4.90966439e-02  5.20996042e-02  1.25585357e-02  1.36858106e-01
   1.20768569e-01  3.30652595e-02 -1.57565534e-01  1.76457632e-02
  -2.94291675e-02  1.21267140e-01  9.13494006e-02 -4.18172516e-02
   8.06057677e-02  6.37561530e-02 -4.78652632e-03 -7.32909143e-02
   8.80495161e-02 -5.74958138e-03 -1.41241085e-02  2.05356777e-02]
 [-9.46524665e-02  5.94052412e-02  1.34351671e-01  2.56932713e-03
   1.21508136e-01  1.40727594e-01  9.51384380e-03  5.73931858e-02
  -6.66113570e-02 -5.66600859e-02  1.47023156e-01 -7.35989138e-02
  -1.00943334e-01  1.29271239e-01 -1.10079959e-01 -1.10619783e-01
   1.51863933e-01 -9.54561532e-02  5.13518751e-02 -6.86666295e-02
  -7.11298957e-02 -3.44081335e-02 -4.65526991e-02 -7.97122344e-02
   5.78797869e-02 -2.39239205e-02 -8.06890577e-02 -1.06078021e-01
   9.33132693e-02  5.53516522e-02  7.09328428e-02  1.12794697e-01]
 [-3.32132280e-02 -8.93660113e-02 -5.75302243e-02  1.03637844e-01
  -2.55557559e-02  1.75930727e-02  9.99883860e-02 -3.59542901e-04
   1.65428728e-01 -6.19336702e-02 -1.37115046e-01 -7.40925595e-02
  -7.53199905e-02 -1.24422729e-01 -6.01653010e-02  1.35039762e-01
   1.93898678e-02  2.53787935e-02 -1.30267844e-01 -2.42900420e-02
  -1.97887495e-02 -6.74911812e-02  1.09876819e-01  5.07237092e-02
   6.10331856e-02  3.18046957e-02 -1.63758900e-02  5.32894395e-02
   4.77460772e-02 -1.19541086e-01  4.23341580e-02  6.78783655e-02]
 [-1.18088238e-02 -1.10264018e-01 -9.80242267e-02  5.67430742e-02
   7.41271824e-02 -1.30859623e-02  1.14857107e-02 -1.65258776e-02
   9.71742272e-02  4.38221265e-03  1.00611642e-01 -8.72456878e-02
  -1.44692585e-01  3.12453676e-02  1.61291342e-02  2.18383223e-02
  -8.82203951e-02  6.98867068e-02  7.75758922e-02  1.47491336e-01
   9.64048877e-02  3.32481647e-03 -1.25094444e-01  1.43310755e-01
   1.28092811e-01 -5.29004540e-03 -1.12699181e-01 -5.40371016e-02
  -7.44707659e-02 -9.14195329e-02 -1.25298530e-01  7.06956089e-02]
 [-9.48363021e-02  9.54525173e-02  9.64885876e-02  2.38588341e-02
   3.60149927e-02  6.27937242e-02  1.17908791e-01  1.60381161e-02
  -7.47025758e-02 -6.27949238e-02 -4.58403490e-02 -2.63121109e-02
  -6.03213534e-02  5.70481569e-02  1.20457478e-01 -5.40143512e-02
   5.89886792e-02  4.08355892e-02 -1.38269261e-01  4.17901576e-02
   6.20624609e-03  1.26612544e-01  7.75059452e-03 -8.07665884e-02
  -3.21731530e-02 -1.09084122e-01  3.32364999e-02  9.35280975e-03
  -3.12241837e-02  7.50512779e-02 -1.54018804e-01 -8.33494514e-02]
 [ 1.57327745e-02 -1.27770200e-01 -5.33967130e-02  1.05379663e-01
   1.47502050e-01  6.21248335e-02  4.80067395e-02 -5.43992175e-03
   7.72272274e-02 -9.92850810e-02 -5.52817583e-02 -5.96197974e-03
   1.94453523e-02  1.46371409e-01  9.43545178e-02 -1.19754657e-01
   1.56201944e-01 -1.32098183e-01 -1.34086728e-01 -5.90761565e-02
   1.05074001e-03 -1.60034783e-02  4.34155464e-02 -4.07307148e-02
   4.90196794e-02  3.94765772e-02  4.67202738e-02  2.44011413e-02
   5.42969666e-02 -1.01472557e-01  1.15776420e-01  6.05584383e-02]
 [-1.32064492e-01  9.37448889e-02 -1.14505202e-01  1.18354201e-01
   3.21893916e-02 -8.24620761e-03 -9.24232900e-02  9.73477960e-02
   7.66126961e-02  7.34367734e-03 -5.93383834e-02  5.71343265e-02
  -4.05242443e-02 -2.60287113e-02  1.23510398e-02 -3.38540114e-02
  -5.54007888e-02 -7.18381405e-02 -8.32630042e-03  8.94722939e-02
   1.36186361e-01  1.26877695e-01  3.79164480e-02  5.62063009e-02
   1.61307007e-01  1.30842596e-01  5.68157062e-02 -1.88344121e-02
  -1.40285343e-01  7.73029104e-02 -5.64667769e-02 -2.72007063e-02]
 [-1.18517280e-01 -1.04654677e-01  1.06715290e-02 -9.97270569e-02
   4.27065566e-02 -1.80179644e-02  8.23953077e-02  5.10017909e-02
   1.69350877e-01  5.38330264e-02 -7.58450478e-02  1.06026269e-01
  -1.71346948e-01  1.37797952e-01 -4.64253919e-03  4.06548604e-02
   1.28786445e-01  1.49958506e-02  1.40235499e-01 -1.12798631e-01
  -1.23998836e-01  5.89596778e-02 -1.04988478e-01 -1.01111338e-01
  -2.96352245e-02  1.52674943e-01  8.03599209e-02  7.00406879e-02
   1.03530183e-01 -1.16256975e-01 -5.34356236e-02  1.11047626e-02]
 [ 6.21529669e-02 -1.24344923e-01 -1.43027017e-02 -5.70442062e-03
   4.67846319e-02 -8.22303295e-02 -7.05133229e-02  1.43268809e-01
  -7.32136294e-02  5.78135885e-02  6.30502552e-02  6.05573393e-02
  -4.33439016e-03 -1.19538255e-01  4.96370159e-02  9.81773064e-02
  -6.64948747e-02 -1.22223064e-01 -5.99451587e-02  8.02105740e-02
   1.30530838e-02 -2.95811035e-02  3.93910222e-02 -1.26084745e-01
   1.77386656e-01 -9.96818915e-02  1.46291360e-01 -5.84146604e-02
  -3.10742725e-02  3.56106535e-02 -4.88618314e-02  7.82341957e-02]
 [-1.18997090e-01 -2.55603679e-02  1.40230075e-01  7.17270225e-02
  -1.10846430e-01  1.73417330e-02 -7.69018903e-02  4.93303202e-02
   1.47792667e-01  4.87546958e-02 -8.67143497e-02 -1.04474716e-01
  -4.73648682e-02  5.98443113e-02  1.45123899e-01  1.00343209e-02
  -1.10337362e-01  1.05280451e-01 -1.35588899e-01 -3.55808958e-02
   1.09951191e-01 -9.79253426e-02  9.40262750e-02 -1.97766423e-02
   1.17156170e-01  1.14847176e-01  8.13577510e-03  6.85693463e-03
  -9.78279188e-02  1.14200257e-01  5.73038962e-03  9.80765969e-02]
 [ 1.10041723e-01 -7.07013831e-02  2.95534674e-02 -2.37655118e-02
  -5.09823374e-02 -5.13980649e-02  1.29101649e-01 -1.08949393e-02
   1.28768068e-02  1.14944182e-01  3.45617794e-02  7.68439174e-02
  -2.11606007e-02  1.42366290e-01 -1.23025440e-01 -1.40584379e-01
  -8.02647099e-02  9.48919132e-02 -5.47145400e-03  1.20700382e-01
  -1.03744000e-01 -8.74446407e-02  9.50618759e-02 -1.19946919e-01
  -5.83495647e-02 -1.16369024e-01  1.31226078e-01 -5.93111813e-02
   3.10748946e-02  1.08167216e-01 -1.31628467e-02  4.38251346e-02]
 [-2.20435727e-02 -4.48698923e-02 -6.11592755e-02  9.06891525e-02
  -9.85231344e-03  1.23812005e-01 -4.18123007e-02  7.78544471e-02
  -6.23420738e-02  8.25025886e-03 -1.08534314e-01  8.45365450e-02
  -8.89395177e-03  1.00981846e-01  7.64740631e-02 -9.59575847e-02
  -1.00022405e-02 -1.19842671e-01  9.16363373e-02 -1.44242896e-02
  -7.78141767e-02 -8.46320912e-02 -1.88109856e-02  1.32043242e-01
  -8.05876553e-02  6.80921748e-02  1.00162432e-01  4.79435064e-02
   1.31698042e-01 -8.57798383e-03 -1.10629871e-01 -8.65147412e-02]
 [ 6.46328926e-02  1.59772590e-01  1.77502781e-02  1.08055823e-01
   1.56067222e-01  1.23561181e-01 -2.24074349e-02  1.70450658e-02
  -7.03225937e-03 -2.05255747e-02  9.19614807e-02 -8.17752406e-02
  -3.06937881e-02  5.08967414e-02 -2.62474474e-02  3.34141180e-02
  -8.23744088e-02 -2.52000559e-02  8.09185579e-02  8.61342698e-02
   1.62435696e-02 -1.16015755e-01  3.22583616e-02 -5.58625534e-02
  -1.92606058e-02  8.42714682e-02  5.67629561e-02  1.00445688e-01
  -8.25089365e-02 -8.31241626e-03  1.36959895e-01  7.64400214e-02]
 [-3.05390712e-02 -5.57646006e-02 -5.20435721e-02 -9.02837440e-02
  -3.39880809e-02 -7.01840445e-02 -5.79129979e-02  1.05237663e-01
   4.03684713e-02 -2.77752732e-03 -1.93066578e-02  1.03063829e-01
   6.81308210e-02 -7.08881468e-02  8.99345204e-02  1.01173744e-01
  -2.87390370e-02  1.46151274e-01 -1.25569329e-01  1.07483678e-01
  -7.68251345e-03  6.24355190e-02  4.56516109e-02  1.03574112e-01
   5.21529540e-02 -8.92811567e-02 -1.20187690e-03  9.34558436e-02
  -1.18206769e-01 -9.66516808e-02 -3.07395086e-02 -9.46168602e-03]
 [ 6.92399871e-03  1.58054292e-01 -1.40624702e-01 -7.08892792e-02
   5.78314997e-02  8.73318985e-02  8.39603506e-03 -1.24002121e-01
  -1.48508951e-01 -7.61384815e-02 -1.59168720e-01 -6.15170524e-02
  -4.84585837e-02  7.68150985e-02 -1.80161744e-02 -4.08391804e-02
  -9.24952980e-03 -8.95483419e-02  5.14547639e-02  1.70191340e-02
  -1.01798207e-01  1.04641676e-01  3.01676628e-05  1.11311398e-01
   7.71974400e-02 -6.58780411e-02 -4.39248942e-02  1.67180866e-01
  -4.43856511e-03 -1.09933786e-01  1.22729175e-01  8.73496532e-02]
 [ 6.88070729e-02  1.07395068e-01  8.65115300e-02  1.27595708e-01
   9.16348621e-02  1.26573786e-01  1.62477374e-01  1.81899648e-02
   5.12066819e-02  8.23520422e-02  8.18085624e-04  4.14804891e-02
   1.96382478e-02  9.88595653e-04  3.58397402e-02  1.60789177e-01
  -1.12517841e-01  3.43371928e-02 -6.08837092e-03 -3.80175933e-02
  -6.37598932e-02 -2.67346087e-03  4.51341309e-02 -1.31861091e-01
   5.01310416e-02 -3.63571346e-02 -4.88424003e-02  8.25788900e-02
  -7.02954084e-02  1.50714114e-01  4.31033559e-02 -7.30003342e-02]
 [-2.74895877e-02  7.26928413e-02  1.16865598e-02 -7.04017058e-02
   1.25833288e-01  1.15005165e-01 -7.63741229e-03  8.10423046e-02
  -2.70537678e-02 -2.00498272e-02 -6.41119257e-02  5.95607273e-02
   1.45122316e-02  1.06222063e-01 -7.01210052e-02  9.05835554e-02
  -1.13064073e-01  3.56756002e-02  5.34993634e-02 -7.28238970e-02
   3.09959650e-02  1.59429107e-02  3.30727100e-02 -5.51316068e-02
  -1.12068273e-01  7.94421434e-02 -1.35482997e-02  3.28086242e-02
   1.87717639e-02 -1.11086965e-01  1.22188320e-02 -5.55408821e-02]
 [ 1.18201040e-01  9.09066126e-02  2.59823371e-02  9.83042717e-02
   9.75327790e-02  4.97101806e-02 -6.16721250e-02  1.09120794e-02
   5.23401797e-02 -7.56766573e-02 -1.27225816e-01 -1.20860584e-01
   1.57612525e-02  7.63841122e-02  1.09488644e-01  4.32583541e-02
   1.00527056e-01  8.09696019e-02  4.43915315e-02  7.95051530e-02
  -4.91316654e-02  1.67200305e-02  1.16400830e-01 -6.54759929e-02
  -5.26617318e-02  2.39841696e-02  1.30078867e-01  6.78349435e-02
  -6.78803474e-02  1.34816065e-01  5.22176027e-02 -1.03186965e-02]
 [ 6.94637224e-02  7.11869672e-02  5.28477281e-02  2.06975602e-02
  -7.14522675e-02 -1.59803755e-03 -3.50173302e-02  5.14943823e-02
  -9.39923152e-03  9.75773260e-02  9.60041489e-03  1.38708115e-01
  -3.40995677e-02  1.37723207e-01  1.01217376e-02 -1.06776945e-01
   7.72299841e-02  8.74728188e-02 -5.55600226e-02 -1.08252488e-01
  -3.10899392e-02 -4.71150652e-02 -1.30228609e-01  5.18932864e-02
   1.22607514e-01 -9.48237255e-02 -1.15354098e-02 -2.65769195e-02
  -3.09682004e-02 -3.73225398e-02  5.55093922e-02 -3.69141549e-02]
 [ 1.29629169e-02  6.00285158e-02 -6.60728812e-02 -5.74735925e-02
   1.34851322e-01  7.82696754e-02  5.55878691e-02 -5.67374639e-02
   2.49451026e-02 -7.90806487e-03 -1.48875825e-02  1.37981221e-01
  -4.21264470e-02 -7.00741708e-02 -1.41218714e-02 -3.81446406e-02
   1.23629831e-01 -7.72433821e-03 -1.50235090e-02  1.05898947e-01
  -1.50664560e-02 -9.99595746e-02 -7.43307769e-02  2.15400402e-02
   8.43030214e-02 -7.57283159e-03 -1.11341365e-01 -8.86040479e-02
   1.65932020e-03  1.19541734e-01  2.62789000e-02  1.31325901e-01]
 [-5.61150946e-02  3.76597084e-02  1.52344815e-02  7.70365670e-02
   2.17620041e-02 -6.55759573e-02  1.39505845e-02 -6.08213991e-02
   6.51123449e-02  1.43940598e-01  5.70295900e-02 -4.15701494e-02
  -8.42255875e-02 -6.40261322e-02 -1.21277068e-02 -3.41170393e-02
   2.18951982e-02  1.11633673e-01  5.67763636e-04  5.15245274e-02
   8.74646232e-02  3.10899094e-02  1.21060573e-01  1.26393601e-01
   5.70425438e-03  1.12202629e-01  4.79002520e-02  6.11549430e-02
  -1.38741322e-02 -2.83225402e-02 -1.02105968e-01 -1.38488010e-01]
 [-9.42324521e-04 -3.15510258e-02  5.80016039e-02 -2.20091082e-02
  -1.08496763e-01 -3.06048244e-02 -6.19083978e-02 -1.25458837e-01
  -4.82588485e-02  5.40162101e-02 -9.10992026e-02 -1.55255999e-02
  -6.66143000e-02  3.62466462e-02  1.11563787e-01  2.75188759e-02
   1.01445571e-01  1.45736814e-01  6.10396527e-02 -9.29211304e-02
  -6.67666718e-02  4.57863472e-02  1.02307377e-02 -7.43544921e-02
   1.31856754e-01  1.32525772e-01  5.51171228e-02  8.58512446e-02
   7.20026419e-02 -5.81469201e-03  6.88365698e-02  5.27817756e-02]
 [-1.06652811e-01  7.39960074e-02 -4.64529917e-02  1.47301361e-01
   3.30313146e-02  4.30727750e-02  1.48840055e-01 -1.11361571e-01
   4.09256071e-02  6.44175857e-02  5.43085076e-02 -1.07294843e-01
  -1.17706388e-01 -1.05885550e-01 -7.85171837e-02 -1.55392215e-01
  -9.85363573e-02 -3.70051377e-02 -7.06336722e-02  1.43739209e-01
   1.32125005e-01 -1.15078585e-02 -9.61610004e-02 -9.36622471e-02
   1.01772748e-01 -3.44495662e-02 -6.36459468e-03  6.90663755e-02
   1.19321411e-02  3.61909233e-02 -1.40749267e-03 -1.22665100e-01]
 [-9.20901000e-02  7.09580928e-02 -6.50376678e-02 -5.06175943e-02
   7.76336417e-02  1.37261316e-01 -1.12255543e-01  8.41747746e-02
   5.37603088e-02  4.65804376e-02  3.75114232e-02  2.08267057e-03
  -5.48899956e-02  3.22337523e-02  1.22680642e-01 -8.25399458e-02
  -5.17963618e-02 -1.03022180e-01  6.41329810e-02 -2.73657348e-02
  -1.14328280e-01 -6.83720037e-02 -1.72497146e-02  5.71506321e-02
   7.14659765e-02 -6.64599612e-02 -4.42767218e-02  1.24775872e-01
  -1.35733098e-01  7.86245838e-02 -5.05807810e-02 -6.45668358e-02]
 [ 1.21407650e-01 -5.23499330e-04 -6.65354310e-03 -1.31588131e-01
  -3.95111404e-02  1.07037099e-02 -7.00318739e-02 -1.69347413e-02
  -3.10361274e-02  1.06934980e-01 -5.21556847e-02  1.05188109e-01
  -7.35072419e-02 -1.14482664e-01  1.00664169e-01  4.56698686e-02
  -7.97057748e-02  3.44119370e-02 -4.72312830e-02  3.05546280e-02
   1.33814692e-01  1.56074390e-01  9.44667310e-02 -6.73029274e-02
   5.49037047e-02 -2.44278386e-02 -1.03720069e-01  2.29805727e-02
  -5.05832881e-02  2.71243323e-02 -9.56203938e-02  1.23722106e-02]
 [ 1.78376343e-02  9.84070823e-02 -5.31122088e-02  4.56753448e-02
   6.57361597e-02  4.20084111e-02  5.90101182e-02  4.45985841e-03
  -7.81463087e-02  7.46265203e-02  7.59466551e-03  1.06579341e-01
  -9.29376855e-02 -6.93662744e-03  4.09969687e-02 -6.94937631e-03
  -9.06104818e-02 -1.19644962e-01 -1.02893800e-01  1.52175322e-01
  -5.51279075e-02  3.58470157e-02 -7.13413283e-02  1.18069135e-01
  -2.67227311e-02  1.92419831e-02 -9.85379517e-02 -6.11726195e-02
   5.79971299e-02  9.95941609e-02 -2.51868181e-02 -1.82589591e-02]
 [-1.24946564e-01 -5.28210551e-02 -5.06517515e-02 -1.01964854e-01
  -1.05253078e-01 -3.51278810e-03  1.35991089e-02  9.03384835e-02
  -9.36848521e-02 -4.92381938e-02  6.96046576e-02 -3.79281156e-02
  -5.85170463e-04  4.22026701e-02 -4.73851115e-02  8.81239176e-02
   4.48151417e-02  1.50107503e-01  1.31274104e-01  4.29326575e-03
  -5.16356193e-02  2.24582981e-02 -1.51883392e-02 -6.28978992e-03
  -4.15470684e-03 -6.34556636e-05 -1.18977930e-02 -5.10396473e-02
  -1.11968577e-01  2.74555013e-03  9.39078256e-02  1.86471790e-02]
 [-1.24158390e-01 -1.61000956e-02  3.06846201e-02  7.92063307e-03
  -9.51126218e-02  1.08393215e-01 -4.97880131e-02 -7.07919747e-02
  -3.46597880e-02  4.14761342e-03  1.84853412e-02  1.49868637e-01
  -1.31741455e-02 -7.19256103e-02 -1.15941674e-01  1.42452836e-01
   1.29953220e-01 -4.00789604e-02  1.23063952e-01 -9.85590518e-02
  -2.09528282e-02 -7.84983486e-03  1.24515168e-01  6.75833896e-02
   6.07660972e-02  4.00446244e-02 -1.18801668e-01 -4.46968200e-03
  -7.43453354e-02 -8.47565010e-03  5.70963100e-02  8.83537233e-02]
 [-3.91429551e-02 -2.67525297e-02 -1.66248437e-02  1.43734723e-01
   3.62398736e-02 -1.63352445e-01  6.48391619e-02 -3.51851210e-02
  -1.13756610e-02  1.06056727e-01 -8.30976665e-03  1.80944875e-02
   6.96344823e-02  1.29461125e-01  2.57430580e-02  1.47968635e-01
   7.24773183e-02  1.48756891e-01  9.37296748e-02  1.21421896e-01
  -1.04238681e-01  3.63869779e-02 -1.84988473e-02 -1.24336883e-01
   1.39223665e-01  6.94972798e-02  7.68276528e-02 -2.55933348e-02
   2.71966849e-02  1.16057187e-01  1.01221398e-01 -1.36738777e-01]
 [ 1.14524320e-01  1.46082044e-01  1.02069274e-01  2.82658059e-02
   1.16256170e-01  9.42141637e-02 -1.23152643e-01 -1.93695277e-01
  -1.01803854e-01  7.58862495e-02 -1.02510005e-01 -2.91442629e-02
   3.66422310e-02  1.37791947e-01 -1.76648311e-02  1.23240255e-01
  -3.48134339e-02  1.36868671e-01 -1.05055422e-01  9.03067440e-02
   8.17512274e-02 -3.78118344e-02  1.15339942e-01  1.35954827e-01
   3.11219245e-02  1.18852295e-01  9.93712842e-02  1.25695122e-02
   6.98703602e-02  6.98342919e-02 -4.74651791e-02  3.29314917e-02]
 [-3.27564254e-02 -3.21972035e-02  1.90674648e-01 -1.26849830e-01
  -9.79096144e-02 -7.28821848e-03  1.18212268e-01 -1.73472792e-01
  -1.33135125e-01 -2.86610387e-02 -3.70317930e-03  1.34539291e-01
   3.54356226e-03  7.28699937e-02  8.87259841e-04  7.17650801e-02
   6.11814409e-02 -9.27759707e-02  7.33105615e-02  2.09312700e-02
  -1.67685989e-02 -2.31542950e-03 -3.58932614e-02 -4.21064906e-02
   7.00490698e-02  1.06994413e-01  8.41999426e-02  1.31041575e-02
   1.48467850e-02 -7.47571588e-02 -2.04507168e-02 -5.61870486e-02]
 [ 5.98992279e-04  9.76377726e-02  1.84497386e-01 -9.67687815e-02
   1.54915646e-01  1.25793502e-01 -1.21709788e-02 -4.48098481e-02
   1.90066844e-02  1.48523832e-04 -3.99055816e-02 -7.21860351e-03
  -1.49865299e-02 -5.61461784e-02  1.01326950e-01 -7.01384246e-03
  -7.59484023e-02 -9.17374417e-02  2.31233072e-02 -6.97719231e-02
  -1.48884565e-01  7.65961856e-02  3.41665559e-02  1.37064368e-01
  -2.00075150e-01  1.04586221e-01 -8.76115821e-03  1.35897212e-02
  -1.22913539e-01  1.05898485e-01  8.03914387e-03 -9.02068168e-02]
 [ 9.37500298e-02  4.02881242e-02  1.37333125e-01  1.28181741e-01
   2.88727265e-02 -7.70025179e-02  5.75804748e-02 -7.38921985e-02
  -6.76152334e-02 -7.52079189e-02 -5.24910279e-02  6.14701845e-02
   1.22358007e-02  1.17529869e-01 -1.43759064e-02 -3.83135234e-03
  -1.27197579e-01 -5.77504970e-02 -2.99297851e-02 -1.72913633e-02
  -3.77846621e-02 -3.99795659e-02 -7.03775138e-02 -1.35389537e-01
  -2.69539028e-01  6.89675799e-03 -6.24338072e-03 -2.45816484e-02
  -8.03956240e-02  5.32313250e-02  1.25289676e-04  9.07759368e-02]
 [ 2.28477214e-02  6.33524507e-02  1.57060102e-01  1.66510362e-02
  -1.05475813e-01  1.56058818e-01 -5.26537150e-02 -4.06033471e-02
   9.11718234e-02  1.42035142e-01 -1.38832346e-01 -1.58589659e-03
   4.70101051e-02  6.75755963e-02  4.68284562e-02  3.91316554e-03
   9.18066278e-02 -4.29614820e-03  2.28892826e-02 -9.69216377e-02
  -1.10711001e-01  1.49358347e-01  3.86510603e-02  5.66806421e-02
  -7.73792639e-02  3.34544033e-02  4.47300784e-02 -4.42550965e-02
  -8.22702050e-02  1.13745898e-01 -5.35301454e-02 -1.03997074e-01]
 [ 3.60646471e-02  2.85276007e-02  2.20720749e-02 -4.59062122e-03
  -8.02198648e-02  5.05151972e-03  1.25793427e-01  8.48705024e-02
   3.56912203e-02 -1.03549315e-02 -6.62320778e-02 -5.95933013e-02
   1.48422932e-02 -2.10882667e-02  1.01983786e-01  7.62657672e-02
  -1.78587064e-01 -9.71492007e-02  3.02700698e-02  8.86530057e-02
   3.57958395e-03 -7.81657454e-03 -1.23478189e-01  1.24875666e-03
  -7.23814368e-02  9.70502049e-02  1.31961197e-01 -4.12871334e-04
  -2.80355592e-03 -7.33754113e-02  6.74855933e-02  4.84794825e-02]
 [ 2.94128153e-02  1.03331596e-01 -1.34726897e-01 -1.39274346e-02
  -1.32013606e-02  1.04620673e-01  9.50048305e-03 -1.20386899e-01
   5.96783534e-02 -9.62552205e-02 -1.03499651e-01 -8.25113878e-02
   2.71255355e-02  1.05871193e-01  1.71448499e-01 -6.24894463e-02
   6.81237802e-02  5.96325956e-02  9.12379287e-03  3.11557297e-02
   4.25519459e-02  9.98691842e-02 -2.09825598e-02 -3.59934047e-02
   8.08991641e-02  6.97818100e-02  7.49420300e-02  9.44741368e-02
  -4.69615310e-02  6.75171688e-02  1.23948872e-01 -4.83218431e-02]
 [-2.36368496e-02 -5.58782108e-02  1.68044847e-02  5.73459305e-02
   1.53628916e-01 -5.74335605e-02  4.58773039e-02 -2.27501020e-02
   1.68595053e-02 -9.69411582e-02 -1.12333111e-01 -1.23581313e-01
  -5.98609112e-02 -1.06287949e-01  1.78057477e-01 -5.14891408e-02
  -8.71106759e-02  1.10186264e-01  4.02809493e-02 -1.14111677e-01
   1.27761632e-01 -1.16772518e-01 -2.08768677e-02 -6.22308776e-02
  -4.88324836e-02  5.96982911e-02 -4.25907411e-02 -7.10427389e-02
  -5.88274449e-02 -8.83745402e-02 -5.55443279e-02  9.60911214e-02]
 [-5.51618971e-02  8.75861384e-03  2.34202202e-02 -7.07414597e-02
  -1.08823009e-01  1.32743381e-02  1.38671890e-01 -1.32397071e-01
  -1.46578059e-01  1.00724585e-01  2.66634710e-02  9.14168879e-02
   7.14836940e-02  4.40794788e-02  1.47634819e-01 -1.17025763e-01
  -1.51437968e-01 -3.92766893e-02  5.36469705e-02  1.18143521e-01
   1.02414405e-02  1.03388922e-02 -6.45601973e-02  1.89187154e-02
   5.86229227e-02 -5.87909892e-02 -1.94609463e-02 -6.34049922e-02
   5.54168448e-02 -1.23335280e-01  4.80780900e-02 -1.05587244e-02]
 [-9.89339724e-02 -3.15033533e-02  9.36181284e-03 -2.66795121e-02
   9.68509167e-02  8.50993395e-02 -7.03098103e-02  1.15246587e-01
   1.07212722e-01  7.90849030e-02 -2.44761463e-02 -5.17201945e-02
  -1.75318047e-02  2.24073119e-02  2.01567873e-01 -7.86758810e-02
  -5.45121916e-02  1.35742411e-01 -4.47930694e-02 -6.00871928e-02
  -1.00385003e-01  4.64141779e-02  1.54308468e-01 -5.03592528e-02
   9.15680733e-03  2.33553946e-02 -1.16177872e-01  6.54412583e-02
  -2.66404133e-02 -8.10840726e-02 -6.19190335e-02 -1.97773203e-02]
 [ 1.69346612e-02  1.12971984e-01 -1.99031904e-02 -2.97207925e-02
  -1.40891336e-02 -9.12358984e-02  7.09092095e-02  2.45004687e-02
   2.88379043e-02 -2.53995117e-02  1.60364479e-01  3.42284106e-02
  -1.52725587e-02 -4.63335030e-02  1.86883494e-01 -1.17409624e-01
   1.30425736e-01 -6.46696910e-02 -2.55342834e-02 -1.05734151e-02
   6.32106438e-02  4.64618430e-02  1.87627804e-02 -4.86396253e-02
  -1.13742977e-01  1.48498893e-01 -5.57650663e-02  3.73770222e-02
   9.78325009e-02  7.25424439e-02  4.03172486e-02  1.06213301e-01]
 [ 5.80808781e-02  1.28949225e-01  1.32414699e-01 -3.01352069e-02
   6.67035729e-02  6.17885552e-02 -4.47782427e-02  1.28763050e-01
   2.83711962e-02  1.73381958e-02  1.08995780e-01  1.40618697e-01
   9.51162502e-02 -1.18704483e-01  1.15440883e-01 -4.05533686e-02
  -4.21320125e-02 -2.83147767e-02 -4.89262678e-03 -2.99228225e-02
  -5.37423305e-02  5.57585582e-02  8.02777559e-02  3.70036140e-02
   7.64078796e-02  1.42736346e-01  5.42888120e-02  1.77470837e-02
   4.68473695e-03  7.57518113e-02 -5.03660291e-02 -8.63533765e-02]
 [-1.01788789e-01  1.03832990e-01 -5.00005074e-02  1.33332416e-01
   8.43824521e-02 -1.04658179e-01 -8.38235021e-03 -1.05293080e-01
  -3.22936848e-02 -1.17249332e-01  7.03769177e-03  9.32102874e-02
   3.53825353e-02 -9.22714770e-02  8.08245540e-02  2.03014780e-02
  -1.27496600e-01 -3.71403731e-02 -1.26689106e-01  9.31571051e-02
   1.00086808e-01  5.82185090e-02  1.53996170e-01 -1.11771129e-01
   1.36863033e-03 -7.18959719e-02  1.00664720e-01  1.43221319e-01
  -1.03674553e-01  4.55485359e-02  8.14240351e-02 -1.01541311e-01]
 [-2.93860137e-02  1.14932224e-01 -2.57505942e-03  2.52036862e-02
   6.17502928e-02 -1.06081106e-01 -5.55997118e-02 -4.92076911e-02
  -1.60928760e-02 -3.79181355e-02  1.38114974e-01  1.38436064e-01
  -1.18765570e-01 -2.46784911e-02 -5.57388440e-02  1.35485426e-01
   8.36247727e-02 -1.02442667e-01  1.05347214e-02  1.42905876e-01
   1.99847072e-02 -9.40307900e-02 -5.92967588e-03  7.07460791e-02
  -1.44972140e-03 -8.09677169e-02 -3.61339375e-02 -1.26606748e-01
  -7.41064027e-02  1.12231933e-01 -7.49368221e-03 -1.31273523e-01]
 [ 1.66715160e-02  1.21705845e-01  1.19011074e-01  7.54007250e-02
  -1.00939080e-01  5.94863407e-02  1.62172168e-01  7.13981017e-02
  -9.49657112e-02  1.04055308e-01  1.08886413e-01  3.55663858e-02
  -1.77938957e-02 -7.28781670e-02 -1.45020351e-01 -4.04672474e-02
   1.24155827e-01  6.09550364e-02 -7.55086243e-02 -6.15455545e-02
   6.81153014e-02  3.47270854e-02  1.25363529e-01 -9.25495028e-02
  -8.94041061e-02 -6.16758205e-02  1.15383957e-02 -3.94655839e-02
  -1.12562761e-01 -1.94261111e-02 -1.21175289e-01 -1.42000601e-01]
 [ 5.02773561e-03 -4.12816741e-02  5.93939871e-02  1.72692642e-01
  -9.83576030e-02  4.07935791e-02  6.05315715e-02 -1.10123813e-01
   5.50970770e-02 -1.97114963e-02 -8.76634344e-02 -1.26560688e-01
   6.15436323e-02  8.24203864e-02 -7.59695396e-02  1.39658511e-01
  -7.22912401e-02  1.07131943e-01 -9.66428667e-02 -3.13912183e-02
  -1.11437082e-01  3.74354087e-02 -3.34885269e-02  1.14494294e-01
   9.66060460e-02 -8.25157855e-03  1.26367155e-02 -3.84303089e-03
   7.06938431e-02 -1.21441916e-01 -9.76978615e-03  2.22838372e-02]
 [-6.55955402e-04  8.23656693e-02 -1.00965947e-01  1.24248646e-01
   1.60322934e-01  1.41540486e-02  5.43962382e-02 -9.66946557e-02
  -1.27058819e-01  3.13237682e-02  7.56312758e-02  1.60957454e-03
   2.38750502e-02  6.27601668e-02  8.40131491e-02 -1.26024270e-02
  -2.73182988e-02  1.81256756e-02 -6.76286668e-02  6.69339150e-02
  -4.34604064e-02 -1.08788148e-01 -9.82077122e-02 -1.21519834e-01
  -7.48832151e-02  2.76241023e-02 -1.66628994e-02 -6.98780715e-02
  -4.69727181e-02 -1.00616971e-02 -4.48698774e-02  1.25351906e-01]
 [-3.36336084e-02 -7.30983615e-02  5.13692237e-02  5.72636984e-02
   1.04086570e-01  4.42968719e-02  3.07210870e-02 -2.15334147e-01
  -7.12537393e-02 -1.41030386e-01  2.94978432e-02  6.70785159e-02
   3.78729627e-02  9.80675314e-03  3.28245386e-02  1.32618323e-01
  -1.12901397e-01  7.95138329e-02 -5.04741073e-02  1.82692776e-03
   1.09675210e-02  2.47852635e-02 -6.41251430e-02  8.12121853e-02
  -7.46085681e-03  4.75480855e-02  7.87214264e-02 -8.34753886e-02
  -1.63870975e-02  7.05085620e-02 -1.38361841e-01  9.33220237e-02]
 [-3.72049888e-03  1.17015066e-02 -1.21441089e-01  5.02697378e-02
  -1.18731588e-01 -5.41725717e-02  1.25657186e-01 -5.51388487e-02
  -1.29895424e-02  8.05613175e-02  3.42060030e-02  9.81602538e-03
   3.31910029e-02  1.96381398e-02  9.80815440e-02  1.22376256e-01
   1.67074315e-02  3.63038592e-02  3.14875767e-02  7.86515251e-02
   1.04123307e-02  1.17751792e-01 -1.05338141e-01 -7.83703849e-02
  -2.23284513e-01  1.33184701e-01  5.33308238e-02  1.37664750e-02
  -3.36927362e-02 -2.61626709e-02  5.83525784e-02  1.15778297e-02]
 [ 4.89520244e-02  1.79434091e-01 -3.34509283e-01  1.30230412e-01
   7.57427737e-02  2.52219606e-02  6.23674598e-04 -4.62858826e-02
   1.36504825e-02  2.23400537e-02  5.66494875e-02 -1.09466113e-01
   1.60013825e-01 -4.72396500e-02  3.54985744e-02  1.37907177e-01
   6.89378977e-02 -3.04018948e-02  1.76973883e-02  2.70035956e-02
  -1.03242293e-01  1.42032683e-01 -9.19786766e-02  1.15355879e-01
  -1.92188501e-01 -1.42758965e-01 -1.09761231e-01 -2.30279975e-02
  -6.20301031e-02  1.97781306e-02 -7.34944046e-02 -5.75401932e-02]
 [-8.11945554e-03  2.83895768e-02  3.02686337e-02  4.76737879e-02
   5.00732511e-02  3.11055570e-03  3.16278636e-03  3.80945243e-02
   8.15047994e-02  7.21130744e-02  1.32145450e-01  2.93247085e-02
   6.88304231e-02 -3.99244875e-02  1.10078044e-01  1.76612735e-01
  -5.15206344e-03  8.72699171e-02  9.70977098e-02  1.38564706e-01
  -1.98956020e-02  1.30244836e-01 -7.73695260e-02  1.03420757e-01
  -6.33910522e-02 -1.21598959e-01  2.16700044e-02 -5.64094000e-02
  -1.49474159e-01 -1.15890965e-01  6.31024912e-02 -8.02790746e-02]
 [-2.86197532e-02  9.32563387e-04 -2.52737738e-02  8.67899433e-02
   6.61960915e-02 -1.99850346e-03  6.50431290e-02 -1.26958802e-01
   4.60172556e-02  9.28118154e-02  1.51732806e-02 -1.12356469e-01
   1.24292009e-01 -4.52979803e-02  1.51560545e-01  1.41693056e-01
  -4.31245193e-02  5.79956286e-02  8.33531991e-02  1.47077337e-01
   1.08440869e-01  5.26881516e-02 -1.10661745e-01  7.84249753e-02
   7.47446418e-02  3.63631025e-02 -1.23960286e-01  7.80204311e-02
  -8.61024708e-02 -8.58095810e-02 -1.51438609e-01  1.85068995e-02]
 [-8.21260884e-02  1.84793193e-02  8.50390494e-02  9.56786871e-02
  -1.08353995e-01  1.68546066e-02 -1.12214833e-01 -4.66724075e-02
   1.01373114e-01 -3.29998024e-02  1.16425142e-01 -1.03380442e-01
   7.52034634e-02  1.39673784e-01  9.29386690e-02  5.65068386e-02
  -4.78137620e-02  1.07248724e-01  2.47413409e-03 -1.59449168e-02
  -5.65270148e-02 -1.56929456e-02 -6.14357321e-03 -1.23612642e-01
  -6.08755574e-02  3.73456739e-02 -4.99431463e-03 -1.28998980e-01
  -7.86698014e-02  1.06597155e-01  2.27108551e-03  3.33361924e-02]
 [-1.27547875e-03  4.12949026e-02 -1.55684173e-01 -9.32998303e-03
  -1.10746562e-01 -7.18456507e-02  2.24078931e-02 -5.82819209e-02
   1.15475142e-02 -2.64570583e-03  1.02494843e-01 -4.57281917e-02
   1.05012067e-01 -2.38743629e-02  4.48131151e-02  7.51300082e-02
  -9.51862037e-02 -1.17927052e-01 -2.87659885e-03 -1.40529558e-01
   1.15324549e-01  3.96770835e-02 -3.01665999e-03  1.35487869e-01
   6.82386458e-02  6.42186776e-02  1.17484126e-02  3.50405537e-02
  -9.01208594e-02  1.24114081e-01 -7.73633495e-02  5.17007262e-02]
 [-1.62153523e-02  3.35444026e-02 -8.99366811e-02 -5.07242382e-02
   1.46525770e-01  1.27280250e-01 -7.82172978e-02 -1.49199858e-01
  -1.68726310e-01 -1.09372549e-02  1.27428308e-01 -1.20593026e-01
  -3.92445251e-02 -2.59542745e-02 -9.23915952e-03 -8.71728733e-02
   5.79337170e-03 -1.23863637e-01 -6.48355782e-02 -1.05009980e-01
   1.29998341e-01  2.87705511e-02  2.84832865e-02  3.94410565e-02
  -2.27319431e-02 -2.72519030e-02  1.18552379e-01 -7.54660144e-02
  -7.06295967e-02  1.13957681e-01 -1.87190771e-02 -8.06099921e-02]
 [-1.02098733e-02 -1.42051831e-01  1.41896913e-02 -7.36482367e-02
   1.21339023e-01 -1.78166807e-01  2.51384024e-02  3.10189873e-02
  -1.20412715e-01 -8.94060880e-02  1.74586430e-01  1.08153597e-01
  -2.64073368e-02 -3.60930525e-02 -1.53697515e-02 -6.60993084e-02
   1.00044996e-01  6.87716603e-02  4.90440335e-03  1.49650186e-01
   8.26579258e-02 -9.56801418e-03  1.33066714e-01 -1.37056671e-02
   7.26546645e-02 -6.47313967e-02  1.52747601e-01  4.04116586e-02
  -5.87430084e-03 -2.75384728e-02 -6.75166845e-02  4.38613296e-02]
 [-9.44650695e-02  1.29401892e-01  9.82348174e-02 -8.04638788e-02
   3.06451451e-02  6.88851476e-02  1.18545361e-01 -5.50771616e-02
  -3.71049456e-02 -8.02658349e-02 -2.80816983e-02 -8.77994820e-02
   4.47299927e-02  7.60083273e-02  1.78136118e-02 -1.22294463e-01
   6.04833029e-02 -6.96319491e-02 -2.20361203e-02 -3.59470770e-02
  -6.47736266e-02  9.17272351e-04  1.98926717e-01  8.30754414e-02
  -5.48493974e-02 -9.65111554e-02 -6.29432574e-02  1.75453238e-02
  -1.15317227e-02 -3.73419188e-02 -9.12408978e-02 -3.00284997e-02]
 [ 5.86296022e-02  2.71404954e-03  9.26368833e-02 -1.03989445e-01
  -1.03289701e-01  5.98123670e-02 -2.63804365e-02  1.54573634e-01
  -4.61654272e-03 -7.36494660e-02  7.81800821e-02  1.41539410e-01
   9.54224914e-02  5.15811034e-02  6.76699504e-02  1.24640748e-01
   3.59485745e-02  4.22304235e-02  2.97325533e-02  1.20715424e-01
  -5.03265336e-02 -7.45021477e-02  5.63423671e-02  3.12748626e-02
   1.19382717e-01  4.98044826e-02 -6.21608160e-02 -3.88024114e-02
  -8.74003693e-02  7.40082711e-02 -4.58609983e-02  1.31739080e-01]
 [ 5.67248650e-02 -3.09783276e-02 -1.37962356e-01 -1.86521746e-02
  -2.22276823e-04  5.42849563e-02  7.46351480e-02  4.40335497e-02
   2.54836604e-02  1.00286096e-01 -7.04593435e-02  2.10997351e-02
  -9.51100737e-02  9.65205580e-03 -1.12112060e-01  1.09594852e-01
  -1.30441397e-01 -9.78896469e-02  9.96496826e-02 -2.64540501e-02
  -3.72119360e-02 -1.19690515e-01 -3.19022276e-02 -1.15209647e-01
  -2.21641194e-02  1.34439498e-01 -1.18710399e-01  6.15374465e-03
   5.75399846e-02 -5.47618372e-04 -6.13380559e-02  1.39676690e-01]
 [-9.57138091e-02 -6.34917170e-02  1.10949567e-02  4.82389554e-02
   4.16346118e-02  1.44552186e-01  1.70909651e-02 -7.99214691e-02
  -6.81719650e-03  1.44010380e-01  9.59238410e-02  3.63478512e-02
  -1.46089643e-01 -1.87169714e-03 -9.00141150e-02 -4.57626693e-02
   2.79566087e-02 -5.84559292e-02 -6.67227954e-02 -8.77593756e-02
   1.04039334e-01  9.23822969e-02 -2.22612545e-02  4.35530320e-02
  -5.51419891e-02 -1.25755847e-01 -6.17491221e-03  8.31767321e-02
   7.93866739e-02 -8.39682147e-02  3.50359417e-02  4.08535898e-02]
 [-9.54045206e-02  1.10216357e-01  6.14352822e-02 -1.20308854e-01
   8.67039710e-03 -1.28454044e-01  1.37467206e-01  1.65360868e-02
  -7.95670450e-02 -1.36393681e-01 -9.89709720e-02 -1.22794889e-01
   1.49882613e-02  1.24161214e-01 -6.98763356e-02 -3.68462875e-04
   1.20917320e-01 -5.81114218e-02 -5.35443798e-02 -1.22693917e-02
   1.33473828e-01  2.89928857e-02  5.72442897e-02  2.54350677e-02
   1.74754690e-02  1.56899646e-01 -5.85144795e-02  1.09327890e-01
  -1.29459441e-01 -2.98794303e-02 -4.73562218e-02  6.87484443e-03]
 [ 1.91649944e-02  1.36015974e-02  3.37339826e-02 -7.95842037e-02
   5.10994792e-02 -4.48003747e-02 -1.15535505e-01 -4.83395569e-02
  -1.17054887e-01  1.18762851e-01 -2.72878353e-02  3.79589349e-02
   5.67450374e-02  7.18707815e-02  2.80174296e-02 -3.82569339e-03
  -1.47476614e-01 -1.27089575e-01 -2.16853488e-02  1.30298704e-01
   3.20207849e-02 -4.38934155e-02  1.08430855e-01  1.32444710e-01
  -9.57604572e-02  9.46984664e-02  2.96823271e-02 -6.46526068e-02
  -1.20034322e-01 -1.55685041e-02 -8.57312605e-02  4.96910512e-02]
 [ 5.77019341e-03 -1.04106091e-01 -1.29061937e-01  4.25211266e-02
  -1.15594909e-01 -1.94415763e-01  1.49668738e-01  1.36630163e-02
  -1.28934190e-01 -6.58172518e-02 -9.91670117e-02 -8.99447128e-02
   2.67342348e-02  9.36583579e-02 -3.83773558e-02  8.76340568e-02
  -2.63942201e-02 -7.04283416e-02 -2.11112108e-02 -2.58812495e-02
  -1.01987392e-01  5.40865250e-02 -3.30888331e-02 -8.32380801e-02
  -4.29084599e-02  5.91624863e-02 -1.18684255e-01 -5.21632247e-02
  -1.09227903e-01  9.92921740e-02 -1.24403499e-01  1.42846912e-01]
 [-1.73954424e-02 -6.91606104e-02 -9.12302583e-02  7.93229416e-03
   5.15539087e-02 -2.29033425e-01 -1.17708936e-01 -6.22909293e-02
  -4.80458699e-02  5.22551276e-02  1.00537956e-01  1.02896869e-01
   6.91962764e-02  1.13985769e-01  7.58588389e-02 -6.25276193e-02
   5.98257408e-02 -8.61152932e-02 -3.89715955e-02  2.23369692e-02
  -2.71618888e-02 -1.89505778e-02 -8.59573483e-02 -6.49625510e-02
  -1.17016762e-01 -2.03474965e-02 -4.52742539e-02 -4.90920208e-02
  -7.86334872e-02 -9.15838480e-02  3.26806791e-02  9.74542499e-02]
 [-8.66207480e-03 -1.90187275e-01 -2.35588685e-01  9.86313913e-03
  -3.99950258e-02 -2.30072483e-01  3.56956236e-02 -9.78409946e-02
  -5.00422455e-02 -9.75118279e-02 -1.38033961e-03  5.09192310e-02
   5.95792830e-02 -2.29188032e-03  1.08441286e-01  2.59961579e-02
  -1.42352208e-02 -4.13083360e-02 -2.35379324e-03  1.07292600e-01
  -1.27427712e-01 -8.19451455e-03  9.54472423e-02  5.20832501e-02
  -1.20879546e-01 -4.62984964e-02  2.04761587e-02 -2.10930016e-02
  -8.72974396e-02  8.80306885e-02  4.77814861e-02  2.40564048e-02]
 [-3.92543823e-02 -2.37347960e-01 -6.49648905e-02 -6.19105734e-02
   9.52318907e-02 -2.37069130e-01  5.50349802e-02 -3.25859291e-05
  -1.03385597e-01 -3.41417603e-02  1.04209580e-01  1.33277446e-01
   5.22377416e-02 -4.20039967e-02  1.77749675e-02  5.88333830e-02
   1.55322552e-01  1.57063119e-02 -3.08254734e-02 -6.76013604e-02
   7.43009076e-02 -1.17606506e-01  5.39915301e-02  9.15494263e-02
  -1.91653207e-01  1.35849372e-01  4.67630737e-02  3.74957919e-02
  -1.34540677e-01  1.16090842e-01 -4.96818945e-02  8.95800889e-02]
 [ 1.29279479e-01  5.14589138e-02  1.15520850e-01 -8.30328986e-02
   2.66262833e-02 -2.52376944e-01  7.36139342e-02  1.35284945e-01
   5.15404940e-02 -6.77264631e-02  4.18320000e-02  1.69700589e-02
   2.55228639e-01  3.90060507e-02 -2.62166560e-01  2.48720720e-01
  -3.27655934e-02 -1.18170217e-01 -1.77588463e-01  8.10924917e-02
   5.14476523e-02  1.58818029e-02  4.99999411e-02 -1.11921348e-01
  -7.44440779e-02  1.20348439e-01 -9.34920162e-02 -1.19355224e-01
  -6.27463087e-02  9.82226431e-02 -6.10784255e-02  4.93406355e-02]
 [-6.09586164e-02  5.93474805e-02  4.72945236e-02  4.33971249e-02
   1.00477181e-01 -7.44266510e-02 -3.82987000e-02  3.68413925e-02
   5.13811447e-02  2.18729936e-02  1.56638399e-02  1.42507210e-01
  -1.82433985e-04 -3.86117771e-03 -2.86221623e-01  6.60352483e-02
  -1.82468280e-01 -8.67997780e-02 -4.79289442e-02 -1.38542339e-01
   3.11100222e-02 -2.76935957e-02  6.36956096e-02 -2.09525581e-02
   2.68128395e-01  3.89202423e-02  2.03242004e-02  2.80778352e-02
  -9.15294364e-02  7.30917528e-02 -3.36849689e-02  1.18296653e-01]
 [-5.98272085e-02  4.72013168e-02 -7.08125085e-02  3.65100093e-02
   4.71515246e-02 -7.62399733e-02 -9.63165686e-02 -1.31931871e-01
   1.54316083e-01  3.83025296e-02  7.67114758e-02  1.47845507e-01
   1.37848593e-02 -5.29167652e-02 -2.90055931e-01  2.06304826e-02
   7.78802112e-02 -5.67098707e-02  5.40816598e-02 -5.92301879e-03
   9.92979482e-03  1.68684751e-01  5.99429607e-02 -1.12578586e-01
   5.22221066e-02  1.00621291e-01 -9.31795388e-02  7.27646053e-02
  -9.44361836e-02  1.65474024e-02  7.96142370e-02 -2.07030624e-02]
 [-6.03581034e-02 -1.31286522e-02 -1.97812114e-02 -4.97211609e-03
   1.33110702e-01 -3.47049348e-02 -8.86201933e-02 -5.20370156e-02
   4.88878079e-02  1.02660112e-01  8.96055400e-02 -7.35971257e-02
   4.29876000e-02  9.97862965e-02 -2.66021639e-01 -9.60109942e-03
  -1.17476344e-01  7.08873346e-02  4.14254097e-03  7.31055215e-02
   1.10564642e-01  1.62028164e-01  1.10552266e-01  8.97832662e-02
  -1.57110602e-01 -4.17854004e-02  1.12419419e-01 -6.73448294e-03
  -2.58976445e-02 -9.68598127e-02  7.84014612e-02 -9.80229676e-03]
 [-1.93905253e-02  3.58995683e-02 -1.24860503e-01  1.31433874e-01
   1.16121672e-01 -3.72088589e-02 -9.94553566e-02 -4.22210284e-02
   8.13390762e-02  8.25849399e-02  1.03668220e-01 -1.02328591e-01
   1.28396571e-01  6.19749837e-02 -2.24962264e-01  3.05536762e-02
  -7.98363537e-02 -1.27309397e-01  9.08644125e-02 -1.28658414e-01
   1.69451326e-01 -3.53111811e-02  1.21368684e-01 -5.96110076e-02
  -5.90295531e-02  1.43903762e-01  8.26402009e-02 -1.25835553e-01
  -2.72612255e-02 -8.17458183e-02 -6.75237700e-02 -5.60861528e-02]
 [ 7.42507204e-02 -1.22865653e-02 -1.18962198e-01  9.88122150e-02
  -6.89188838e-02  3.70276812e-03  1.36753052e-01  6.06288500e-02
  -7.73575604e-02  1.14586182e-01  3.32280360e-02  1.51000157e-01
  -7.87187740e-03  3.78000666e-03 -1.33268684e-01 -1.75068259e-01
  -1.38652220e-01  7.36680850e-02  2.53999252e-02  1.33338496e-01
   7.49575347e-02 -1.25182942e-01  1.32786736e-01 -2.12264247e-02
  -1.09854110e-01  1.53484777e-01  1.10454008e-01 -1.28606066e-01
  -1.75316751e-01 -1.08582392e-01 -1.12748537e-02 -5.12698144e-02]
 [-7.84167722e-02  4.71502915e-02  4.77652140e-02  6.31389022e-02
   1.61800653e-01  1.16134286e-01 -1.05278730e-01  1.28179282e-01
  -5.22201657e-02  7.02569932e-02  2.55701482e-01 -2.59103440e-02
  -1.08148552e-01  3.84562910e-02 -7.34336227e-02  5.71028329e-02
   1.09078377e-01 -2.50131655e-02 -8.31940677e-04 -1.21225670e-01
  -9.12082121e-02  1.28518984e-01  2.53338758e-02 -7.45289773e-02
  -5.02279997e-02  1.53220266e-01  2.39983387e-02 -3.49376090e-02
  -1.15648784e-01 -1.42945806e-02  4.11258154e-02  1.19581282e-01]
 [-6.47781864e-02  3.23162898e-02  9.78577286e-02  1.48065984e-01
   3.09495442e-02  1.39232039e-01 -4.26237918e-02 -4.14043814e-02
   1.57199740e-01  3.47995721e-02  2.28938852e-02 -3.26730572e-02
   8.48365948e-02 -1.08234428e-01 -4.19657379e-02 -1.27691090e-01
   4.07679714e-02  1.27583340e-01  3.14744599e-02 -5.98052517e-02
   1.32218599e-02  7.65829161e-02  1.20759986e-01 -2.12003337e-03
   1.43617362e-01 -6.58191517e-02  5.76012507e-02 -1.02122061e-01
  -1.01881929e-01  1.15218647e-01  1.38516147e-02  3.42761427e-02]
 [ 1.64468121e-02 -2.01883093e-02  1.36062279e-01 -2.39093583e-02
   6.94662658e-03 -8.34681392e-02  1.17042802e-01  9.76768285e-02
  -8.66958648e-02  1.47872027e-02 -6.05629757e-02 -4.07903455e-03
  -5.51963039e-02  7.76560828e-02  1.39845610e-01  5.69143449e-04
  -7.67419441e-03 -6.42741621e-02 -1.98935773e-02 -7.16181546e-02
   5.80472909e-02 -5.13971336e-02  1.25770077e-01  8.24751183e-02
   5.26239686e-02  2.89212679e-03 -8.08877312e-03  1.04560070e-01
   6.69022501e-02  6.89669028e-02  9.40451398e-02  8.88468176e-02]
 [ 2.42625251e-02 -5.14075831e-02 -1.86709352e-02 -1.21271491e-01
   2.73558442e-02 -1.81540959e-02 -3.61438803e-02  1.66544423e-01
   4.61142957e-02 -5.80999330e-02 -1.29178762e-01  1.09703206e-01
  -3.76215242e-02  4.47498169e-03 -9.81910005e-02 -5.46242716e-03
   1.04480095e-01  4.06948961e-02 -1.04070134e-01 -4.89646979e-02
   1.43710360e-01  4.38394537e-03 -6.31807446e-02  1.50477007e-01
   1.23171344e-01  1.13913000e-01 -5.01580685e-02  3.45944315e-02
   1.67847611e-02 -4.66168486e-03  8.41258317e-02  6.72856867e-02]
 [-3.58573459e-02  8.47603753e-02  1.39791548e-01  1.34588793e-01
   2.27136612e-02  5.27357981e-02  8.07785913e-02  1.85582429e-01
  -4.77645397e-02  1.19958669e-01  9.90036204e-02 -6.93957359e-02
  -4.41082418e-02  4.52442952e-02  1.13959171e-01 -1.43793777e-01
  -4.87431325e-02  4.35136724e-03 -1.44025937e-01  1.14087500e-01
   2.53015868e-02  2.41013244e-02 -6.00311458e-02  1.47908702e-01
  -6.69261208e-03  1.03914261e-01 -6.32078275e-02 -2.84137148e-02
   8.30346942e-02  7.35057965e-02 -1.80513877e-02 -8.74169022e-02]
 [-7.35316798e-02 -8.12291503e-02  7.54852667e-02  1.85339712e-02
   8.34617093e-02 -2.21566871e-01  1.49375618e-01 -4.37761806e-02
   4.12274934e-02  9.21516269e-02  5.69941476e-02 -3.15816738e-02
   8.56647044e-02 -3.37151997e-02 -8.70429277e-02 -1.02443300e-01
  -4.48483154e-02  1.24751136e-01  7.58720338e-02 -8.33086893e-02
   5.89451827e-02  4.76413332e-02 -1.25522673e-01 -7.87019134e-02
  -1.99544523e-02  4.83296774e-02 -2.10634135e-02  5.17684594e-02
   3.74811292e-02  9.79520008e-02 -9.76353064e-02  1.12830698e-01]
 [-4.65025008e-02 -1.34825781e-01 -4.53098528e-02  6.78268224e-02
   3.40418331e-02 -2.09010378e-01  1.27276946e-02 -5.65099865e-02
  -1.21891811e-01 -1.61087383e-02 -3.54701094e-02  2.63329577e-02
   1.33068729e-02  1.22660570e-01  7.87084326e-02 -1.32119983e-01
   1.67157859e-01 -1.07437335e-02 -6.24442324e-02 -9.08567458e-02
  -5.09019271e-02  8.42098370e-02  3.86207253e-02 -1.38825178e-01
  -6.36108369e-02 -6.62747622e-02 -8.36018622e-02 -6.18142001e-02
  -5.88177741e-02  7.32723922e-02 -4.95581850e-02  8.34583044e-02]
 [-4.58708517e-02 -2.16149643e-01 -1.29450276e-01 -1.01727448e-01
  -1.09063268e-01 -1.37582198e-01  6.13586269e-02 -6.79671615e-02
   3.71293090e-02 -3.28663853e-03  3.91527601e-02 -9.79871303e-02
   1.16025813e-01  1.30736396e-01  1.58950016e-02 -3.66215110e-02
   1.00231860e-02 -1.08080238e-01  3.77158970e-02 -1.79817267e-02
   1.40733600e-01  1.20458379e-03  2.50540976e-03  2.52193864e-02
   3.99393737e-02  8.39661248e-03  1.03824407e-01  1.46849984e-02
   6.13096058e-02 -9.66387615e-02 -7.58087710e-02 -3.59469131e-02]
 [-4.38557267e-02  1.16343005e-03 -1.31517261e-01 -1.59689471e-01
  -1.25970513e-01 -1.18543051e-01  7.99721405e-02 -6.14191741e-02
   4.37758910e-03 -3.75908688e-02  3.75101082e-02  1.22923434e-01
   1.68025792e-01 -7.86446109e-02  2.46336069e-02 -1.18144505e-01
  -1.02039585e-02 -1.00102633e-01 -5.48696481e-02  8.23440030e-02
  -2.61410829e-02 -2.06394732e-01  6.71324059e-02  7.49787986e-02
  -3.84374596e-02 -9.89098027e-02 -7.86601305e-02 -1.08094521e-01
   8.25329348e-02  6.29680380e-02 -2.65241936e-02  6.63205683e-02]
 [ 7.97878951e-02  3.36415619e-02 -6.91150781e-03 -1.37584701e-01
   7.30878934e-02 -1.30624175e-01  1.23463176e-01  2.74256200e-01
  -8.25811028e-02 -9.52934101e-02 -6.48944872e-04 -1.09591313e-01
   2.28051558e-01 -6.57481030e-02  1.38113620e-02 -2.40857095e-01
   3.68679538e-02  1.74288433e-02 -1.14269502e-01  4.02775519e-02
   4.86008301e-02 -1.54648066e-01  6.53198212e-02 -9.48908702e-02
  -1.34260356e-01  1.41229019e-01  8.62946659e-02  6.61160499e-02
   1.28030851e-01 -7.27621093e-02 -6.41739666e-02  1.43533677e-01]
 [-3.29700336e-02  1.31056070e-01  1.85089827e-01 -6.79705441e-02
   7.61546940e-02 -5.87800778e-02  3.85904387e-02  3.86748135e-01
  -5.62286749e-02 -5.94547950e-02 -1.38967812e-01  3.05843446e-02
   4.94737066e-02  4.34561148e-02  1.53856939e-02 -1.14512950e-01
  -3.46899927e-02  9.33409259e-02 -1.43914863e-01 -2.47537382e-02
   2.43429816e-03 -6.64812699e-02  9.57492515e-02 -6.19555004e-02
   8.85839909e-02 -8.99301767e-02 -2.22228039e-02 -9.52881724e-02
  -3.65944579e-02  7.52798393e-02 -1.06480867e-01 -7.97295719e-02]
 [-9.53648910e-02  6.07137606e-02  2.31920071e-02 -6.24209968e-03
  -8.33557844e-02 -9.91716757e-02 -4.72508334e-02  5.92118013e-04
  -2.44135037e-01  4.24783267e-02 -1.50640592e-01  9.11041200e-02
   5.49360886e-02 -5.18343151e-02 -4.95566279e-02  7.25039989e-02
   5.19117266e-02  1.39681324e-02  5.33780456e-02  7.33677521e-02
  -5.47537431e-02 -6.09651618e-02 -6.83019012e-02  6.91751763e-02
   2.11571470e-01  1.35535419e-01  4.30314429e-02  2.43404079e-02
   7.29031563e-02  1.19015060e-01 -1.09824099e-01  8.06241035e-02]
 [-6.09207898e-02  5.76036870e-02 -1.34351924e-01  5.88278146e-03
   8.89793634e-02  5.73459417e-02  1.17012057e-02  6.28040954e-02
   8.92490298e-02 -2.79393923e-02 -1.14787430e-01  6.22624420e-02
   7.67633468e-02 -8.79797563e-02 -1.05762087e-01  4.48145941e-02
  -8.09709951e-02 -1.28324330e-01  2.43317871e-03  1.89492837e-01
  -3.99603285e-02  4.68805153e-03 -1.33084536e-01  8.10766295e-02
   2.16970835e-02 -2.26976462e-02 -4.95292656e-02  1.35364801e-01
   3.85095039e-03  1.02511294e-01 -1.79043621e-01  7.14312494e-03]
 [-3.95269096e-02  1.46210328e-01 -1.07072890e-02 -9.88979116e-02
   1.03162527e-02  7.14723766e-02  1.08507439e-01  7.41184577e-02
   1.56051859e-01 -1.08187303e-01 -1.64944485e-01  1.00788675e-01
   5.56088835e-02 -1.11168928e-01 -2.00077638e-01 -2.76840217e-02
   7.13758916e-02  7.85749033e-02  5.13412282e-02 -1.38726830e-02
   8.33575893e-03 -4.79958057e-02 -1.54724360e-01  6.89469948e-02
  -9.81143489e-02 -8.15772265e-02  8.43526945e-02 -4.49159928e-02
  -5.17902337e-02 -7.32171014e-02 -2.85604484e-02  5.63230515e-02]
 [-1.66290756e-02 -1.59424901e-01 -2.16145366e-02 -9.54567119e-02
  -3.67938168e-02 -7.78095052e-02 -6.72214627e-02  1.94863707e-01
   6.78268373e-02 -9.38986763e-02 -7.19201341e-02 -4.56736796e-02
   4.28299233e-02  5.27637415e-02 -1.41639590e-01 -5.43859117e-02
   6.78349473e-03 -1.18989162e-01 -4.70827706e-02  1.13106616e-01
   1.14174873e-01  1.01012006e-01 -2.77638528e-03  1.12977020e-01
  -3.65346298e-02  2.26401202e-02 -7.26799816e-02 -6.81190416e-02
   2.21872721e-02  5.27575426e-02  5.99695332e-02  5.63359559e-02]
 [ 7.45660579e-03 -4.16500643e-02  7.83295259e-02 -1.16317384e-01
   7.57102072e-02 -7.88296238e-02  5.15734591e-02 -4.07526852e-04
  -1.51046544e-01  1.13703348e-01 -1.26680508e-01  1.04419723e-01
   3.02494783e-02 -1.15530089e-01 -9.40024555e-02 -1.06580630e-01
  -2.85560382e-03 -2.99018361e-02  1.27802432e-01 -7.05799647e-03
   1.34309143e-01  1.14439175e-01 -3.54892132e-03  2.16705054e-02
   7.54968971e-02  5.34159690e-02  1.19694844e-01  5.14601544e-02
  -6.10568598e-02  5.72079942e-02  4.47479114e-02  8.09271038e-02]
 [ 2.04851609e-02 -1.43111259e-01 -9.20032710e-02  7.42519274e-02
   1.49381906e-01  1.81709230e-03 -7.50980228e-02 -4.84594377e-03
   4.83515076e-02 -9.40406248e-02  1.08504511e-01 -5.27263321e-02
   3.09278816e-02 -1.79420691e-02  9.04800966e-02 -3.16935591e-02
  -2.68929382e-03  1.92115791e-02 -7.57392496e-02 -6.09471425e-02
   6.78062141e-02  1.48155019e-01  1.92501053e-01 -3.81109789e-02
   5.85348047e-02 -6.87431991e-02  9.32451412e-02  9.56066996e-02
   8.07091445e-02  1.20999443e-03 -1.29024401e-01 -1.37159884e-01]
 [ 6.58089221e-02  6.53419867e-02 -7.01668337e-02  9.64935943e-02
  -6.66523650e-02  8.96432698e-02  8.68904889e-02  1.44364566e-01
  -1.20530501e-01  6.02936298e-02 -1.21740773e-02 -1.60416998e-02
   5.76422550e-02 -8.57003629e-02  1.62957594e-01  3.23404595e-02
   6.84679002e-02 -1.04605511e-01 -9.42041203e-02 -7.71773607e-02
  -9.60164219e-02 -1.25002889e-02 -7.01130107e-02 -8.67642015e-02
   1.58420205e-01 -1.17785551e-01 -5.77416681e-02 -1.13602970e-02
  -1.58458680e-01 -1.04964904e-01  4.30361107e-02 -9.66221392e-02]
 [ 9.98912230e-02 -2.90687867e-02  5.25615588e-02  1.21119849e-01
   5.39827021e-03 -2.15501785e-02 -1.06344722e-01  6.61449954e-02
   1.40417755e-01 -7.60315582e-02 -1.49057601e-02 -9.79775935e-02
  -1.61500201e-02  1.27175078e-01 -6.99231122e-03  4.00643842e-03
  -7.18031675e-02  7.59407580e-02 -4.48796600e-02 -1.00979954e-01
  -5.01777604e-03 -5.65673038e-02 -4.00805213e-02 -1.05756499e-01
   7.74408132e-02  9.49510261e-02  6.26749918e-02  1.28528163e-01
  -3.23510021e-02 -5.33964448e-02 -4.09661792e-02  1.00158438e-01]
 [-6.59032017e-02  6.65409211e-03 -1.22039519e-01  3.59762162e-02
  -3.59268934e-02 -1.76209286e-02 -8.63719881e-02  1.62641302e-01
   1.52231723e-01  7.58990347e-02 -1.30071521e-01  1.14886604e-01
   4.02150787e-02  2.63639577e-02 -5.73975071e-02 -1.36992320e-01
   1.51965469e-01  1.20914374e-02 -1.21052228e-01  9.36049670e-02
   9.06905457e-02  7.91106466e-03 -2.50488874e-02  3.55698653e-02
  -5.07906899e-02  1.45820811e-01 -3.45512256e-02  5.59465177e-02
  -1.33110821e-01 -6.84473887e-02 -6.16607368e-02  1.17484510e-01]
 [-1.04957903e-02  2.23224089e-02  5.24686463e-02 -1.15504518e-01
  -7.24160224e-02  5.50206518e-03  1.30607516e-01  2.35390980e-02
  -2.25497037e-02  1.14138402e-01 -1.53031126e-02  9.53015387e-02
   8.79727527e-02 -3.67005430e-02 -1.09840795e-01  3.45171429e-02
  -3.70961204e-02  1.35038495e-01 -8.16190965e-04  8.29315484e-02
  -1.12854816e-01 -2.90039387e-02  9.76328626e-02  2.65232995e-02
   9.53814685e-02  6.21884726e-02  3.26706693e-02 -1.18155777e-03
  -7.84297436e-02 -3.56278010e-02 -1.74592491e-02 -1.38760775e-01]
 [-1.35834785e-02 -2.15503290e-01 -1.27340704e-01 -2.09200718e-02
  -5.02829403e-02 -1.14073917e-01 -3.54365520e-02  1.26365423e-01
  -1.30727366e-01  3.15747261e-02  1.59134597e-01  5.73612079e-02
   1.63087491e-02  1.37098178e-01 -5.21959141e-02 -1.15414806e-01
   1.29620224e-01  1.26883149e-01 -3.87614928e-02  8.62356573e-02
   1.21043034e-01  5.71683161e-02 -5.17195836e-02  4.37075039e-04
   9.22896042e-02 -2.33772192e-02 -1.11014573e-02 -8.90911296e-02
  -2.19733082e-02  1.19019173e-01  2.26656273e-02  6.59359396e-02]
 [ 2.76966742e-03 -4.92381305e-02 -1.52793331e-02 -1.92961827e-01
  -9.18246806e-02 -7.86079168e-02  3.28943972e-03  8.62282813e-02
  -6.66337609e-02  8.56196135e-02  6.45147637e-02  1.36932850e-01
   1.64482370e-01 -3.98706906e-02  5.68753518e-02 -9.88443643e-02
   5.82206175e-02  5.24247251e-02  1.25087246e-01  7.47957975e-02
   6.09770007e-02  1.94405109e-01  7.92569891e-02  8.34970921e-02
   1.03446491e-01 -3.41322720e-02  1.02330213e-02  4.24004681e-02
   1.92699626e-01  9.99799222e-02 -8.30618143e-02  1.27827257e-01]
 [ 6.00985959e-02  3.67900878e-02 -7.71409795e-02 -1.52652085e-01
   8.43975917e-02  3.43145616e-03 -6.49285167e-02 -7.42680859e-03
   7.21919462e-02 -8.88180211e-02  3.24966237e-02  3.71643528e-03
   1.49501085e-01  3.18891853e-02 -2.52618194e-02 -1.43609866e-01
   1.07352227e-01  1.18687116e-01 -3.47394161e-02  7.71972612e-02
  -5.02420217e-02 -1.95981581e-02  9.40532163e-02  1.31231442e-01
  -4.51494381e-02 -1.28591582e-02  8.33798721e-02 -7.16534480e-02
   1.80039063e-01  1.24379478e-01 -1.82112232e-01  6.46819025e-02]
 [-3.05820107e-02  8.27817526e-03  3.12594138e-02 -1.70799598e-01
   5.40312901e-02  4.86428738e-02 -8.87179747e-02  1.77845340e-02
   2.01080486e-01  1.44793287e-01  9.06461477e-02 -7.41368160e-02
   2.33800970e-02  1.18840411e-01  6.67570606e-02 -1.74428299e-01
  -4.64595575e-03 -2.27580741e-02  7.85670727e-02 -1.03021502e-01
   1.58744067e-01 -1.65773511e-01  7.84744397e-02  1.26281857e-01
  -1.27578735e-01 -8.60440508e-02 -8.02055821e-02 -3.06609999e-02
   2.35988319e-01 -6.28811866e-02 -1.53419420e-01  1.18089557e-01]
 [ 1.37220383e-01  1.80283397e-01  2.50161290e-02 -1.06760867e-01
   1.48844048e-01  1.56021699e-01  1.30565226e-01  2.58877520e-02
  -8.70280117e-02 -1.20955177e-01  7.77749345e-02  8.12474638e-02
   6.57335445e-02  7.75717050e-02  1.40190283e-02 -2.24084526e-01
  -1.74521625e-01  5.94421141e-02  9.87394229e-02  8.36944208e-02
   4.09385785e-02 -2.73457974e-01  2.14613587e-01  6.18455485e-02
  -4.55765985e-02  6.63989689e-03 -1.28623825e-02  9.45306420e-02
   1.44349381e-01  5.30722830e-03 -1.49967313e-01 -2.53733844e-02]
 [ 2.43622083e-02  5.19557931e-02 -7.27668181e-02  1.66095778e-01
  -7.65623301e-02 -1.38962958e-02  9.47215855e-02  1.65357128e-01
  -2.79367238e-01 -8.47514905e-03 -1.56043053e-01  8.27755406e-02
   1.02012709e-01 -1.10256761e-01 -7.79364854e-02  2.35539451e-02
  -1.46900490e-01 -7.18979537e-02  1.81699872e-01 -5.47223054e-02
  -2.60317773e-01 -1.10167906e-01 -4.60933931e-02 -1.30034462e-01
   2.07676336e-01  1.18567660e-01 -1.04847290e-01 -1.58834338e-01
  -2.64987573e-02  8.73217359e-02 -1.12347655e-01  3.48568261e-02]
 [-1.01677015e-01  3.28097641e-02  5.04764616e-02  9.86948460e-02
  -4.03286330e-03 -1.92409381e-01 -4.35784236e-02 -1.08041808e-01
  -2.11887062e-01 -1.23529367e-01 -2.40641490e-01  6.25811964e-02
  -1.04358676e-03  8.62434506e-02  2.28680149e-02  2.59684753e-02
   1.16449252e-01  5.15404344e-02  1.35211544e-02 -7.28837252e-02
  -1.89780846e-01 -7.99240917e-02  8.31254758e-03 -6.75462559e-03
   6.31012842e-02  4.03847285e-02  3.51896212e-02  7.65211061e-02
   7.18870312e-02 -1.45627469e-01 -2.45191641e-02 -1.15900785e-01]
 [-8.06070492e-02 -3.77945183e-03 -6.28004372e-02  2.74912156e-02
  -8.13460127e-02  1.75775103e-02  9.91162658e-02 -3.83155346e-02
   3.68650816e-02 -1.14095531e-01 -1.13623530e-01  5.53195663e-02
   2.93785259e-02 -1.10431902e-01 -2.84845792e-02  2.59034510e-04
  -3.11426800e-02  1.22694172e-01  5.07022440e-02 -2.45292634e-02
   5.92023097e-02 -1.37220606e-01 -1.73829958e-01 -5.07076383e-02
  -9.54192714e-04 -1.18460376e-02 -9.57975462e-02 -7.45405583e-03
  -3.52295637e-02  7.71640390e-02  2.27450337e-02 -1.04900271e-01]
 [-1.09148538e-02 -1.64594159e-01 -7.52569512e-02 -1.26841918e-01
  -5.20872176e-02  8.56510103e-02  4.75386903e-02 -2.44331323e-02
  -1.92667264e-02  1.34481221e-01 -2.25701571e-01  5.67193925e-02
   1.25980347e-01 -1.03269942e-01 -5.43588363e-02  9.31770727e-03
   1.35653943e-01  1.53414886e-02  5.18895946e-02 -1.21722713e-01
  -8.62752274e-02  3.29209603e-02 -2.24620342e-01  1.36495322e-01
  -1.04527265e-01  1.47221401e-01  1.15587123e-01  7.71748498e-02
   6.62249029e-02 -1.37375044e-02 -7.63602853e-02  3.05345803e-02]
 [-4.77596465e-03 -1.75800137e-02 -1.04730822e-01  6.73918277e-02
  -6.88396022e-02 -1.33079693e-01  8.26213136e-02  9.24002826e-02
   8.44613016e-02 -1.50461003e-01 -8.97921473e-02 -2.25541126e-02
  -5.93748391e-02 -2.32456494e-02 -9.77115780e-02 -3.38617824e-02
   1.91632301e-01 -4.63525802e-02  1.19292140e-01 -6.50786012e-02
   1.63571596e-01  1.07132696e-01 -1.87030956e-01 -1.14368781e-01
   1.17795533e-02  4.58626971e-02 -1.08326130e-01 -4.32128459e-02
  -5.68826385e-02  6.47604465e-02 -1.14622526e-02 -1.03717089e-01]
 [ 9.09705609e-02 -6.80071265e-02  1.15445197e-01 -1.06587142e-01
   1.66368380e-01  7.79745206e-02  1.91073138e-02  5.32572940e-02
  -4.49099727e-02  7.18454942e-02 -7.49555305e-02 -3.15190628e-02
  -4.81485277e-02 -5.83835468e-02 -1.37077019e-01  9.97094214e-02
   7.98620284e-02  9.78027657e-02 -7.96879604e-02 -7.58736879e-02
   1.59972489e-01  4.96074259e-02 -1.07440442e-01  9.42438841e-02
  -9.89822820e-02  3.58836763e-02 -4.46864627e-02  8.94784629e-02
   1.04965121e-01  5.18526286e-02 -1.14905573e-01  8.82335156e-02]
 [ 1.10219829e-01 -6.13022335e-02 -8.15676898e-03 -3.49470042e-02
   6.38337731e-02  7.34835118e-02  8.42385069e-02 -1.94717068e-02
   4.38749492e-02 -1.30923435e-01 -1.43730223e-01 -1.08956628e-01
   4.16059308e-02 -6.89770058e-02  7.09236711e-02 -1.12374432e-01
   1.24793403e-01 -5.34281135e-02  2.87593286e-02  1.58591628e-01
  -1.16783924e-01  3.70662175e-02  7.65581802e-02  1.30091626e-02
   8.02817047e-02 -1.25263914e-01  1.95323564e-02  1.39141753e-01
   8.52834135e-02 -5.02226762e-02 -7.58477952e-03  1.07860744e-01]
 [-1.05938613e-01  1.18051000e-01  4.27962691e-02 -1.87114235e-02
   1.50611818e-01  2.27879919e-02  2.39997823e-02  1.23679049e-01
   2.18533091e-02  1.36253521e-01  4.18291353e-02  9.97799858e-02
  -3.13363373e-02  1.22734196e-02  1.14978448e-01  6.10160525e-04
   4.23965193e-02 -7.51798749e-02  1.19497649e-01 -1.71169657e-02
   6.92762062e-02  3.03230388e-03 -5.99645674e-02 -4.99729775e-02
  -4.37500961e-02  4.89749722e-02  1.53158650e-01  2.84735449e-02
  -1.52452499e-01  1.28787503e-01 -9.79830027e-02 -3.59844938e-02]
 [ 9.63191986e-02 -8.19770023e-02  7.75200650e-02 -8.33890960e-02
   1.30648345e-01 -8.13192651e-02 -5.11320755e-02 -1.28044561e-01
   4.55396473e-02  1.19816147e-01  9.34440643e-02  7.78757930e-02
  -1.34450093e-01  1.21233836e-01  9.91366729e-02 -6.34867623e-02
  -2.45493967e-02  9.54104513e-02  1.10747635e-01 -6.24232367e-02
   1.54776648e-01  8.61966312e-02 -1.03864625e-01 -1.03860222e-01
  -8.45977366e-02  1.45435676e-01  1.00590680e-02 -8.12401026e-02
  -1.93878580e-02  6.82900399e-02  4.27050926e-02 -8.56420323e-02]
 [-1.48632348e-01  8.04103464e-02  8.66836756e-02  1.12791106e-01
  -1.05896868e-01 -1.57298669e-01  9.18080658e-02  6.29256517e-02
  -1.08580686e-01 -3.26655246e-02 -1.19961567e-01  4.45229094e-03
   8.39166939e-02  1.48670897e-02  7.92433098e-02  8.04763138e-02
  -4.11765836e-02 -9.21365246e-02  1.57078113e-02  1.10301763e-01
   1.47555262e-01 -1.00591898e-01 -5.81800528e-02  9.15099755e-02
   4.97651696e-02  1.45326659e-01  9.54722911e-02 -1.41411964e-02
   1.15103558e-01 -2.75780279e-02  1.02880046e-01  4.69381362e-02]
 [-4.86117555e-04 -2.68881731e-02  8.81655812e-02 -5.89573383e-02
  -8.64042118e-02  3.65674496e-02  9.92488302e-03  4.70008738e-02
   1.13293700e-01  1.15182124e-01 -7.77394325e-02  4.22603786e-02
  -4.28930521e-02 -1.09589964e-01  2.61729173e-02  5.44709340e-02
   1.65030777e-01  1.08729899e-01  5.37966304e-02  5.79245854e-03
   1.07471339e-01  2.64240056e-01 -1.17762648e-01 -1.26824766e-01
  -6.70048371e-02 -9.99742523e-02  3.35610472e-02  7.08656758e-03
   6.99723288e-02  1.89298149e-02  2.09381949e-04  7.89564252e-02]
 [-4.24208343e-02 -5.57928979e-02  9.02029406e-03 -1.17514469e-01
  -1.08096197e-01  1.52743816e-01  1.28073528e-01  9.98954177e-02
  -2.83258017e-02  4.65149060e-02  1.35240732e-02  1.30894616e-01
   8.47179964e-02  1.04243144e-01  5.91262206e-02 -1.47199050e-01
   1.12177087e-02 -1.64180622e-02  5.39480895e-02 -4.43268605e-02
   2.22844109e-01  1.21204749e-01 -6.87976331e-02  1.29785538e-01
  -4.21112590e-02 -1.27769783e-01 -5.07252365e-02 -1.13562435e-01
   1.84844166e-01  4.01428044e-02 -9.26663801e-02  1.12216294e-01]
 [-5.48118874e-02 -8.11805651e-02  3.21001634e-02  1.03941821e-01
   1.00082107e-01  3.43933254e-01  6.19889945e-02 -1.09084718e-01
   4.21897918e-02  6.73501715e-02  8.15298930e-02 -1.20687574e-01
   4.78668995e-02 -1.32818639e-01 -5.98416179e-02 -8.19117427e-02
   1.49679333e-01  1.01338729e-01 -3.57514881e-02  1.43326223e-01
   1.13910422e-01  8.65158886e-02 -2.17419371e-01  2.42973939e-02
  -1.04501083e-01  1.03967644e-01  6.06535934e-02 -4.63655451e-03
   1.67596281e-01  6.07441850e-02 -3.49975713e-02  7.85294026e-02]
 [-2.94802692e-02  1.78118423e-02 -6.41720593e-02 -4.06854488e-02
  -1.86498202e-02  2.24295765e-01 -2.22449750e-02 -5.02152443e-02
   1.29047140e-01  6.83851028e-03  1.15972780e-01  3.44354399e-02
   2.77154595e-02 -9.40440521e-02  6.39586821e-02 -6.50373176e-02
  -1.68994758e-02  1.20094521e-02  2.84428839e-02 -8.88107270e-02
   1.89018607e-01  1.06401006e-02 -2.58804834e-03 -1.27515018e-01
   1.91354882e-02 -1.10795461e-02  5.61275110e-02 -2.49465425e-02
   1.26932159e-01 -2.38998346e-02 -3.83571126e-02 -1.16438903e-01]
 [ 4.53297719e-02  3.32354344e-02  9.41659510e-02  6.67242566e-03
   7.12050647e-02  1.69813663e-01 -1.05589218e-01 -9.44519639e-02
   2.34728586e-02 -1.12879582e-01  9.05704722e-02  2.26224605e-02
  -7.63803795e-02 -1.52683202e-02 -1.61652733e-02 -2.92656645e-02
   2.79845367e-03  1.30719543e-02  4.19776328e-02  1.00068949e-01
  -9.42299515e-02 -8.45866278e-02 -5.22806086e-02 -6.37419820e-02
  -5.99079244e-02 -3.18459906e-02 -2.20431369e-02 -5.63022830e-02
   8.97400528e-02 -6.85464814e-02  9.82568040e-02  1.28288329e-01]
 [ 6.92773312e-02  4.44988906e-02 -2.00946983e-02  1.78007916e-01
   2.03614552e-02  1.45409316e-01  1.31439745e-01 -7.73524567e-02
  -5.81882708e-02  9.41258520e-02 -6.58288822e-02  1.17315143e-01
   9.64504257e-02 -6.20845519e-03 -7.45225698e-02 -9.80357230e-02
   9.66723040e-02 -1.33127391e-01  1.96629316e-01  7.14046955e-02
  -1.90012440e-01 -1.66438133e-01 -3.98149304e-02  1.01018280e-01
   7.21624568e-02  1.34000719e-01 -6.35995865e-02 -8.70814770e-02
   3.92618142e-02  1.39056355e-01  3.83538753e-02 -1.09641902e-01]
 [ 1.47369336e-02  3.88813168e-02  4.86453883e-02  1.13887064e-01
  -9.76254642e-02  1.32236227e-01 -1.69998240e-02  6.97235391e-02
  -1.59420997e-01  7.78706595e-02  6.92522433e-03  8.76640230e-02
  -8.56691301e-02 -7.30423927e-02 -4.97528352e-02  5.90621009e-02
   9.55180824e-02 -1.92321297e-02  1.93184078e-01 -2.61429269e-02
  -8.50622281e-02 -4.04839255e-02  8.71759951e-02  1.46519795e-01
   1.16776593e-01 -8.14215392e-02 -1.17607355e-01 -1.01978146e-01
   1.33214537e-02 -5.73809557e-02 -4.38100174e-02  9.54644978e-02]
 [-6.42142147e-02 -8.78173783e-02 -1.78335920e-01  1.25846967e-01
  -1.11553773e-01  1.01753101e-01 -1.19902179e-01 -6.98472857e-02
  -2.17483953e-01 -8.60059932e-02 -1.47203833e-01  8.90243333e-03
   2.04292964e-02  9.15036947e-02 -9.19237360e-02  1.43868551e-02
   5.73263019e-02 -7.93123841e-02  1.21300049e-01  1.16308071e-02
  -2.39232898e-01 -1.54069677e-01 -2.12656595e-02 -6.40611351e-02
   8.40502456e-02  1.85821317e-02  3.76701839e-02  1.35207072e-01
   1.06633082e-01  6.13486357e-02 -5.81458658e-02  1.08237565e-01]
 [-8.29565749e-02  1.07878195e-02 -8.53064433e-02 -3.28028984e-02
   1.56707972e-01  5.08882925e-02  7.97328874e-02 -1.46972939e-01
   2.55092718e-02 -2.90801562e-02 -1.55824959e-01 -3.75114530e-02
   3.78454663e-02 -7.99057707e-02 -9.55951167e-04  6.25619367e-02
   6.14566691e-02 -5.37367165e-02  3.49072106e-02  1.27189800e-01
  -1.07620545e-01 -7.33399317e-02  3.07469349e-02  1.25438914e-01
  -2.06107065e-01  1.12486526e-01 -1.30408078e-01  8.40942115e-02
   9.09710824e-02 -1.29838198e-01 -1.28737837e-01  1.39515311e-01]
 [-1.01753458e-01 -2.47428492e-02 -6.71489686e-02  9.83475968e-02
  -5.48034087e-02 -1.04678355e-01 -5.04770800e-02  3.40364240e-02
  -5.41645773e-02  8.89777094e-02 -1.04101114e-01 -1.08529724e-01
   1.13230916e-02  1.23616576e-01 -4.25291620e-02  3.74949947e-02
   9.25072879e-02  5.25806099e-03 -1.09165363e-01  1.77704580e-02
   3.20115164e-02  1.07971597e-02 -1.14818886e-01 -1.01507485e-01
   5.77560328e-02  4.54664752e-02 -3.06602344e-02 -2.30729417e-03
   6.01298288e-02  8.55964422e-02 -5.84159838e-03 -6.07761666e-02]
 [-9.81605649e-02 -8.78904685e-02  5.72366677e-02 -1.02693588e-01
   1.13251567e-01  1.54923776e-03 -3.44781652e-02  3.92601117e-02
   1.15539409e-01  1.25466242e-01 -7.31577426e-02 -6.86623454e-02
  -1.31164923e-01 -1.32559881e-01  8.10229629e-02  6.61437437e-02
   9.24834143e-03  1.33586586e-01 -3.95405628e-02 -3.12277731e-02
   6.46914169e-02  2.74031721e-02  6.61324933e-02  1.50592290e-02
   9.29011777e-02 -4.49255854e-03  2.28243284e-02 -9.40829813e-02
   3.89536135e-02 -6.03182763e-02 -7.89641961e-02 -1.19945355e-01]
 [ 1.37385145e-01  7.02254549e-02  2.78952420e-02  5.97435720e-02
  -5.46627752e-02 -8.75388533e-02 -1.00332923e-01 -9.45897177e-02
   5.04239984e-02 -1.54523514e-02 -6.27290383e-02  6.56988621e-02
  -8.06595315e-04  1.29381791e-01 -2.39147395e-02 -5.15544862e-02
   5.79142198e-02  1.24512158e-01 -1.59537897e-01  7.61876255e-02
   3.52720208e-02  3.65583375e-02  5.24152741e-02  2.30237059e-02
   1.15293369e-01  1.73639506e-02 -9.20741633e-02 -1.03361808e-01
   1.30592138e-02 -1.78593248e-02 -1.00223429e-03  6.34950399e-03]
 [-1.15545139e-01 -5.87857813e-02  9.38073620e-02  1.50274798e-01
   1.29738182e-01  6.32234737e-02  1.55754790e-01  1.33322582e-01
   1.04125440e-01  1.37688126e-02 -2.75289407e-03  3.94147635e-02
  -1.76739708e-01 -6.75557088e-03 -3.99170704e-02 -8.87937918e-02
   2.43729055e-02 -1.17245398e-01 -1.62549950e-02  6.13522530e-02
   4.09958921e-02  5.83542623e-02 -8.20352063e-02  1.44239977e-01
  -1.42013589e-02 -1.23075813e-01  1.17197759e-01 -1.10107102e-01
  -3.79729792e-02  6.27491325e-02  1.18059151e-01  6.77879304e-02]
 [ 6.87124804e-02 -1.23405337e-01 -1.04511283e-01 -8.49557966e-02
   1.52531594e-01  5.63909188e-02 -2.15602983e-02  1.09164663e-01
  -1.08151637e-01  1.98178235e-02 -4.12409939e-02  1.44938916e-01
  -2.59273127e-02  1.02299839e-01 -1.00624226e-01  2.03791577e-02
   5.29906303e-02  7.55909756e-02 -4.30177338e-02 -1.01938725e-01
   4.31792289e-02  1.18386760e-01 -7.91144967e-02 -1.12154931e-01
  -3.86955775e-02 -1.05556674e-01 -1.32390708e-01  3.61766182e-02
   4.67070453e-02  6.88356310e-02  5.05822487e-02  1.10708535e-01]
 [ 7.61133581e-02  3.45092006e-02 -1.13407530e-01  4.82173078e-02
   9.61267054e-02 -5.73937669e-02 -5.89245148e-02 -1.26070514e-01
  -4.47501093e-02 -7.37161329e-03  1.25020355e-01  1.37481079e-01
  -8.53433535e-02  1.01504959e-01 -1.02150157e-01 -1.20581910e-01
  -4.52275611e-02  1.36349469e-01  1.75464805e-02 -1.21826977e-01
   1.15180567e-01  9.30618569e-02  1.06328338e-01  1.06124870e-01
   8.71745124e-02  1.90237747e-03 -3.77478600e-02 -7.18905032e-02
  -1.49835199e-01  1.05158754e-01 -1.09643333e-01 -9.15307775e-02]
 [ 4.30100411e-02 -7.98471272e-02  1.39380872e-01  3.71970497e-02
   8.74330848e-02  7.71688595e-02 -9.00580958e-02  1.16342664e-01
   1.18953653e-01  4.57542837e-02  9.67547372e-02  2.50978172e-02
  -1.12356506e-01 -1.10189497e-01 -5.01997210e-02  1.08308792e-01
  -1.51046785e-02 -1.87130868e-02  9.88758802e-02  4.80097681e-02
  -7.85761252e-02 -4.92291525e-02  4.03654501e-02 -9.87503454e-02
   1.37710541e-01 -1.09711080e-03  2.09139828e-02 -6.73571825e-02
  -5.61787337e-02 -8.20007771e-02  6.10326789e-02  1.04206651e-02]
 [ 1.59792751e-02  1.35430515e-01  9.86513048e-02 -4.19640504e-02
  -3.65183651e-02  1.14941441e-01 -4.17127721e-02  1.14797607e-01
   5.43311983e-02  7.25161359e-02  1.11257792e-01  7.50635266e-02
   2.64806319e-02  1.31649166e-01  9.52852145e-02  5.20793572e-02
  -6.87442794e-02 -1.21027641e-01  1.28120240e-02 -5.08898236e-02
   1.21502951e-02  1.86354611e-02  7.91630447e-02 -9.25052240e-02
   5.41619435e-02  3.56288180e-02  1.36677269e-02 -1.23541884e-01
   1.01859525e-01 -1.22045197e-01 -3.00151519e-02  5.41141629e-02]
 [ 1.06376350e-01 -6.75534271e-03  7.67785013e-02 -1.05392672e-01
  -6.77504167e-02  1.16666161e-01 -9.94172767e-02 -7.24243000e-02
  -6.20440692e-02  6.74927905e-02 -7.99268410e-02  1.29821599e-01
  -2.14843899e-02 -7.71838948e-02 -1.51325509e-01 -8.31125677e-02
   1.14169218e-01  2.92602759e-02 -9.94018242e-02  6.48896620e-02
   3.47677618e-02  6.22470379e-02  3.04190721e-02 -1.41930999e-02
   3.29046398e-02 -2.70113200e-02 -8.09163898e-02 -1.10897526e-01
   1.89449638e-02  1.10479914e-01 -6.04785532e-02  1.21757835e-02]
 [-2.03427784e-02 -1.90820277e-01 -1.10828638e-01 -9.44097899e-03
  -8.05126503e-02  1.20976754e-01  5.73455319e-02  1.76429991e-02
   1.55994073e-01  1.20179489e-01 -4.42673676e-02  1.25313044e-01
  -4.92773205e-02  6.47213086e-02 -1.08002052e-01  1.23358760e-02
   1.47424966e-01 -4.39332277e-02  1.06754191e-01 -4.98689115e-02
   2.00151756e-01  1.01077899e-01  4.38593626e-02  8.51022750e-02
  -1.29539892e-01  4.43367735e-02  1.22668311e-01 -1.20396122e-01
   2.51521505e-02  8.40878114e-02  1.09983452e-01 -4.87437770e-02]
 [ 5.15724421e-02 -1.66057736e-01 -1.63733393e-01 -5.54877240e-03
  -1.01602748e-01 -4.68783081e-03 -8.06688368e-02 -1.95375681e-01
   5.91394864e-02  1.34281099e-01  1.04609691e-01 -1.26645550e-01
   1.70969740e-02  9.00705606e-02 -1.77513674e-01  1.74148008e-02
   6.84174672e-02 -1.15370430e-01  3.60398591e-02  4.57351431e-02
  -4.84170094e-02  4.97891717e-02 -1.62159845e-01  4.68144640e-02
  -7.79135972e-02  9.68513563e-02  1.28242210e-01  4.81151976e-02
   3.07798106e-03  6.29980490e-02  1.18674614e-01  1.01693034e-01]
 [-2.57599857e-02 -2.21055642e-01  7.47442767e-02  9.39780176e-02
  -8.45156983e-02 -1.78234011e-01  7.15038031e-02 -9.02083293e-02
   1.11766145e-01 -1.15989275e-01 -5.30842245e-02 -1.54356081e-02
  -6.50097728e-02  2.21797470e-02 -7.52799287e-02 -4.97198962e-02
  -1.39975352e-02  7.62825757e-02  6.41137883e-02 -4.12297994e-02
  -1.06757358e-01 -5.99707030e-02 -9.19597372e-02  9.73994657e-02
   1.77704915e-02  1.94066390e-02  9.11011323e-02 -1.11434095e-01
   3.16990502e-02  3.29260863e-02  1.90479487e-01 -1.43253937e-01]
 [ 6.28495067e-02 -4.40019257e-02 -4.45810854e-02 -9.98992845e-03
  -1.06610216e-01 -1.62650105e-02 -5.81388436e-02 -7.36402944e-02
  -2.80591100e-01 -1.12162709e-01  4.00266536e-02  4.07236181e-02
  -8.49548057e-02 -5.53533584e-02 -1.51846081e-01 -5.31884432e-02
   1.46644041e-01  2.43700556e-02  1.56816632e-01 -1.26098439e-01
  -1.42649636e-01 -1.31596908e-01 -2.14090690e-01 -3.28496564e-03
   1.63118422e-01 -3.94558348e-02  5.49761243e-02  4.74092923e-03
  -7.74664953e-02 -1.53854676e-02  9.29598734e-02  8.48063529e-02]
 [-7.17021972e-02 -1.57011777e-01  1.01814523e-01 -7.46906130e-03
   8.81536454e-02  6.51615411e-02 -1.46983685e-02 -5.83169982e-03
  -1.37190327e-01  2.03975420e-02 -1.49645090e-01 -6.15240969e-02
  -1.04584396e-01  1.12379000e-01 -1.14573896e-01 -2.93564890e-02
  -3.10836043e-02  1.76298767e-02  5.22899330e-02 -1.27015039e-01
  -2.10288748e-01 -1.31430760e-01 -1.06832482e-01 -1.05371460e-01
  -2.68390123e-02 -6.81166872e-02  5.33596314e-02 -2.62451265e-02
   2.04719398e-02  7.53727108e-02  5.46692051e-02  1.17040187e-01]
 [-9.32951197e-02 -1.67625044e-02  6.44244552e-02 -6.26806617e-02
  -1.56394131e-02  7.70506337e-02  2.98694875e-02 -4.60212454e-02
  -1.12232335e-01  1.42452553e-01 -1.37857329e-02  4.02858257e-02
   3.09573882e-03 -1.06533542e-01 -6.31209239e-02  2.36422755e-02
  -6.61182702e-02  1.03728890e-01  8.77665281e-02 -4.71133776e-02
  -2.78577441e-03 -9.50829759e-02  6.51878640e-02 -1.18576072e-01
  -6.23282604e-02 -1.30324140e-01 -1.24665774e-01  8.97777230e-02
   6.77157044e-02 -7.38050342e-02  1.02660604e-01  1.09083682e-01]
 [-3.09936833e-02  2.32021566e-02  3.07386965e-02 -4.35823724e-02
  -1.91441912e-03  8.27816222e-03 -2.06346661e-02 -1.50649890e-01
   1.02486670e-01  1.43709317e-01  1.34978653e-03 -5.00792786e-02
   6.56255335e-02  7.88277686e-02 -3.84258963e-02  6.89675957e-02
  -6.12368211e-02  3.43129598e-03  4.02807025e-03 -2.84202918e-02
   2.17116680e-02 -1.14533544e-01  5.06048910e-02  7.50871003e-02
  -1.73494950e-01 -3.30267064e-02  5.28550930e-02 -1.42831311e-01
   1.15337171e-01  5.84596023e-02  4.15156223e-02 -1.32539660e-01]
 [ 5.50252721e-02  1.21511944e-01 -1.89370781e-04  2.69425511e-02
  -3.86552066e-02 -2.33132280e-02  4.09337059e-02 -3.00244112e-02
   5.85734546e-02 -1.05292201e-01 -1.45715222e-01  1.11234829e-01
   1.76381636e-02  8.55118483e-02  1.67854559e-02  1.44199599e-02
   8.46679658e-02  5.60101755e-02 -1.34706765e-01 -7.13964701e-02
  -2.18309034e-02 -1.72846708e-02 -1.62710473e-02 -1.20107740e-01
   8.09466988e-02 -9.54970047e-02  5.81594035e-02 -9.41753834e-02
   1.44801408e-01  8.05537924e-02  8.18344206e-02 -1.07603736e-01]
 [ 5.04753664e-02  1.76823080e-01 -8.14372450e-02  1.61740202e-02
   1.18902504e-01 -6.03289232e-02 -3.80104594e-03  4.92768139e-02
   5.08149434e-03  3.10102031e-02 -2.24115998e-02  8.84961337e-02
   6.11174069e-02  1.11143321e-01  7.96414763e-02  4.70036156e-02
  -3.29602533e-03 -1.10981680e-01 -1.25979349e-01 -3.95156369e-02
   3.54326740e-02  1.15036316e-01 -4.91609238e-02 -7.55606452e-03
  -1.37632817e-01 -7.35567883e-02 -3.16628776e-02  4.07120362e-02
   8.58487338e-02  3.08336299e-02  1.63293809e-01  3.42180878e-02]
 [-4.36719209e-02  9.86174718e-02  8.49919841e-02 -1.46877140e-01
   1.18663304e-01  4.94004562e-02 -5.57949692e-02 -1.27085879e-01
   3.29915509e-02  3.93201113e-02  8.27160999e-02 -6.16859645e-04
  -1.34303402e-02 -8.90388247e-03  1.97647829e-02  1.49835512e-01
  -5.54589182e-02  3.94067094e-02 -6.29796088e-02 -2.26297136e-02
   1.31027296e-01 -3.28164548e-02 -2.40936559e-02 -3.48014347e-02
  -2.99556237e-02  4.35405672e-02 -6.60145730e-02 -1.19432330e-01
   4.68000360e-02 -6.45624697e-02  3.03614810e-02  2.87617743e-02]
 [ 1.61493525e-01 -1.23171821e-01  7.59507194e-02  6.74848855e-02
  -7.40777925e-02 -5.02554812e-02  1.22300200e-01 -6.58928752e-02
   6.97031990e-02  5.57464883e-02  1.17559463e-01 -5.12152212e-04
  -6.81401864e-02 -7.56455585e-02  1.54191017e-01 -5.79130016e-02
   1.38876036e-01  1.37013093e-01  9.49029252e-02  5.93192764e-02
   1.29662648e-01 -5.06213456e-02 -1.06065474e-01  2.83444226e-02
   1.15186907e-01  9.31087434e-02  1.08468950e-01  1.33445829e-01
   7.37706795e-02 -7.76975602e-03 -8.22796064e-05  1.36347890e-01]
 [-3.17448340e-02  2.06256378e-03  1.42786950e-01 -2.01925077e-02
   6.62668794e-02  5.36843836e-02  9.53079611e-02 -2.81330645e-02
   5.38054444e-02  3.13540623e-02 -1.05274387e-01  4.65500681e-03
  -1.52778730e-01 -5.63427098e-02 -9.71115381e-02  6.88108727e-02
  -1.13327667e-01  3.10906917e-02 -2.72256900e-02  1.47651702e-01
  -1.31389201e-01 -2.08409615e-02  3.10476460e-02 -1.29525647e-01
   1.24395981e-01 -2.98013128e-02  6.37942478e-02  7.43348673e-02
   2.61745453e-02  1.23485662e-02  4.28128131e-02 -1.02902368e-01]
 [-1.39863208e-01 -7.61331394e-02 -2.89947595e-02  8.78216177e-02
   2.16419082e-02 -3.45808081e-02 -8.47367942e-02 -8.06901827e-02
  -1.79608520e-02  5.62577397e-02 -4.73662689e-02 -7.22276270e-02
  -1.02811866e-01 -4.43650270e-03  1.24511085e-01 -8.70338902e-02
  -8.59493017e-02  8.76653716e-02  1.11315727e-01 -1.26416301e-02
  -1.26310602e-01  6.06211647e-02 -1.20713584e-01  1.92678366e-02
   1.72175407e-01  2.00658701e-02  1.08059824e-01  1.37152329e-01
  -8.24782103e-02 -5.71911372e-02  8.63709450e-02  1.16514355e-01]
 [-6.74237236e-02 -5.59908226e-02  5.10252640e-02 -7.52398223e-02
  -1.47197908e-02 -2.78493837e-02 -2.99848150e-02 -7.90846441e-03
  -9.53294411e-02 -1.00294508e-01 -8.79915580e-02  1.32578462e-01
   4.22151126e-02 -1.08843505e-01  3.58975418e-02 -1.19263850e-01
   5.21624163e-02  4.83868867e-02 -3.37304957e-02 -9.68973115e-02
  -1.17002152e-01  1.95658673e-02  2.25575473e-02 -1.00357391e-01
   7.65537024e-02  2.16250457e-02 -1.18012682e-01  4.02004160e-02
   6.23932369e-02  4.57471795e-02  2.28780229e-02  1.14057750e-01]
 [-2.54649073e-02  7.73167461e-02 -1.18954033e-01 -2.34920029e-02
  -2.68167369e-02  1.73000768e-01  1.67717308e-01 -9.41404514e-03
   7.48353899e-02 -4.32594977e-02  2.61730910e-03 -2.20581293e-02
  -1.00799240e-02  1.18889268e-02  9.33920071e-02 -7.19336867e-02
   1.05621837e-01 -8.41744244e-02  5.36096357e-02  1.10275358e-01
   3.92067023e-02  1.32941762e-02  8.69895448e-05  1.29138157e-01
  -4.39108163e-02 -1.04585521e-01 -6.24700524e-02  5.12694148e-03
  -1.58538669e-01  3.53136435e-02  1.54314891e-01  1.05554461e-01]
 [-3.89139801e-02 -4.60820869e-02  1.44313667e-02 -8.55058134e-02
   7.09846169e-02  1.24030843e-01  1.68219209e-01 -6.52783737e-02
  -5.39833270e-02  2.43091327e-03  8.47226754e-03  9.28942785e-02
  -1.40145216e-02  6.85585663e-02 -1.43561050e-01  5.76555692e-02
  -4.25471626e-02 -1.00135304e-01  8.22167918e-02  4.31205668e-02
   1.06169537e-01  4.38784324e-02  1.86359122e-01  7.37348720e-02
  -1.01891980e-01 -5.70211373e-02  6.89596459e-02 -2.85216607e-02
   4.03664894e-02  1.01065129e-01  9.82989967e-02  2.79001892e-03]
 [ 4.89142723e-02 -8.70121568e-02 -2.17059329e-02  1.21587198e-02
   1.20484762e-01  7.45434687e-02 -8.71676877e-02 -1.03004001e-01
  -8.57458264e-02 -1.32427126e-01 -2.14476615e-01  1.25224769e-01
   4.86377366e-02 -6.63798228e-02 -1.04765333e-01 -6.59542978e-02
   4.40563969e-02  8.85686204e-02 -7.71320462e-02  4.93088290e-02
   1.90839082e-01  8.54208395e-02  4.53402773e-02 -8.96908939e-02
  -5.67868911e-02  1.36366531e-01 -7.07544107e-03  8.85416567e-02
   1.17750078e-01 -1.38138473e-01  2.11245552e-01 -6.50503635e-02]
 [ 4.81134392e-02 -2.65340507e-01 -3.78085002e-02  3.27570997e-02
  -1.03112616e-01 -3.99785265e-02 -1.25689227e-02 -1.27413794e-01
   9.33720469e-02  2.98638418e-02 -2.30220318e-01  1.20437212e-01
  -7.31702745e-02 -4.95079458e-02 -2.62702614e-01 -6.28811419e-02
   1.90009579e-01 -6.17538318e-02 -7.51492754e-03  4.83050495e-02
  -1.14968661e-02  6.39673024e-02  1.09355591e-01  3.63887101e-02
   1.05173953e-01 -3.80507372e-02 -1.06435522e-01 -2.85163876e-02
  -3.76593322e-02 -5.27659133e-02  1.85673796e-02  1.34545386e-01]
 [ 1.49794921e-01 -1.90317452e-01 -2.29782596e-01 -5.71494550e-02
  -4.33589239e-03  6.15728237e-02 -3.06159761e-02 -1.69475213e-01
  -2.04062322e-03  2.62911222e-03 -1.33665919e-01  2.18542032e-02
   2.82380097e-02 -1.22975960e-01 -2.15898633e-01 -6.51311427e-02
   1.35059744e-01  1.48356780e-01  9.88029968e-03 -4.67403308e-02
  -2.12977558e-01 -4.29922715e-02 -8.89358521e-02 -1.17758662e-01
   6.54679164e-03  4.70320620e-02  1.26843732e-02 -1.42331228e-01
   4.16089259e-02 -1.06933855e-01 -7.30094453e-03 -1.02468222e-01]
 [-3.26396674e-02 -2.76939631e-01 -1.67869672e-01 -1.12048157e-01
  -5.42090908e-02  1.31994933e-02  9.96519327e-02 -3.58499517e-03
  -3.01928401e-01  8.75329971e-03 -1.34993687e-01  4.98423800e-02
  -1.32188842e-01  8.44941363e-02 -2.07690656e-01 -1.83154047e-02
  -3.06743644e-02 -2.02883799e-02  4.01624329e-02  1.11766033e-01
  -8.31597894e-02 -8.80663097e-02  6.90415204e-02 -4.26812544e-02
   1.06568173e-01  1.10022761e-02  1.13118641e-01 -6.98381960e-02
  -2.64305435e-02  5.13377488e-02 -4.87507414e-03 -7.73869231e-02]
 [-4.77108210e-02 -6.36717752e-02 -1.11487582e-02 -1.21771216e-01
  -6.89392090e-02  6.41295984e-02 -9.69465971e-02  2.03777775e-01
  -7.64408410e-02 -8.92148018e-02 -2.12498382e-02 -1.31208807e-01
   4.11655270e-02 -8.17748066e-03 -1.47224724e-01  5.46841398e-02
   6.04386069e-02 -7.12971911e-02  5.66884317e-02  1.49643095e-02
  -8.98841303e-03 -1.08253792e-01  2.92301439e-02 -1.32954761e-01
  -2.84035746e-02  1.21200837e-01  7.56908506e-02  5.42467693e-03
   4.61559743e-02  7.08463192e-02  2.33399063e-01  7.76099563e-02]
 [ 1.73187871e-02  1.42740617e-02  9.20815468e-02 -4.35326509e-02
   9.18326452e-02  1.07259303e-02 -3.57439071e-02 -1.13651782e-01
  -6.64538983e-03  5.73630035e-02  7.80044645e-02 -1.84696410e-02
   1.27909780e-02  1.26815692e-01 -4.30158786e-02  3.07745263e-02
  -6.39281329e-03 -9.50034410e-02 -6.90365443e-03 -3.99940647e-03
   2.19002720e-02 -8.87053162e-02 -5.28639406e-02  9.20845419e-02
  -1.38477474e-01  9.07284915e-02  1.37344301e-01  8.11109915e-02
   7.92327449e-02 -1.11377455e-01  4.45714220e-02  1.19558126e-02]
 [ 4.10047546e-02  4.00208756e-02  1.66993245e-01  6.75468743e-02
   1.97283477e-02  1.23658612e-01  1.86340511e-02  3.38274874e-02
  -2.15033405e-02  1.01755798e-01  3.55429500e-02 -5.75735681e-02
   8.40514805e-03 -6.43580481e-02  6.22670613e-02  5.42919077e-02
   1.50180340e-01 -5.06448187e-02 -1.30710423e-01 -9.39063877e-02
  -6.40393719e-02 -5.28163575e-02 -6.94124326e-02  2.90007815e-02
  -9.24227014e-02  6.25461154e-03 -4.29918692e-02 -8.39974582e-02
   5.42892776e-02  7.93923512e-02  8.56735483e-02 -1.42021820e-01]
 [ 7.58229792e-02  1.28441527e-01  6.20822329e-03  1.18449412e-01
  -1.05199367e-01  3.86057198e-02 -2.74862442e-03 -8.22597817e-02
   3.85197885e-02 -8.34747031e-02  4.61559743e-02 -6.63666353e-02
   1.21338047e-01  8.66315216e-02  3.66356373e-02  6.95550814e-02
   1.06812857e-01 -1.96836963e-02  4.86287437e-02 -1.05370000e-01
  -8.76574777e-04  1.31965414e-01 -4.78511602e-02 -1.09438829e-01
   1.12327330e-01  9.11473483e-02  1.16924576e-01  1.15808100e-01
   1.02963284e-01 -6.31891340e-02 -4.71391194e-02 -1.01482123e-01]
 [ 4.14831787e-02  5.47987111e-02 -8.21517408e-02  4.79475521e-02
   3.59940156e-02  6.96462169e-02  1.27753213e-01 -4.29603085e-03
   4.36317809e-02 -2.30157338e-02 -4.13671024e-02  1.14290178e-01
  -8.95126909e-02  7.84405880e-03 -2.83608064e-02  7.62408525e-02
   1.57725275e-01 -1.17966510e-01 -1.03521295e-01 -1.23916939e-01
   1.68505818e-01  6.21199515e-03 -1.41221538e-01 -2.09737103e-02
  -1.12278692e-01  6.65569752e-02 -3.74693945e-02 -3.71652469e-02
   8.54231417e-03  1.90327801e-02  1.36727467e-01 -8.87240022e-02]
 [-8.70802253e-03  7.88668394e-02 -5.95134571e-02 -1.40269883e-02
  -4.71057892e-02  1.06244395e-02 -1.40530453e-03 -4.02132496e-02
  -1.26603678e-01  9.21689123e-02 -2.60159150e-02  7.94087648e-02
  -1.52613893e-01 -1.26996115e-01  2.53648292e-02 -6.05652528e-03
   1.66229501e-01 -1.02902509e-01  4.15116884e-02  7.36191049e-02
   5.18586114e-02 -1.53704351e-02  3.24098277e-03 -1.06927473e-02
  -6.61532655e-02 -2.46075261e-02  7.58845061e-02 -1.26114473e-01
  -1.11581132e-01 -1.00448348e-01  1.62884623e-01  7.84773976e-02]
 [ 6.36207536e-02 -1.50626600e-01  4.22609337e-02 -9.74266604e-02
  -7.10554644e-02 -8.43686163e-02  1.15804508e-01  5.52566163e-03
  -7.89958909e-02  8.32131505e-02  1.01583272e-01  1.09100282e-01
   7.12994933e-02 -3.65519896e-02  9.81597379e-02  5.92054054e-02
   1.18285470e-01 -1.90326534e-02 -7.70622352e-03  1.23974070e-01
   1.30206153e-01  4.59158607e-02  3.18425409e-02 -1.33121192e-01
  -8.03709254e-02 -3.66836903e-03 -1.96578633e-02  1.42167091e-01
   9.89970490e-02 -6.19128756e-02  1.59648448e-01 -7.03376457e-02]
 [-9.59857646e-03 -1.53731480e-02 -9.75393504e-02  4.56090309e-02
  -1.16287291e-01  8.14574733e-02  4.91899028e-02  1.34467751e-01
   5.24079613e-02 -5.19506671e-02  1.22412015e-02 -1.15215350e-02
  -1.56657726e-01  3.70298959e-02  3.00827231e-02  5.11574000e-02
  -8.80328491e-02  2.04370841e-02  8.23967382e-02  5.15339412e-02
  -6.15048520e-02  7.77137578e-02  1.88511622e-03  7.94679224e-02
  -5.45831770e-02 -1.04847401e-01  8.42503309e-02 -1.05936423e-01
  -1.33350700e-01  3.83365080e-02  1.46992981e-01 -5.59069961e-02]
 [ 4.26610783e-02  6.23762757e-02  1.03615582e-01  3.15689621e-03
  -1.01676166e-01  5.23170792e-02  6.72052428e-02  2.50167511e-02
   1.54654905e-01 -5.84195703e-02 -1.10315569e-01  1.02472402e-01
   9.61917266e-02 -8.31224024e-02  2.61004083e-02  1.69463176e-02
   1.48082376e-01 -1.16964824e-01  1.44263245e-02  9.32142138e-02
  -1.27518967e-01  7.40568200e-03 -4.81264405e-02 -1.09380506e-01
   7.50831515e-03 -4.12458740e-03  6.75420314e-02 -9.76999775e-02
   8.04268345e-02  1.26203418e-01  2.80441786e-03 -2.10933015e-02]
 [-1.48581699e-01  1.61245726e-02 -3.96484882e-03 -1.30096683e-02
   9.98418331e-02 -1.06392503e-01 -3.69358622e-02  8.78102258e-02
  -6.62147850e-02  1.22503377e-02  5.52457683e-02 -2.12614164e-02
  -2.54766457e-02 -1.25651315e-01  1.15821414e-01  1.00477785e-01
   1.29015207e-01 -1.06648251e-01  2.21504644e-02  6.15117997e-02
   1.12016372e-01  1.51340842e-01  4.20161039e-02  3.05756256e-02
   1.74441516e-01  1.67648457e-02  1.24435201e-01 -9.65414196e-03
   1.00713924e-01  4.74999100e-02 -6.41988218e-02 -4.11654338e-02]
 [-4.36065532e-02  6.93816766e-02 -8.21074173e-02 -4.89722639e-02
  -1.12565309e-01 -5.13227750e-03 -5.38475290e-02  8.19198489e-02
  -4.26094979e-03 -7.49769732e-02 -1.13845710e-02  4.10759114e-02
  -3.43152247e-02  1.01811327e-01 -4.13685963e-02  8.39300081e-02
  -5.86304022e-03  3.67367491e-02  1.25918500e-02  1.18981257e-01
   2.13327445e-02 -1.18824415e-01  6.62001520e-02  6.55027106e-02
  -9.58035663e-02 -8.81209671e-02 -1.24747366e-01  4.82728658e-03
  -1.62042692e-01  2.88860500e-02  7.35146478e-02  5.61517030e-02]
 [ 2.02518463e-01 -1.30516198e-02  1.69724450e-02  8.51024166e-02
  -3.69594395e-02 -8.97535961e-03 -3.04090735e-02  1.98457614e-02
  -5.38456030e-02 -2.81142257e-02  1.48592606e-01 -1.16380930e-01
   7.07431957e-02  4.13542353e-02  6.75960779e-02  4.73721661e-02
  -9.35708582e-02 -1.23469621e-01  6.39149733e-03  3.79144438e-02
   5.82076274e-02  5.93005009e-02 -9.74947065e-02  7.38097876e-02
  -1.69208407e-01 -1.16215706e-01 -1.09243050e-01  4.60546464e-02
   4.22103778e-02  7.44137317e-02  2.58343145e-02 -1.03865683e-01]
 [ 1.97043896e-01  9.31991413e-02 -3.20503116e-02 -9.95689724e-03
   9.09139290e-02  1.34276614e-01 -7.84558281e-02  1.72415860e-02
   7.92432800e-02 -9.60880443e-02  8.51419494e-02 -7.12876245e-02
   1.56746030e-01  6.76215366e-02 -1.02715399e-02  5.25263362e-02
   8.12087655e-02  2.08016280e-02 -5.60157150e-02 -7.56841376e-02
   1.50913686e-01 -6.55161217e-02  1.62821516e-01 -1.21013083e-01
  -1.08498439e-01 -1.12708114e-01  5.69565594e-02 -1.01899222e-01
  -4.09765169e-02  4.74439077e-02  1.13110021e-01  4.07650769e-02]
 [ 2.04730019e-01  1.26127422e-01 -1.16348010e-03 -2.26818457e-01
   2.49341559e-02  6.59252703e-02 -7.19946623e-02 -2.64973566e-02
   2.39275042e-02  7.36916289e-02 -8.00923407e-02  1.06176436e-02
  -3.17487903e-02  6.79764301e-02  4.75769453e-02 -3.53731029e-02
   6.27598390e-02  7.48509541e-02 -5.41393757e-02 -6.31977916e-02
   3.25336121e-04  7.35543594e-02  1.81762412e-01 -9.98485312e-02
  -8.08239274e-04 -2.60377005e-02  8.18140730e-02 -1.15934856e-01
  -2.41394211e-02  7.35117402e-03  1.53619215e-01 -1.05419420e-01]
 [ 1.53589442e-01  1.64692272e-02 -1.64343640e-01 -6.80607706e-02
  -7.82937631e-02 -1.37036756e-01 -1.01846553e-01 -1.37324020e-01
   1.19437911e-01  1.02919146e-01 -9.90654975e-02  8.47165659e-02
  -4.83834222e-02  1.38553336e-01 -8.19169581e-02 -2.07541957e-02
   1.38579637e-01 -1.29837051e-01 -1.73150554e-01 -5.11465147e-02
  -1.32702395e-01  1.19402647e-01  2.05585539e-01  3.65747698e-02
   1.67089999e-01  1.18196145e-01 -1.28342092e-01 -6.36125579e-02
   3.99795957e-02 -1.09959319e-01 -6.86661378e-02 -6.54859245e-02]
 [ 1.67900696e-01  6.92354655e-03 -5.18621169e-02 -1.47126153e-01
  -1.13552906e-01 -2.86807213e-02  1.36063853e-02  1.24465175e-01
  -9.79947001e-02  1.12680063e-01 -6.54095900e-04 -1.28751889e-01
  -1.06216714e-01 -1.16239943e-01 -3.73819843e-02  7.39852013e-03
   6.72924221e-02  1.44188153e-02 -1.29178539e-01  2.08148025e-02
  -3.53058265e-03 -3.64550501e-02  1.50072783e-01 -1.29399911e-01
  -1.58183835e-02 -1.45225778e-01  4.35062610e-02  1.55510724e-01
  -3.54650393e-02  1.09382585e-01 -1.29118294e-01 -3.68006229e-02]
 [ 1.53001174e-01  1.95099693e-02 -2.32229188e-01  2.69644037e-02
   6.88725039e-02 -6.45578876e-02 -1.56770617e-01  7.10626468e-02
  -1.83672905e-02 -1.12440273e-01 -1.70920789e-01 -1.00260705e-01
  -1.97534785e-02 -7.85630941e-02 -4.16873954e-04  4.55019660e-02
  -5.08096553e-02  4.18340974e-02 -1.54778421e-01  1.22025013e-02
  -1.04794361e-01 -1.16122216e-01  6.55579614e-03 -1.04970925e-01
  -1.54675052e-01  2.25715972e-02 -1.23209134e-01  7.77557641e-02
   7.95003548e-02 -1.11730933e-01 -1.17780216e-01  2.61074454e-02]
 [ 3.91631052e-02  9.48020220e-02  1.12917840e-01 -7.74739459e-02
   3.82175259e-02  5.12650833e-02  1.08157210e-01  2.56527960e-02
  -5.28932139e-02 -9.74333808e-02 -3.43399122e-02  6.02031052e-02
  -4.42987047e-02  9.71480161e-02  7.73844123e-02 -1.15274135e-02
   1.45244941e-01 -3.61106917e-02 -1.37396203e-02  1.85286421e-02
  -5.87440915e-02 -1.07791364e-01  4.04114984e-02 -1.21823259e-01
  -1.22540742e-01 -2.10510045e-02 -4.61008549e-02  7.22548813e-02
  -1.00116571e-02 -3.50418240e-02  1.05887376e-01 -1.25297472e-01]
 [ 6.91388994e-02 -2.31513083e-02  1.26146346e-01  2.35617280e-01
  -6.72235787e-02 -8.29621404e-02  2.87768506e-02 -4.78782803e-02
   3.45534459e-02  6.04478568e-02 -5.52748591e-02 -8.99971370e-03
   3.01680863e-02 -1.08971640e-01 -7.70593658e-02 -4.63277362e-02
  -3.09717823e-02  4.86340523e-02 -8.51736218e-03 -5.19757569e-02
  -3.99620086e-02  5.15125468e-02 -1.32028222e-01  4.04235646e-02
  -9.12705734e-02  2.47796681e-02 -3.76311019e-02  1.98479056e-01
   1.03659809e-01 -6.23799935e-02  1.31713629e-01 -1.10807672e-01]
 [ 6.17059618e-02  1.21260688e-01  3.86281572e-02  1.02575578e-01
   1.36540890e-01  4.81562093e-02  7.07426518e-02 -5.79063185e-02
  -6.73875362e-02  8.95239227e-03 -9.41457599e-02  6.41062781e-02
   3.74032706e-02 -1.07921995e-01  2.69884206e-02  1.16384691e-02
   1.17908657e-01 -6.44765273e-02 -7.25860819e-02 -1.23740612e-02
  -1.49261579e-01  5.10692336e-02  1.82036478e-02  9.38314050e-02
   6.44747019e-02 -6.07542284e-02 -1.27740830e-01 -4.22549620e-02
   2.18770634e-02  1.00726604e-01  1.85783792e-04  2.55805552e-02]
 [ 2.23797813e-01  3.13633941e-02  7.19292015e-02 -1.07169978e-01
   1.25808910e-01  4.90752459e-02  4.75591682e-02  6.88583255e-02
  -1.89106371e-02  1.20526724e-01  1.16232172e-01 -1.96534977e-03
   8.79261270e-02  9.45605151e-03  3.42115797e-02  3.82872634e-02
   1.64001584e-01 -5.87204359e-02  1.14398807e-01  4.10822872e-03
  -9.62445140e-02  3.03435531e-02 -3.80006470e-02  1.25238940e-01
  -3.50772962e-02  5.50002977e-02 -1.38817579e-02  1.64925918e-01
