Weights for layer dense_3: [[-1.38143033e-01  1.33672014e-01  4.97776978e-02  1.41131058e-01
   8.87673944e-02 -1.05486684e-01  4.06861492e-03  1.22149974e-01
   2.42355615e-02  4.82379049e-02  7.48018771e-02 -1.17013790e-01
   1.34006226e-02 -9.32742432e-02  7.49377534e-02  9.45288017e-02
  -9.83874798e-02 -9.91147384e-02  1.02972157e-01  5.08606099e-02
  -4.99169193e-02 -3.17723677e-02  7.17823505e-02 -1.25489712e-01
   2.28880644e-02  1.05064012e-01 -3.84095684e-02  1.07735492e-01
   8.12280476e-02 -5.63750975e-03 -5.26438802e-02 -1.54563934e-02]
 [-1.22869313e-02 -1.06122263e-01 -2.75347754e-02 -9.26304534e-02
   1.39270246e-01 -9.77295712e-02 -1.71275083e-02 -1.16689347e-01
   1.00819886e-01  2.64163315e-02  6.25266731e-02 -3.32885571e-02
   1.38745159e-02 -8.44566897e-02  5.78522589e-03  7.56918788e-02
  -3.94942462e-02  1.61735713e-02 -1.78877804e-02 -1.26614273e-01
   1.38640597e-01  1.10213429e-01 -1.11236744e-01  1.11202635e-01
   6.80601150e-02 -1.20914979e-02  1.04750045e-01 -1.48830995e-01
  -1.35336161e-01 -1.35848284e-01 -1.85337812e-02  8.41038823e-02]
 [ 6.34441227e-02  1.12522254e-02  1.26238922e-02  3.85088176e-02
   1.46075338e-02  3.82471904e-02  5.90337999e-02 -8.62286091e-02
  -1.84140950e-02  5.42491972e-02  7.53197819e-02 -1.15161762e-01
   4.89186980e-02  9.60311592e-02  1.79552257e-01 -7.27759898e-02
  -6.40192553e-02  1.68802932e-01  1.50493234e-01  3.72637920e-02
   7.52538443e-02 -1.10582747e-01  4.03141677e-02  1.46835625e-01
   1.09565541e-01 -1.94718882e-01 -8.06497410e-02  7.79814124e-02
  -1.26863837e-01 -1.28973365e-01 -1.20103173e-01 -1.12677962e-01]
 [-4.36988696e-02  1.21651992e-01 -5.92010580e-02  2.14347005e-01
  -1.31800100e-01  2.97920346e-01 -9.76783410e-02 -1.44852713e-01
   1.11223459e-02  6.52826875e-02 -1.28579950e-02 -2.32859597e-01
  -2.49634519e-01  1.92358673e-01  2.09863722e-01 -9.41434875e-02
   2.21368372e-02  2.23472029e-01  1.71856135e-01  6.11073673e-02
   3.15156639e-01 -1.17200144e-01  3.31888676e-01  3.67512494e-01
   1.15295954e-01 -5.92651358e-03  1.03063136e-01 -1.16260692e-01
  -3.46945152e-02 -6.11314960e-02  1.21513069e-01  8.02725703e-02]
 [ 5.32342345e-02  4.62682664e-01 -1.95415214e-01  4.51093793e-01
  -8.68843049e-02  4.39600796e-01 -1.05368577e-01 -4.43578959e-01
  -1.31851062e-01  9.16003585e-02  1.34572759e-02 -1.94843173e-01
  -3.62017661e-01  2.62480974e-01  3.22267145e-01 -3.16488743e-01
  -9.34446752e-02  4.15795773e-01  3.02950591e-01 -4.33082990e-02
   2.40706623e-01  6.83145225e-03  3.53218406e-01  3.73145700e-01
   2.91785181e-01 -1.20254815e-01 -1.00166067e-01 -2.29665667e-01
  -3.90847921e-01 -5.82087152e-02 -1.01842254e-01 -3.26168910e-02]
 [ 2.27744728e-02  5.39871335e-01 -1.36950776e-01  4.45699811e-01
  -1.17783487e-01  6.20548248e-01  5.59748262e-02 -4.68064636e-01
   3.24750058e-02 -1.29131883e-01 -1.45353347e-01 -4.98621225e-01
  -5.54878175e-01  5.77327490e-01  6.54197693e-01 -1.52768537e-01
   1.18417084e-01  5.17447889e-01  6.51161194e-01 -4.29864377e-02
   6.59314036e-01  1.04185179e-01  4.97564495e-01  6.89721286e-01
   4.12805319e-01 -4.57338929e-01 -7.67225549e-02 -3.50849330e-01
  -6.20437324e-01 -3.07694048e-01  7.38886651e-03  4.69097197e-02]
 [ 5.13470322e-02  7.10153759e-01 -4.43291187e-01  6.82002008e-01
   1.02066308e-01  8.47390771e-01 -2.65360624e-01 -5.69292486e-01
   1.13928154e-01  9.80716348e-02 -4.72166911e-02 -5.51417947e-01
  -7.91704595e-01  8.31299543e-01  5.57741284e-01 -3.60214949e-01
   1.05457157e-02  7.70441532e-01  8.57487202e-01  3.57715994e-01
   6.57477200e-01  4.55784202e-02  7.76539326e-01  8.95337224e-01
   7.63662934e-01 -4.92627531e-01  1.75842583e-01 -4.54058766e-01
  -5.34826517e-01 -2.09970456e-02 -4.43470366e-02 -8.60990286e-02]
 [-5.70990890e-02  9.01497364e-01 -4.27696884e-01  9.02454317e-01
   7.98488557e-02  9.65598285e-01 -3.47123027e-01 -8.28772068e-01
  -8.53022113e-02 -9.02083814e-02 -2.53344387e-01 -7.59560108e-01
  -8.71198833e-01  8.38786244e-01  8.42663825e-01 -4.56778526e-01
   2.76453737e-02  8.24492693e-01  1.04364264e+00  3.42103869e-01
   1.00057280e+00  1.37613684e-01  9.18763399e-01  9.85646367e-01
   8.28729630e-01 -5.54567575e-01  1.98762208e-01 -5.03166914e-01
  -5.73889911e-01 -2.13579796e-02  1.15062788e-01 -1.43376067e-01]
 [ 7.95245767e-02  8.25604618e-01 -5.27796328e-01  8.77471924e-01
  -1.27234399e-01  1.10409832e+00 -1.76373973e-01 -8.81958425e-01
  -8.82801786e-02 -1.10579535e-01 -5.95280766e-01 -6.30942881e-01
  -1.05181849e+00  9.75112021e-01  1.06186628e+00 -3.05054694e-01
  -6.50560707e-02  9.83319402e-01  1.00502312e+00  2.83743829e-01
   9.86669362e-01  8.60313401e-02  8.99309754e-01  1.10044968e+00
   7.52558231e-01 -6.93459749e-01 -1.89542681e-01 -3.24850708e-01
  -7.18368232e-01 -1.99457705e-01  5.61130866e-02  7.13740140e-02]
 [ 5.07320762e-02  9.68072236e-01 -2.04522789e-01  7.46554673e-01
  -4.94063944e-02  1.14167774e+00  1.40038818e-01 -9.61309552e-01
  -4.84307930e-02  4.32460420e-02 -6.08127117e-01 -7.64148295e-01
  -1.07771182e+00  9.34036195e-01  8.77458274e-01 -3.05088133e-01
   2.28098556e-02  8.42958331e-01  9.87114310e-01  4.83452603e-02
   1.02329087e+00  4.16460484e-02  8.22479486e-01  9.57691610e-01
   8.92226398e-01 -5.66227376e-01 -4.53574181e-01 -3.90799642e-02
  -6.28543675e-01 -4.91400033e-01  1.66830327e-02 -4.87133190e-02]
 [-3.03828642e-02  1.45946944e+00 -1.85180545e-01  9.43672597e-01
  -1.15552299e-01  1.31258786e+00  2.56441921e-01 -1.00090396e+00
  -8.94674510e-02  8.41591731e-02 -1.03949511e+00 -8.07739496e-01
  -1.36320496e+00  1.02391231e+00  1.28869474e+00 -1.36292607e-01
   2.63754185e-02  1.18845713e+00  1.23460197e+00  1.19396988e-02
   1.21195757e+00 -9.12096053e-02  1.03261292e+00  1.46713197e+00
   9.52886283e-01 -7.01066673e-01 -6.51295185e-01 -1.99987721e-02
  -1.28357947e+00 -9.82999742e-01  4.30402532e-03 -4.41176370e-02]
 [-2.46661678e-02  1.31841648e+00  7.70813525e-02  8.70996952e-01
  -1.49030788e-02  1.16186166e+00  5.87400734e-01 -9.11298752e-01
   5.11553138e-02  1.17183067e-01 -1.16562653e+00 -6.35475934e-01
  -1.24183822e+00  9.24984515e-01  9.55511630e-01  1.04934007e-01
   8.04922283e-02  9.97763991e-01  1.07622242e+00 -2.36365139e-01
   9.35130894e-01 -1.14668459e-02  9.28717077e-01  1.35467267e+00
   8.10022771e-01 -4.03376371e-01 -1.04448807e+00  3.08220655e-01
  -1.39601183e+00 -9.51171517e-01  9.87604558e-02 -1.39360934e-01]
 [ 8.20002705e-02  1.06412363e+00  2.13651627e-01  6.00816011e-01
  -3.22364569e-02  1.05632997e+00  3.61859292e-01 -6.64294243e-01
   6.69530779e-02  3.35663445e-02 -7.20930636e-01 -3.48582059e-01
  -9.74164069e-01  8.13814223e-01  6.09090567e-01  2.05483243e-01
   1.50181353e-02  6.82635963e-01  6.51165962e-01 -2.01169714e-01
   6.59517884e-01  5.20963967e-03  6.17602766e-01  9.01950181e-01
   4.21511829e-01 -2.60366112e-01 -6.37908101e-01  3.99739295e-01
  -9.17873383e-01 -8.31485271e-01  9.49996859e-02 -1.10573322e-01]
 [ 9.73479152e-02  5.33010840e-01 -6.66651055e-02  3.03839207e-01
  -1.16820812e-01  5.40421784e-01  5.77363335e-02 -2.85020649e-01
  -3.04339901e-02  1.18311912e-01 -2.99961835e-01 -2.11786151e-01
  -3.41788501e-01  2.90171325e-01  4.22382087e-01 -3.58914770e-02
   5.30518144e-02  3.79230201e-01  3.88511240e-01 -1.82631593e-02
   3.91554326e-01  5.63495755e-02  3.44818711e-01  5.39646626e-01
   2.25725815e-01 -2.22274587e-01 -3.54616195e-01  5.69591448e-02
  -4.94663298e-01 -4.46653754e-01 -8.69627222e-02  1.46443844e-02]
 [-1.26616210e-02  2.49679044e-01 -1.02158539e-01  7.33366907e-02
  -2.93051451e-02  1.40636101e-01  1.10481508e-01 -4.64343727e-02
   6.58632666e-02 -6.34384751e-02  3.84425037e-02 -1.46911919e-01
  -7.15316683e-02  1.75544426e-01  1.41184568e-01  8.65096878e-03
   6.96765035e-02  5.63478377e-03  3.95293720e-02 -1.03157416e-01
   2.60966718e-01  1.14704609e-01  2.06989586e-01  1.90369338e-01
  -5.46474522e-03 -1.09774373e-01  9.43396613e-02 -6.70943335e-02
  -8.26570019e-03 -9.96337608e-02  4.36567068e-02 -8.78967196e-02]
 [-3.50345671e-03  8.78351480e-02  1.34895533e-01  1.10173188e-01
   5.42195290e-02  7.02424580e-03  1.04449108e-01  6.78064153e-02
  -5.95137328e-02  1.28236830e-01  1.35767385e-01 -6.15390390e-02
   1.07895978e-01  7.95387104e-02 -4.48755212e-02 -1.33226335e-01
   5.98222762e-02 -3.16701941e-02  7.50501081e-02  4.42725606e-02
   8.55522901e-02 -8.53022784e-02 -3.92411575e-02  7.71651193e-02
  -6.76153526e-02 -1.39070004e-01 -1.17591299e-01  2.59642396e-03
   1.33409619e-01  1.08797081e-01  1.38181001e-02  1.29960626e-01]
 [ 1.29461855e-01  9.18976739e-02  1.02709770e-01 -9.07897204e-02
   1.06495827e-01  2.99354848e-02 -6.37574196e-02  4.35809568e-02
   1.40418857e-02  4.29061353e-02  1.22479469e-01 -5.48184142e-02
  -4.57088836e-02  1.10498175e-01  8.20277035e-02 -1.11389562e-01
  -1.04534328e-01  1.03939615e-01 -2.32230816e-02 -3.11638508e-02
  -9.53666195e-02 -8.22796971e-02 -9.55643691e-03 -1.27952263e-01
   1.09679699e-01 -9.02581960e-02  1.08128883e-01 -9.24404263e-02
  -6.40324503e-02 -4.74267220e-03 -8.28329846e-02 -1.24748036e-01]
 [-1.12878866e-01 -1.41921872e-02 -1.66943759e-01  8.63475427e-02
  -1.22861668e-01  3.73907126e-02  4.90009114e-02  1.44521827e-02
  -1.60624236e-02  1.16411716e-01  5.33104911e-02  7.65969828e-02
   5.92697226e-02  8.53590816e-02 -6.69053644e-02 -5.94764315e-02
   6.81416988e-02  1.63371190e-01  4.89184372e-02  1.76623791e-01
   2.27341965e-01  3.09608430e-02  1.38433920e-02  1.75135165e-01
   1.34519726e-01 -8.34815856e-03  1.35393813e-01 -4.03626673e-02
  -3.68927196e-02  3.91398035e-02 -1.19658045e-01 -1.10185102e-01]
 [-1.33466646e-01 -1.25745097e-02 -1.55138150e-01 -1.80908013e-02
  -1.10519923e-01 -5.30960113e-02  5.03133163e-02 -1.07889347e-01
  -5.11403158e-02 -1.20883480e-01  1.95585489e-02 -1.87129632e-01
  -2.03450158e-01  1.48601234e-01 -6.54604807e-02 -8.56079906e-02
  -2.64116153e-02  2.49739558e-01  7.08489046e-02  6.99632976e-04
  -4.92473207e-02 -5.93665242e-03  1.33831367e-01  1.82394370e-01
  -1.12670526e-01 -3.74421999e-02  1.02507427e-01 -1.86738685e-01
  -4.74052466e-02  5.50046004e-02 -1.04317695e-01  1.15059495e-01]
 [-6.10575601e-02  3.66181403e-01  1.87810168e-01  2.97058135e-01
  -2.34213825e-02  3.33626896e-01  1.56242654e-01 -3.39467794e-01
  -1.37047870e-02  1.24437653e-01 -3.65330577e-02 -1.79954176e-03
  -3.95075381e-01  3.87233436e-01  3.06859463e-01 -2.62654692e-01
   4.85610068e-02  3.95659626e-01  1.24957465e-01 -6.81529269e-02
   1.43358275e-01  2.51984596e-02  3.69821995e-01  6.64410710e-01
   5.06266169e-02 -7.60608092e-02  1.57125175e-01 -3.02333772e-01
  -3.55535150e-01 -3.34006280e-01 -1.12704813e-01 -7.09307119e-02]
 [ 9.99199077e-02  7.01241255e-01  3.52725565e-01  5.65197766e-01
   1.07662842e-01  6.07200146e-01  1.05339661e-01 -5.48985898e-01
   1.21693891e-02  1.00666247e-01 -5.89751229e-02 -3.78607303e-01
  -5.08299351e-01  9.33316708e-01  6.27180099e-01 -2.50064939e-01
  -2.32471828e-03  7.76918828e-01  4.07874405e-01 -3.15740705e-01
   5.31707704e-01 -9.69560519e-02  8.42821896e-01  1.00326824e+00
   5.79553127e-01 -3.81641507e-01  1.35755926e-01 -3.48045975e-01
  -5.68265319e-01 -2.97484130e-01  8.88855662e-03  8.20353702e-02]
 [-1.31903276e-01  8.39920402e-01  2.52200454e-01  9.56381977e-01
   1.03371255e-01  8.49281847e-01  3.95176917e-01 -9.81004238e-01
  -2.18581371e-02  1.46934055e-02 -4.51889575e-01 -4.60169345e-01
  -7.70107150e-01  1.16997051e+00  1.04138744e+00 -4.74554956e-01
  -1.04380675e-01  1.14853692e+00  9.45792198e-01 -1.69317141e-01
   9.90020394e-01  1.61141772e-02  1.25536597e+00  1.50868416e+00
   9.47668791e-01 -5.07860005e-01  9.17541087e-02 -6.63558900e-01
  -8.23248982e-01 -6.42887890e-01 -3.68775353e-02  1.11165091e-01]
 [ 8.76317173e-02  9.60733056e-01 -9.18491185e-02  1.43258929e+00
   3.23621333e-02  1.25009370e+00  9.92752388e-02 -1.25331044e+00
  -4.25286070e-02  6.42848238e-02 -1.43299147e-01 -8.26866925e-01
  -1.18371391e+00  1.51506746e+00  1.28942788e+00 -9.10920024e-01
  -5.30625433e-02  1.59733176e+00  1.46446002e+00  1.32403120e-01
   1.49096024e+00  3.30802314e-02  1.37335336e+00  1.70259738e+00
   1.20430315e+00 -1.01274800e+00  2.13275969e-01 -8.86305809e-01
  -8.87017965e-01 -5.13812006e-01 -4.23492789e-02 -1.16545141e-01]
 [-5.53723052e-02  1.31799161e+00 -3.17952961e-01  1.72789013e+00
  -8.90633985e-02  1.62346494e+00  2.31492564e-01 -1.76649284e+00
   1.34572893e-01 -7.14577064e-02 -6.69424236e-01 -1.02538049e+00
  -1.58366859e+00  1.98950386e+00  1.62005973e+00 -9.47712779e-01
  -1.45548448e-01  1.99678278e+00  1.65048110e+00  3.67442131e-01
   1.80713785e+00 -1.93658806e-02  1.57531893e+00  2.11938715e+00
   1.68073237e+00 -1.31267738e+00  1.29285827e-01 -1.07281578e+00
  -1.05322897e+00 -5.38466036e-01  2.18116678e-02  6.01770915e-02]
 [-1.03333831e-01  1.47555125e+00 -2.41538435e-01  1.77318966e+00
  -1.19586207e-01  1.89613855e+00  4.68362838e-01 -1.57443786e+00
   1.23109341e-01  7.06649572e-03 -1.19174993e+00 -1.22046411e+00
  -1.57692719e+00  2.02917385e+00  1.98978007e+00 -6.68835342e-01
   8.16007406e-02  1.99674678e+00  1.96671867e+00  1.72282979e-01
   1.67484844e+00  1.75884571e-02  1.48880017e+00  1.93821466e+00
   1.46154130e+00 -1.13345110e+00 -5.12788057e-01 -5.53476214e-01
  -1.25986934e+00 -8.76474261e-01 -7.11646006e-02 -9.45772454e-02]
 [ 4.98382598e-02  1.65084398e+00 -1.46308556e-01  1.61814189e+00
  -4.87563722e-02  2.07688069e+00  9.25195038e-01 -1.67627263e+00
  -5.88281862e-02 -1.55072343e-02 -1.50418878e+00 -1.09745467e+00
  -1.77016556e+00  1.82210791e+00  2.09932375e+00 -4.43278581e-01
  -7.06532076e-02  2.10651398e+00  1.95380771e+00 -3.01699899e-02
   1.94337714e+00  8.17114767e-03  1.54887867e+00  2.27730703e+00
   1.53110635e+00 -9.88153756e-01 -1.05732679e+00 -5.23725612e-06
  -1.53653812e+00 -1.31992769e+00 -1.21486560e-01  4.09900621e-02]
 [ 7.50697702e-02  2.14139104e+00  1.30403921e-01  1.90373039e+00
   5.89495450e-02  2.27798676e+00  1.11566389e+00 -1.96402514e+00
   7.55324885e-02  1.32901985e-02 -1.88388848e+00 -1.43664932e+00
  -2.07010412e+00  2.06953073e+00  2.26803851e+00  2.13606492e-01
   1.05185900e-04  2.16516113e+00  2.26628828e+00 -5.45227110e-01
   1.92309940e+00 -9.49261114e-02  1.89483273e+00  2.23603773e+00
   1.49209118e+00 -9.85444605e-01 -1.61209381e+00  4.93930697e-01
  -1.82907283e+00 -1.87228572e+00 -5.67497909e-02 -1.17985360e-01]
 [-1.42220229e-01  2.22033358e+00  5.60448706e-01  1.53978145e+00
  -5.67592271e-02  2.34421039e+00  1.29936242e+00 -1.51825762e+00
  -4.35157269e-02 -8.11813474e-02 -1.99265647e+00 -8.78301919e-01
  -2.05559087e+00  1.81364691e+00  1.99435031e+00  7.08377361e-01
   1.43236727e-01  1.63077199e+00  1.85452628e+00 -7.07253098e-01
   1.76550925e+00 -1.14165150e-01  1.55863643e+00  2.31959605e+00
   1.13506436e+00 -5.10268211e-01 -1.86855423e+00  8.87312591e-01
  -1.86183119e+00 -1.81316507e+00 -1.16800018e-01 -4.93815914e-02]
 [ 1.14459634e-01  1.54712021e+00  4.51530695e-01  8.13623846e-01
  -7.95664638e-02  1.53637648e+00  8.84420037e-01 -8.34936738e-01
  -3.71084511e-02  9.85183567e-02 -1.28580773e+00 -3.37520510e-01
  -1.42081892e+00  1.09838331e+00  1.22255397e+00  6.84824049e-01
   1.31626219e-01  9.07887578e-01  1.17793405e+00 -5.13243139e-01
   1.00643539e+00 -2.12705624e-03  1.10093403e+00  1.48310506e+00
   4.92541194e-01 -3.53953913e-02 -1.37390161e+00  6.68812931e-01
  -1.46307003e+00 -1.25191748e+00 -1.33761302e-01 -9.93307978e-02]
 [ 1.07379675e-01  8.03270698e-01  1.98900729e-01  3.24234158e-01
   7.59126665e-03  6.50948763e-01  5.28621197e-01 -4.80141252e-01
  -9.80608016e-02  7.62789398e-02 -6.85498893e-01 -1.46546245e-01
  -5.80380619e-01  3.26678455e-01  5.13711751e-01  4.09904063e-01
   6.33632094e-02  3.85934114e-01  6.98013961e-01 -3.79102409e-01
   4.39704895e-01 -8.93800035e-02  3.55332315e-01  7.16787338e-01
   2.24610806e-01  2.20700845e-01 -7.57703304e-01  3.97632718e-01
  -6.16790235e-01 -7.19274998e-01 -1.48621826e-02  1.28529489e-01]
 [ 1.23207718e-01  3.34347785e-01  1.56099871e-01  2.64894068e-01
  -1.43260792e-01  2.99167752e-01  2.43196949e-01 -1.57152116e-01
  -8.85567963e-02  9.55614373e-02 -2.98277467e-01 -5.83181083e-02
  -2.89894551e-01  1.96215734e-01  4.82850254e-01  3.30809951e-01
  -2.49097049e-02  3.30765396e-01  5.42065263e-01 -1.26947075e-01
   2.83721417e-01 -1.00555830e-01  2.72818238e-01  2.26629511e-01
   2.32213482e-01  1.68378994e-01 -3.54107618e-01  2.09927887e-01
  -3.31781149e-01 -3.88440549e-01  1.19620375e-01 -1.06044009e-01]
 [ 9.55231339e-02  4.97882441e-02 -4.79232781e-02  1.08089246e-01
  -6.46617785e-02  4.42471579e-02 -1.31067947e-01  9.91794374e-03
   5.14409095e-02 -1.02900647e-01 -4.31676172e-02 -1.19451210e-01
  -1.57884687e-01  1.33372888e-01  5.15338965e-02 -1.26708463e-01
   1.72426552e-02  1.87945217e-01  1.40068352e-01 -4.63715009e-02
   3.48159894e-02  1.04013965e-01  1.98363602e-01  1.92440331e-01
  -6.94093555e-02  3.12330760e-02 -1.34742275e-01  6.92358911e-02
  -1.77406788e-01 -1.46658868e-01  1.18450731e-01 -2.17188522e-02]
 [ 4.38691080e-02 -7.65234008e-02 -1.09876961e-01  7.00341612e-02
   8.74812901e-03  3.79734933e-02 -7.86695406e-02  6.00442067e-02
   7.80850649e-02  7.39903599e-02  1.64449215e-01 -1.39934987e-01
   8.36097598e-02  1.15551271e-01  2.83667967e-02  8.34570974e-02
   8.44571590e-02  1.15537010e-01 -9.30212587e-02 -8.62367898e-02
  -9.45360342e-04  5.29562086e-02  2.74189189e-02  9.34980810e-02
   4.00566310e-02 -2.26997864e-02  1.59945726e-01 -2.82105003e-02
   1.60163254e-01 -8.65343511e-02  3.93949598e-02 -8.21163058e-02]
 [ 1.18074298e-01 -2.30580419e-01 -2.28956133e-01 -3.77290696e-02
   5.67844836e-03  4.77902815e-02  1.40749402e-02 -9.61863399e-02
   9.64175314e-02 -1.27449468e-01  8.86720046e-02 -1.30814850e-01
   1.37803629e-01  5.32867759e-03  9.31291357e-02 -3.50455403e-01
  -5.47918230e-02  3.55522960e-01 -7.91917071e-02  3.40543419e-01
  -2.09663585e-02  1.08257860e-01  1.19308811e-02 -1.56779021e-01
   1.03915475e-01 -4.43924516e-02  2.34964013e-01 -8.65287334e-02
   3.48862484e-02  2.62673497e-01 -6.04402944e-02  2.92978138e-02]
 [ 1.25223547e-01 -8.70336145e-02 -2.47756928e-01  3.46860941e-03
  -1.24585018e-01  2.09126584e-02  1.12914026e-01  6.06831722e-02
   1.44063413e-01 -1.37291402e-01  7.71227777e-02 -9.13439393e-02
   1.29916131e-01 -9.79099981e-03 -8.55882093e-02 -2.79990524e-01
  -1.17036514e-01  1.87104180e-01 -9.69869271e-02  1.98598951e-01
  -1.68533236e-01  8.99883211e-02 -1.95829675e-01 -1.86212927e-01
  -4.42781020e-05  7.84448385e-02  1.91909581e-01 -4.02866751e-01
   3.28612119e-01  2.50225365e-01 -1.30970851e-01 -9.71874744e-02]
 [ 1.37271345e-01 -5.43756001e-02  1.93986833e-01 -4.90113385e-02
  -1.40594199e-01 -8.09677243e-02  3.07825267e-01 -1.29839741e-02
  -6.07037684e-03 -8.99731517e-02  1.37718871e-01  1.78048968e-01
  -1.10147670e-01  1.94435894e-01  8.24079365e-02 -6.31058276e-01
   6.44200742e-02  4.18210775e-01 -1.47615269e-01  2.39319786e-01
  -1.63786739e-01  5.26742302e-02  1.41388193e-01  3.30735713e-01
   2.70477943e-02 -5.15259802e-02  4.68725622e-01 -7.17191875e-01
  -8.98306668e-02 -4.48820740e-02  8.41894150e-02  1.22120470e-01]
 [-1.41525343e-02  6.91311806e-02  7.70894736e-02  1.54309183e-01
  -1.07724302e-01  1.54167667e-01  8.32053423e-01 -1.47350013e-01
  -1.06084652e-01 -3.56440526e-03  3.90965015e-01  3.20244789e-01
  -3.26068103e-02  6.56578958e-01  6.36768937e-02 -8.87222648e-01
   3.24949287e-02  6.33938134e-01  8.69844556e-02  1.29124269e-01
   2.06443012e-01 -3.75284553e-02  4.94430363e-01  1.02641654e+00
   2.20506832e-01 -1.47829698e-02  9.19344902e-01 -1.20787179e+00
   1.29077822e-01  3.50649916e-02  3.26559879e-02 -1.21217564e-01]
 [ 1.16475910e-01  7.40104243e-02  2.28121445e-01  3.94826978e-01
   6.65228888e-02  8.98983553e-02  1.12781417e+00 -3.58721584e-01
  -6.48071393e-02  8.11206773e-02  3.29252034e-01  8.98982137e-02
  -4.42611873e-02  7.29542136e-01  2.99008936e-01 -1.39126635e+00
   1.27632320e-01  9.46726799e-01 -2.01965198e-02  3.46834689e-01
   2.45664567e-01  2.37727873e-02  5.39256752e-01  1.27284741e+00
   4.49108511e-01 -2.09951028e-01  1.51036155e+00 -1.75798821e+00
  -1.67616129e-01 -8.95995721e-02 -1.24853462e-01 -5.80344200e-02]
 [ 6.05910867e-02 -1.07012890e-01 -3.60245034e-02  1.98035106e-01
   3.14832553e-02 -4.13815938e-02  1.14577365e+00 -3.30930561e-01
   1.33971617e-01  7.84702078e-02  8.20585132e-01  3.29535931e-01
   1.61116555e-01  8.72016013e-01  3.88323545e-01 -1.67691052e+00
  -1.08132079e-01  1.06629658e+00  5.58942258e-02  6.12174153e-01
   1.74360961e-01  1.37106761e-01  4.87042964e-01  1.31883502e+00
   3.92861575e-01 -2.45154113e-01  1.84357905e+00 -2.16652250e+00
   3.57602209e-01  1.26777813e-01  4.84575592e-02  4.68174592e-02]
 [ 1.32191494e-01 -3.14751595e-01 -3.88070792e-01  3.81915510e-01
   3.36130187e-02 -1.10550389e-01  9.38567162e-01 -6.05709739e-02
   3.09560429e-02 -1.34376567e-02  5.74012637e-01  1.46439031e-01
   2.80157864e-01  7.61999309e-01  6.02847457e-01 -1.72016132e+00
  -1.11598663e-01  1.21414351e+00 -2.71299362e-01  9.10141885e-01
   6.74625114e-02  1.50765833e-02  1.30698651e-01  1.04554725e+00
   7.78876692e-02 -3.79467875e-01  1.88532102e+00 -2.27420688e+00
   6.23755097e-01  3.34423155e-01  5.09635285e-02 -5.36836497e-03]
 [ 1.70275308e-02 -1.30067483e-01 -4.78890538e-01  2.81218857e-01
  -1.39316143e-02  1.91506252e-01  9.91500199e-01 -6.82833493e-02
   6.46953434e-02  7.94516280e-02  9.57058892e-02  2.34272629e-01
   9.72394124e-02  6.77924156e-01  6.54263556e-01 -1.38050079e+00
   3.02977450e-02  1.15206504e+00  1.25715882e-01  7.64769554e-01
   1.22917213e-01 -1.21782199e-01  2.07654595e-01  1.09843469e+00
   4.50966954e-02 -3.02151322e-01  1.23019111e+00 -2.10692143e+00
   4.34134424e-01  2.88344115e-01 -7.43576288e-02 -6.91626593e-02]
 [ 2.60666125e-02  4.42833602e-01 -3.04840118e-01  3.69473487e-01
  -7.65848979e-02  6.50763988e-01  9.04119194e-01 -1.02405339e-01
  -1.15016714e-01  1.48115028e-02 -6.60055220e-01 -5.34020439e-02
  -2.31625199e-01  6.58141434e-01  9.70469654e-01 -8.77507746e-01
  -8.08362588e-02  1.11060798e+00  2.40654618e-01  5.41218340e-01
   2.81318426e-01  5.73498849e-03  3.85799259e-01  1.27565646e+00
   4.13502127e-01 -1.95915177e-01  4.37611967e-01 -1.16679740e+00
  -3.87813568e-01 -5.33392131e-01  1.14043616e-02  8.05012882e-02]
 [ 1.35018200e-01  6.67819560e-01 -2.87925959e-01  5.91750853e-02
   9.77277011e-02  9.00816381e-01  1.28587711e+00  1.50570765e-01
  -8.02103132e-02  1.14426844e-01 -1.26449776e+00  6.40015863e-03
  -4.63128209e-01  3.74174029e-01  1.36068213e+00 -2.00736165e-01
   3.32733989e-02  9.85051334e-01  3.55512381e-01  3.39298934e-01
   1.63746625e-01  4.65433896e-02  2.15444013e-01  1.28191495e+00
   6.14298992e-02 -6.93063736e-02 -7.85888433e-01 -3.99610341e-01
  -6.04737163e-01 -7.65086710e-01 -1.31900042e-01  6.79690912e-02]
 [ 1.31044492e-01  8.73264909e-01 -1.26890261e-02 -3.32725108e-01
  -3.10846940e-02  5.47043979e-01  1.42542136e+00  5.41436672e-01
  -8.79208595e-02  1.63201280e-02 -1.67590177e+00  3.34956497e-01
  -3.13506275e-01 -3.86096537e-01  9.78335083e-01  4.54797000e-01
  -6.71343356e-02  1.93934172e-01  1.29805192e-01 -7.51473382e-02
  -2.21497968e-01  1.00144178e-01 -3.76608878e-01  8.86121094e-01
  -3.80271286e-01  5.05455911e-01 -1.27876365e+00  4.28213060e-01
  -4.12968874e-01 -7.51308143e-01 -1.10341564e-01  9.25790519e-02]
 [ 4.53845337e-02  8.32410932e-01  6.17133081e-02 -6.90443993e-01
  -1.14341259e-01  2.10815430e-01  1.18045652e+00  7.17646837e-01
   6.24468829e-03 -9.38816518e-02 -1.41658199e+00  4.83476222e-01
  -1.84129141e-02 -7.32064962e-01  3.97137195e-01  8.25015545e-01
  -6.52832016e-02 -2.71429896e-01 -8.30467045e-03 -2.06075072e-01
  -5.01581728e-01  6.58075232e-03 -6.11451268e-01  3.25612456e-01
  -6.65189981e-01  1.18033195e+00 -1.41897845e+00  1.20078027e+00
  -3.15284491e-01 -7.13046372e-01  2.14812309e-02 -9.71145853e-02]
 [-5.07820807e-02  6.52589500e-01  1.65249079e-01 -5.36068320e-01
   6.93954825e-02  1.82076275e-01  8.09150219e-01  4.94520813e-01
  -8.02833140e-02 -1.61140040e-02 -1.09747207e+00  4.02371407e-01
   9.63445827e-02 -5.86120665e-01  2.46074289e-01  9.92073834e-01
   8.96349549e-03 -3.23363423e-01  2.75055915e-01 -1.38734147e-01
  -2.43238226e-01  2.72633489e-02 -3.36360127e-01 -7.53710866e-02
  -6.40574455e-01  1.23459637e+00 -1.15616250e+00  1.05575180e+00
  -4.10622150e-01 -5.61852694e-01  6.77906796e-02 -2.85848621e-02]
 [ 3.51856649e-02  3.02811056e-01 -3.85536477e-02 -8.49032402e-02
   3.66601460e-02  1.10379666e-01  1.41813785e-01  2.93565005e-01
  -5.97451590e-02 -1.01433709e-01 -1.17066376e-01 -1.22037902e-01
   9.01904181e-02 -2.63307810e-01  1.18560247e-01  2.60497719e-01
  -2.24050134e-02  9.14641321e-02  4.83172208e-01  1.99228749e-01
  -1.18451692e-01  1.07689142e-01 -1.52658105e-01 -2.08099663e-01
   1.67460591e-02  5.51279426e-01 -4.61308539e-01  4.30420548e-01
  -1.10416770e-01 -7.38402409e-03 -5.64453602e-02  9.79045033e-02]
 [-1.41704053e-01 -1.55595155e-03 -3.17800045e-01  1.29963294e-01
   8.68044272e-02  1.53468549e-02 -2.88066596e-01  1.49882600e-01
  -6.36837333e-02  9.14021805e-02  1.16839521e-01 -3.25169057e-01
   1.02730550e-01  7.51624927e-02  1.34716660e-01 -1.10442445e-01
  -6.20748997e-02  3.60871792e-01  5.27348399e-01  2.67333061e-01
  -3.62052359e-02 -8.14828575e-02 -2.46772408e-01 -2.37788945e-01
   2.22460166e-01  1.02703132e-01  8.51905346e-02 -3.64961177e-02
   1.06843941e-01  2.84079343e-01  2.18195617e-02 -3.44358385e-03]
 [ 2.78087109e-02 -7.89918974e-02  1.39442831e-01 -6.05527163e-02
   1.08540893e-01 -1.98541060e-01 -6.30077720e-02 -1.84379160e-01
   4.37646955e-02 -6.62393644e-02  1.46801487e-01  2.54861196e-04
   1.34148970e-01  3.89473997e-02 -2.22575754e-01 -4.73912321e-02
  -1.45744234e-02 -1.63417026e-01  2.32098755e-05 -1.33996964e-01
  -9.42172110e-02 -6.65974617e-02  9.66255516e-02  2.47717625e-03
  -1.16382120e-02  2.10124850e-02  1.41150221e-01 -5.01669981e-02
  -5.33732586e-02 -8.52919370e-02 -6.15897179e-02  1.38099670e-01]
 [-5.05038202e-02 -3.94919813e-01 -3.19855213e-01 -1.11970276e-01
  -1.21248085e-02 -6.14636727e-02 -2.47475564e-01  1.33446129e-02
   3.96904349e-02 -5.63108027e-02  4.37839240e-01 -3.29935402e-01
   2.81708777e-01 -2.79003799e-01 -1.18655577e-01 -2.94388741e-01
   3.20371985e-03  2.18623474e-01 -3.81862260e-02  3.71895403e-01
  -8.20576102e-02  2.69747078e-02 -2.78708935e-01 -2.23245725e-01
  -1.63162604e-03 -2.86233902e-01  2.70764530e-01 -2.98856020e-01
   4.04003143e-01  2.70779163e-01  3.90388630e-02 -1.10388249e-02]
 [ 1.43083632e-01 -5.89177132e-01 -5.10370612e-01 -5.03519215e-02
   1.32710025e-01 -6.63532913e-02 -1.57142639e-01 -2.58266386e-02
  -7.97450542e-04  2.13058740e-02  7.94783950e-01 -1.87650338e-01
   3.65982562e-01 -3.04481059e-01 -8.66789818e-02 -7.76531756e-01
  -8.38513970e-02  5.30135512e-01  7.71964565e-02  7.05403447e-01
  -7.16863051e-02  3.73712182e-03 -3.31284463e-01 -2.31327593e-01
  -7.85626099e-02 -1.63817346e-01  6.06324613e-01 -6.65117145e-01
   7.03287125e-01  6.33946300e-01  5.63936159e-02 -1.39513209e-01]
 [-1.12589337e-02 -4.21518236e-01 -2.94654906e-01 -1.21335886e-01
   5.65769635e-02 -2.06293195e-01  1.35829091e-01 -2.51475871e-01
  -1.18953556e-01  8.27765688e-02  1.02463782e+00 -4.78089526e-02
   2.42831469e-01  1.90406650e-01 -2.54326791e-01 -8.82875323e-01
   8.32426250e-02  4.35004264e-01 -1.38354048e-01  5.37068903e-01
  -1.23390228e-01 -6.63238391e-02  1.75982594e-01  3.23949307e-01
   4.51370813e-02 -3.09080929e-01  1.13445389e+00 -1.03604484e+00
   5.06848514e-01  4.41276878e-01 -1.21661723e-01  9.70948786e-02]
 [ 1.09747224e-01 -1.94374889e-01  6.44619241e-02  2.10162625e-01
   1.27875552e-01  1.31873518e-01  7.59368360e-01 -5.13770938e-01
   6.95349127e-02 -1.15156628e-01  1.04921329e+00  2.15893507e-01
   7.83175752e-02  6.92076266e-01 -2.20354795e-01 -1.13762152e+00
  -8.76215175e-02  6.00370288e-01 -1.54843539e-01  5.33140361e-01
   2.08148271e-01  8.43887124e-03  5.95273495e-01  7.88457274e-01
   2.68429458e-01 -3.22331369e-01  1.60104811e+00 -1.53552246e+00
   3.86714756e-01  5.88076651e-01 -1.04108408e-01  5.62573113e-02]
 [-1.75907928e-02 -3.11866760e-01  6.78535700e-02  3.04157585e-01
   1.19193695e-01  8.59135911e-02  6.10809803e-01 -4.81252819e-01
  -1.18157722e-01 -8.05276483e-02  1.13106775e+00  1.77836150e-01
   7.60873333e-02  1.07535303e+00  3.13140824e-02 -1.10727656e+00
  -9.94985774e-02  7.81066954e-01  9.96670723e-02  6.09445512e-01
   1.62769258e-01  1.07541727e-03  6.82534158e-01  1.21568716e+00
   4.32658195e-01 -2.21837774e-01  1.91663694e+00 -1.73746014e+00
   3.22616994e-01  5.10562599e-01  1.03280686e-01 -8.63341242e-02]
 [ 1.36802703e-01 -9.57517028e-01 -4.91431296e-01  7.54057944e-01
  -1.39083073e-01  7.98341185e-02  2.70876229e-01 -4.54327762e-01
  -4.81312685e-02 -5.87725788e-02  1.29232073e+00  6.31084591e-02
   2.53206849e-01  8.86681080e-01  8.47804397e-02 -1.25135350e+00
   1.03305474e-01  1.01062322e+00  2.62843937e-01  7.61417687e-01
   4.42764133e-01  9.75865796e-02  3.22100550e-01  7.20612407e-01
   6.02351964e-01 -4.68118608e-01  2.00688100e+00 -1.62439346e+00
   6.82521939e-01  8.97732377e-01 -4.02403697e-02  1.29404977e-01]
 [ 4.02925126e-02 -1.37472022e+00 -8.70186627e-01  6.91780090e-01
   1.42422453e-01  1.10598937e-01  1.52524957e-03  3.66100110e-02
   6.07985631e-02 -1.00920916e-01  1.52555680e+00  2.02820018e-01
   6.38791740e-01  6.29879534e-01  1.78731620e-01 -1.23482001e+00
  -2.68905666e-02  7.98778713e-01  1.65142238e-01  1.10924649e+00
   3.67382973e-01 -1.35844536e-02  4.24745083e-02  9.76571739e-02
   7.56903410e-01 -4.94028300e-01  1.99027145e+00 -1.68615317e+00
   1.04623425e+00  1.08300483e+00  2.83658653e-02  3.68966013e-02]
 [-6.90939352e-02 -1.23855042e+00 -8.14540327e-01  1.04647064e+00
  -7.10051283e-02  1.20607309e-01 -1.14798754e-01  2.97145545e-02
   4.75649163e-02 -4.69066501e-02  1.29895282e+00  6.37699068e-02
   6.49619460e-01  7.89174438e-01  2.55255163e-01 -9.80250061e-01
   8.45761448e-02  8.09971929e-01  2.99826682e-01  9.78552282e-01
   5.12475967e-01  1.06993124e-01 -5.91025874e-02 -2.08279371e-01
   8.98824811e-01 -4.71915126e-01  1.96804786e+00 -1.58931231e+00
   1.04076338e+00  9.58754897e-01  9.49341953e-02  8.02733004e-02]
 [ 3.01807337e-02 -9.15009975e-01 -6.30101740e-01  1.06167698e+00
  -4.51476276e-02  5.55777192e-01  6.79892376e-02 -2.25900084e-01
  -1.51867196e-02  4.83792387e-02  5.93344212e-01 -1.86087415e-01
   2.55846046e-03  8.18001091e-01  6.10762537e-01 -7.90518045e-01
  -1.25231549e-01  8.54006529e-01  4.95030850e-01  6.71009243e-01
   5.77194154e-01 -4.52853926e-03  4.17818189e-01 -6.20639250e-02
   9.82375681e-01 -6.80112720e-01  1.24613273e+00 -1.08500087e+00
   3.91455978e-01  4.69463378e-01  2.77073197e-02  1.16967894e-01]
 [-3.89859313e-04 -6.88857615e-01 -2.74119616e-01  7.51323521e-01
  -8.64082426e-02  4.70084965e-01  2.20590621e-01  1.86500251e-01
  -1.20139502e-01 -6.83181435e-02  1.37901492e-02  2.16196999e-01
   7.74168074e-02  4.01131421e-01  8.59090328e-01 -7.84651041e-02
  -1.27790272e-01  6.35306895e-01  2.34498546e-01  4.89786893e-01
   2.23658442e-01 -3.34266201e-02 -2.60685962e-02 -3.60548139e-01
   4.92746055e-01 -5.19958586e-02  7.13339686e-01 -2.89066315e-01
   4.76143986e-01  3.45873922e-01  9.60845128e-02  7.37261474e-02]
 [ 9.01535749e-02 -3.95283312e-01 -2.92140007e-01  1.51524141e-01
   8.77960324e-02  2.59986609e-01  4.27192718e-01  8.74285460e-01
  -2.78806519e-02 -3.59647647e-02 -5.32023251e-01  5.54468572e-01
   4.54366565e-01 -2.27275476e-01  7.35429227e-01  3.66990268e-01
  -7.75559023e-02  3.35092336e-01  1.15030177e-01  5.23834109e-01
  -3.98678869e-01 -3.10372524e-02 -4.86355811e-01 -7.10906863e-01
   1.63036004e-01  4.45615828e-01  1.42150462e-01  3.41136605e-01
   5.89799166e-01  5.15277088e-01 -6.40465394e-02  9.76754501e-02]
 [ 1.20746985e-01  3.68988305e-01 -1.27041742e-01 -1.20655864e-01
  -3.15282978e-02  3.18816245e-01  2.80306220e-01  9.00139034e-01
   2.85234768e-02  8.70432854e-02 -9.20154214e-01  4.74145472e-01
   3.10133755e-01 -4.59532559e-01  6.31051004e-01  8.09004664e-01
  -7.81174079e-02  8.18924829e-02  5.54857254e-01  3.88743997e-01
  -3.05610061e-01 -6.18603006e-02 -3.92145336e-01 -9.34209168e-01
   1.10214494e-01  7.47535110e-01 -6.21093929e-01  1.01099396e+00
   2.81637758e-02 -5.17869852e-02  1.78636294e-02 -7.88885728e-02]
 [-3.10698412e-02  6.52082205e-01 -3.92615765e-01 -3.54620427e-01
   1.04698449e-01  6.01959348e-01  2.26838708e-01  8.85086477e-01
   1.20861180e-01  9.90877952e-03 -9.31217909e-01  3.86802554e-01
   2.27610499e-01 -7.42589235e-01  7.52725959e-01  1.10095417e+00
  -1.03481174e-01  7.28812888e-02  1.03201652e+00  5.76186061e-01
  -3.06518435e-01 -8.65921527e-02 -5.18141329e-01 -7.89164543e-01
  -9.06465948e-02  1.22070694e+00 -1.29396832e+00  1.39413345e+00
  -1.43977419e-01 -3.63947041e-02 -9.07336697e-02 -5.54127395e-02]
 [-9.32286680e-02  1.17673278e-01 -1.00758862e+00  2.42695644e-01
  -1.04860224e-01  4.65986967e-01 -9.02551949e-01  4.85159010e-01
  -1.18973099e-01 -5.46749011e-02  4.49266192e-03 -7.15221524e-01
   3.41064841e-01 -5.15971184e-01  8.86455774e-01  7.87801016e-03
  -1.12990811e-01  8.21217775e-01  1.50779247e+00  1.14168298e+00
   2.21571073e-01  5.05629219e-02 -6.94909036e-01 -7.54571617e-01
   4.79277432e-01  6.47971332e-01 -1.43118948e-01  6.41607568e-02
   4.78495955e-01  6.72253966e-01  8.15740675e-02  1.24743700e-01]
 [ 1.22771889e-01 -1.06170356e-01 -8.52970123e-01  3.42711180e-01
  -1.36629194e-01  2.59723306e-01 -7.82759547e-01  1.74211204e-01
  -1.31832689e-01 -3.65229174e-02  4.72602934e-01 -4.03028488e-01
   3.47007185e-01 -6.96515739e-02  5.39784670e-01 -3.96539092e-01
  -6.98010474e-02  5.44174314e-01  8.61201823e-01  7.27208018e-01
   3.45532089e-01  8.99855196e-02 -2.15099528e-01 -6.22197807e-01
   5.88649631e-01 -1.32643193e-01  3.63291144e-01 -4.22538400e-01
   7.12094724e-01  6.68967128e-01  1.33370429e-01  1.33595824e-01]
 [-2.25961357e-02  4.87764925e-02  3.72881383e-01 -4.11857009e-01
   4.38714139e-02 -4.77949083e-01 -3.04525495e-01 -2.33355522e-01
  -1.15259439e-01  6.59047365e-02  3.89105499e-01  1.37196556e-01
   4.78037804e-01  8.94158380e-04 -2.96383649e-01  1.30825087e-01
   1.03357926e-01 -2.29961798e-01 -4.05517071e-01 -4.12972957e-01
  -4.39933278e-02  1.05642408e-01 -8.61138925e-02 -4.54454310e-02
  -1.76033601e-01  1.70806974e-01  2.62148023e-01  2.70075768e-01
   1.28754660e-01 -5.08316187e-03 -2.44007050e-03 -7.84024447e-02]
 [-1.71808749e-02 -2.36697257e-01  1.41978040e-01 -4.15448308e-01
  -2.62323581e-02 -7.60844111e-01 -5.89333475e-01 -1.91583350e-01
  -8.09480250e-02 -8.04638788e-02  9.29318249e-01  2.99480826e-01
   7.30749965e-01 -2.43562669e-01 -8.69692087e-01  9.84655619e-02
  -3.35814804e-02 -3.79608631e-01 -5.57198346e-01 -3.72036040e-01
  -2.38359179e-02 -9.03517008e-03 -2.47562036e-01 -2.75355577e-01
  -5.21949053e-01 -1.42135620e-02  7.82355666e-01  1.00371420e-01
   1.51993290e-01  1.68351859e-01  1.22772165e-01  1.30822837e-01]
 [-1.13645405e-01 -5.13122320e-01 -1.77683085e-01 -4.02148247e-01
  -3.59435566e-02 -7.01173067e-01 -6.76415503e-01 -1.64963543e-01
  -1.48677388e-02 -1.31577760e-01  1.48901045e+00  2.52038121e-01
   1.00067747e+00 -2.47806728e-01 -1.05024898e+00 -3.69558930e-01
   2.79036909e-02 -1.22329094e-01 -4.06240940e-01  2.67294228e-01
  -3.75555694e-01 -1.05612025e-01 -3.78677040e-01 -3.06238323e-01
  -1.95218369e-01  3.60627659e-02  1.35701871e+00 -5.63510001e-01
   5.07401466e-01  6.58484757e-01  3.23498957e-02 -8.96812677e-02]
 [ 1.30654991e-01 -3.85317236e-01  2.66911864e-01 -2.07285024e-02
  -6.48437627e-03 -6.89737380e-01 -3.89121413e-01 -5.39434791e-01
  -7.99632147e-02  5.37360413e-03  1.73885608e+00  2.17241600e-01
   6.70109749e-01  3.03477466e-01 -8.88697207e-01 -6.77815497e-01
   8.02029520e-02 -7.67095387e-02 -2.22939283e-01  1.48289710e-01
   2.77217120e-01  6.73552155e-02  1.21252611e-01  2.84969658e-01
   3.42312194e-02 -3.03360820e-01  1.67794955e+00 -7.26240098e-01
   3.83961409e-01  5.59140027e-01 -7.85291120e-02 -4.59775850e-02]
 [-4.65450212e-02 -1.45336851e-01  4.40156966e-01  3.21825534e-01
   1.72125343e-02 -2.56623894e-01 -1.44204021e-01 -8.48255098e-01
  -4.16058004e-02  1.35894805e-01  1.52404356e+00  3.74453753e-01
   6.00637972e-01  7.78203785e-01 -9.71317232e-01 -5.21118402e-01
   1.28265113e-01 -5.25972843e-02 -2.57238865e-01  4.01434228e-02
   2.53772646e-01 -6.40927032e-02  6.26326859e-01  7.31651545e-01
   1.84464470e-01 -2.39007667e-01  1.87040901e+00 -6.04158342e-01
   6.57415763e-02  1.81146741e-01 -3.95997129e-02 -1.02380812e-01]
 [ 1.78785808e-02  6.59880191e-02  6.70874894e-01  6.18925154e-01
   8.98203999e-02 -6.88533783e-02 -3.00819457e-01 -1.02766812e+00
   5.80275096e-02 -2.10725702e-02  1.53186834e+00  5.61893463e-01
   2.32374534e-01  1.19604063e+00 -1.13313830e+00 -2.28378586e-02
  -9.34425592e-02 -1.58496067e-01 -6.01066425e-02 -7.92210847e-02
   8.29203963e-01 -4.51705456e-02  5.79554260e-01  5.47174931e-01
   4.20513213e-01 -1.37222022e-01  1.67788386e+00 -1.76824108e-01
  -3.59433740e-01  1.60963953e-01 -1.36284322e-01 -1.03235938e-01]
 [ 1.71859562e-02 -3.92800033e-01  3.03940386e-01  8.04080188e-01
  -6.66993186e-02 -1.59587428e-01 -7.15963125e-01 -6.99731529e-01
   6.76808367e-03  1.19879119e-01  1.62178397e+00  5.17275870e-01
   3.06357443e-01  1.01857948e+00 -1.08959603e+00  9.74715780e-03
  -4.64625508e-02 -2.77176201e-01  3.14458877e-01 -2.81710237e-01
   8.62676322e-01  1.27333313e-01  6.51198745e-01  3.93995568e-02
   5.46122372e-01 -1.01710431e-01  1.58323419e+00 -1.39852855e-02
  -2.05500141e-01  3.73941004e-01  1.14022061e-01  1.50262397e-02]
 [ 9.46756452e-02 -6.57048404e-01 -1.12008769e-02  7.09046662e-01
  -8.25567469e-02 -6.07410967e-01 -8.90237808e-01 -2.18207672e-01
  -1.21765994e-01 -1.16701461e-01  1.39045739e+00  1.73123270e-01
   5.25806546e-01  4.27260965e-01 -1.12276077e+00 -9.72399712e-02
   2.31114645e-02 -1.31672874e-01  2.25520760e-01  2.05560587e-02
   6.61210656e-01 -4.01580371e-02  2.26919085e-01 -5.70949912e-01
   5.37961483e-01  1.73725769e-01  1.39416373e+00 -6.54174685e-02
   9.03245509e-02  6.98356569e-01  1.19673871e-01  2.93761566e-02]
 [-4.35950160e-02 -6.77096665e-01 -3.09329599e-01  5.93040526e-01
  -1.97957754e-02 -6.87823832e-01 -1.17707729e+00 -3.01905125e-01
  -1.30730137e-01 -3.31681892e-02  1.43053544e+00 -2.90289372e-01
   4.39741373e-01  4.01888192e-01 -7.44358242e-01 -3.53811264e-01
  -1.14497699e-01  7.83685036e-03  3.01355600e-01  3.70173194e-02
   5.89064538e-01  1.72570869e-02  6.63874578e-03 -7.63701558e-01
   4.92293060e-01 -8.29575211e-02  1.53247619e+00 -5.84556818e-01
   6.10220492e-01  8.13835979e-01 -8.30468908e-02 -8.52140412e-02]
 [ 8.72226581e-02 -8.08599353e-01 -1.07276253e-01  3.11425894e-01
  -2.70227063e-02 -7.44048655e-01 -9.33702111e-01 -3.94494891e-01
  -1.18493326e-01  1.66631006e-02  1.27464068e+00 -5.16548514e-01
   5.54274976e-01  3.43737960e-01 -5.19794762e-01 -5.84924459e-01
  -7.95736536e-02 -1.39270008e-01  8.01481605e-02  9.94652286e-02
   6.07769191e-01  1.17482379e-01  5.45276523e-01 -7.14789450e-01
   5.70739150e-01 -4.24707025e-01  1.47037888e+00 -4.17671353e-01
   6.91333413e-01  8.54357481e-01  9.60157141e-02 -1.99477617e-02]
 [-1.30402654e-01 -7.68967152e-01  2.62744520e-02  5.37804365e-01
  -3.63114774e-02 -6.78612173e-01 -8.99068356e-01 -3.22673976e-01
  -1.31959870e-01 -2.52909046e-02  1.34575593e+00 -6.66542873e-02
   5.92159927e-01  6.75101131e-02 -4.17611659e-01 -2.65824288e-01
  -1.68294739e-02 -2.07306325e-01 -9.49713066e-02  1.44003093e-01
   3.50354850e-01 -8.91028270e-02  5.44127643e-01 -1.09661019e+00
   6.05333388e-01 -5.40102541e-01  1.77132201e+00 -3.97450149e-01
   5.73168993e-01  7.43474185e-01 -4.58083972e-02  2.58502364e-02]
 [-3.74999680e-02 -9.30593967e-01 -1.47313207e-01  5.15618622e-01
   6.02315962e-02 -3.79791349e-01 -7.59119630e-01 -1.22005865e-02
  -1.23553969e-01  6.11474216e-02  1.20412099e+00  1.83283791e-01
   3.79461050e-01  2.22880170e-02 -2.96395570e-01 -6.00245409e-02
   8.63081738e-02  3.91452685e-02  7.79664069e-02  4.12721664e-01
   3.18408310e-01 -9.98649001e-02  1.19944334e-01 -1.43810737e+00
   5.45457602e-01 -4.23024386e-01  1.50591576e+00 -1.34188488e-01
   7.50979245e-01  7.93609738e-01 -2.56463103e-02  5.17300926e-02]
 [-2.24511754e-02 -1.05999410e-01 -1.92580134e-01  8.13456297e-01
   5.07776961e-02  1.28079593e-01 -7.46757865e-01 -8.48460719e-02
  -4.66908887e-02  8.51638988e-02  5.28748274e-01  5.46698682e-02
   2.88057029e-01  2.67644450e-02  9.19938013e-02  4.19653982e-01
  -1.11322030e-01 -8.71723145e-03  7.12038755e-01  5.44455886e-01
   3.45741093e-01 -3.98369730e-02  7.96595812e-02 -1.12625086e+00
   4.88945931e-01  1.95198618e-02  8.38762701e-01  3.62207055e-01
   4.81155843e-01  4.56095278e-01 -1.93235520e-02  1.01114367e-03]
 [-2.24484056e-02  2.09313333e-01 -8.83557975e-01  6.92447662e-01
   9.12838206e-02  4.80019093e-01 -1.13274682e+00  4.56711590e-01
  -1.12510957e-01 -1.00312978e-01  3.83385479e-01 -2.62862325e-01
   3.15609604e-01 -4.08434838e-01  5.30857265e-01  4.00845051e-01
  -1.20683059e-01  4.08417374e-01  1.41183841e+00  1.01194274e+00
   3.48668277e-01  5.71699291e-02 -6.47790790e-01 -1.67688441e+00
   8.53335500e-01  5.80664039e-01  4.69621783e-03  5.26249647e-01
   6.77588284e-01  9.68294799e-01  4.42618467e-02  2.72992123e-02]
 [ 1.39184654e-01 -4.44995195e-01 -1.66268349e+00  6.79069519e-01
   5.00736721e-02  4.09523249e-01 -1.43374515e+00  5.37050962e-01
  -1.41047221e-03 -2.51273834e-03  8.18226278e-01 -8.49153042e-01
   8.57876360e-01 -5.97115397e-01  9.90207136e-01 -6.22849584e-01
   8.55123997e-02  1.20677578e+00  1.61966610e+00  1.95748580e+00
   5.22792161e-01  1.10405557e-01 -1.15606809e+00 -1.73029149e+00
   9.29131567e-01  2.91578084e-01  4.85977292e-01 -3.46399337e-01
   1.46971416e+00  1.68491828e+00  6.11228831e-02  1.17700286e-01]
 [-1.29651606e-01 -4.19676691e-01 -1.23520899e+00  3.58442128e-01
   1.37205899e-01  2.93118268e-01 -8.59290898e-01  4.86301407e-02
   1.07475579e-01 -1.13507971e-01  7.20920622e-01 -6.60611629e-01
   6.68393850e-01 -3.31858158e-01  4.84048724e-01 -8.14394355e-01
   1.03441313e-01  8.78622234e-01  1.11363018e+00  1.21504295e+00
   3.88970882e-01 -9.82096940e-02 -5.64515650e-01 -8.81902277e-01
   5.98173976e-01 -9.04328823e-02  4.32616144e-01 -4.92589951e-01
   8.58384788e-01  1.17241931e+00 -4.07871306e-02 -9.11867917e-02]
 [ 4.72397357e-02 -1.30602047e-01  4.38492507e-01 -3.64725500e-01
   1.27268136e-01 -4.99888361e-01 -3.96934986e-01 -2.52763540e-01
   6.44997954e-02  3.42962742e-02  7.06954002e-01  2.54223257e-01
   4.73831534e-01 -6.85894687e-04 -7.22164989e-01  3.05305749e-01
  -3.14017087e-02 -5.28562009e-01 -4.54572588e-01 -3.52256238e-01
  -1.56863153e-01 -6.29240721e-02 -3.92260179e-02 -1.59967750e-01
  -2.63360262e-01  1.77322179e-01  6.35140955e-01  1.69038951e-01
   3.34139429e-02  1.99508429e-01 -1.05695501e-01  4.44877446e-02]
 [ 1.25398070e-01 -2.78994381e-01  6.41655207e-01 -7.38605797e-01
   1.07679091e-01 -1.21639097e+00 -7.55004942e-01 -5.36368787e-01
   8.40891525e-02 -6.62093535e-02  1.36901379e+00  5.61900616e-01
   1.25221407e+00 -4.44983765e-02 -1.18703997e+00  4.54648525e-01
  -8.17838497e-03 -9.76933599e-01 -8.60264421e-01 -7.51899481e-01
  -1.78746715e-01  2.46067345e-02 -3.64943773e-01 -2.40091115e-01
  -8.05772185e-01  2.98223913e-01  1.10337424e+00  2.76815355e-01
   2.75188386e-01  1.99588567e-01  6.21255711e-02  3.55109721e-02]
 [ 7.79999271e-02 -5.37844777e-01  3.52613837e-01 -5.80610156e-01
   5.46243489e-02 -1.25802970e+00 -6.09936237e-01 -5.39289117e-01
   5.69778308e-02 -7.86701664e-02  1.55036199e+00  4.76707965e-01
   1.08060813e+00 -6.21108934e-02 -1.31724715e+00  2.38597281e-02
  -7.99490735e-02 -6.46603286e-01 -7.77790904e-01 -3.76045585e-01
  -1.13046318e-01 -7.08622336e-02 -4.60946143e-01 -4.69636738e-01
  -4.58390713e-01  1.30755395e-01  1.52636707e+00 -1.42285377e-01
   4.42832887e-01  4.59222406e-01 -7.31899664e-02 -5.12484089e-02]
 [-5.99195063e-02 -2.39691675e-01  6.45470858e-01 -1.67052239e-01
  -3.68707627e-02 -8.12257826e-01 -5.00744343e-01 -6.71400249e-01
  -4.57081795e-02 -1.20940462e-01  1.36571968e+00  6.11852884e-01
   8.68268907e-01  2.26786524e-01 -1.17372680e+00  1.63084775e-01
   1.06070168e-01 -7.16978908e-01 -3.73828739e-01 -3.21425796e-01
   1.64081007e-01  1.87284965e-02 -4.90616448e-02 -5.89403585e-02
  -1.08736545e-01 -7.86618218e-02  1.55814421e+00  1.44486874e-01
  -1.35558704e-02  2.17321008e-01  7.35063180e-02  6.20007366e-02]
 [ 3.12258247e-02  1.46955624e-01  8.78414690e-01  1.86635554e-01
  -1.07083596e-01 -5.47255337e-01 -4.31866467e-01 -5.22704244e-01
   1.11923128e-01  9.37776919e-03  9.77184236e-01  7.58165479e-01
   4.74258363e-01  2.60726839e-01 -1.20356679e+00  7.13744760e-01
   1.40020460e-01 -7.08499491e-01 -1.84841067e-01 -7.72277772e-01
   3.75805557e-01 -2.49652322e-02  2.66574323e-01 -1.45455122e-01
   1.35244563e-01  3.40060562e-01  9.16832566e-01  5.87182105e-01
  -4.86477226e-01 -1.47220299e-01  1.13231517e-01 -9.48789939e-02]
 [ 1.03243299e-01  1.46752536e-01  9.33462381e-01  4.56728667e-01
   9.95081291e-02 -1.92401305e-01 -6.79904938e-01 -3.04953098e-01
   5.25480807e-02  1.02358915e-01  7.64927566e-01  8.56807232e-01
   2.69719332e-01  4.30895776e-01 -1.30469871e+00  1.32773876e+00
  -1.10687859e-01 -9.66548383e-01 -1.01846568e-01 -8.37117195e-01
   5.36785245e-01 -4.40251455e-02  3.35273057e-01 -2.56189644e-01
   2.57807523e-01  3.92052591e-01  8.03780675e-01  1.12306523e+00
  -7.79326439e-01 -2.70813495e-01  4.37920466e-02  7.97530487e-02]
 [-1.34296313e-01  2.53575563e-01  8.60925972e-01  3.77238929e-01
  -1.31258413e-01 -2.76502937e-01 -1.05222285e+00 -6.22143090e-01
  -7.07893372e-02  6.54164255e-02  7.19929099e-01  6.14690661e-01
  -3.68263461e-02  6.00943565e-01 -1.45192719e+00  1.39954233e+00
   1.32184461e-01 -1.07607925e+00  1.65545925e-01 -1.17357159e+00
   8.48212481e-01  8.11205953e-02  2.13555560e-01 -2.87176371e-01
   4.21993315e-01  6.13368034e-01  2.98004866e-01  1.68239367e+00
  -9.16604221e-01 -3.56160700e-01  8.77855793e-02  9.08721462e-02]
 [ 1.04953378e-01  5.40352881e-01  2.72436947e-01  3.17212373e-01
  -4.24867049e-02 -3.92005928e-02 -1.29847956e+00 -8.01169574e-01
   1.49877544e-03 -1.24231696e-01  7.97552407e-01 -1.67910933e-01
   3.53388414e-02  2.45126545e-01 -8.43106866e-01  9.60285842e-01
  -7.81660378e-02 -9.13872719e-01  3.18218380e-01 -7.78544247e-01
   7.09855676e-01  1.02179267e-01  1.18867740e-01 -4.30391490e-01
   2.53054798e-01  2.80529022e-01  3.56819242e-01  1.13798082e+00
  -5.32220542e-01 -1.00478671e-01  1.25229254e-01 -7.79817179e-02]
 [-2.20008064e-02 -6.91039681e-01 -7.17337847e-01 -6.69934571e-01
   9.04644206e-02 -1.32482576e+00 -1.39816821e+00  2.05302000e-01
  -7.54108876e-02  1.68069378e-02  1.52461672e+00 -5.54808259e-01
   1.22288251e+00 -6.94057524e-01 -9.53765035e-01 -7.20697582e-01
  -1.12209775e-01 -6.16024852e-01 -4.83239777e-02  5.76105237e-01
  -1.19091414e-01 -4.13033366e-02 -8.15580010e-01 -1.59028554e+00
  -3.44232291e-01  9.58640203e-02  1.33573556e+00 -2.18121111e-01
   1.24321020e+00  1.43640053e+00  4.29748595e-02 -3.02157830e-02]
 [ 2.52959896e-02 -9.58436131e-01  2.37266138e-01 -4.01668429e-01
   7.35330349e-03 -1.56938779e+00 -1.18337035e+00 -1.75177678e-01
  -1.15516551e-01  1.02975197e-01  1.65555131e+00 -2.29928464e-01
   9.71853733e-01 -2.99675524e-01 -1.05427492e+00 -6.17188871e-01
  -1.91467516e-02 -7.44520605e-01 -7.75197327e-01  4.20038775e-02
  -3.54221165e-01 -1.40325636e-01 -5.20534180e-02 -1.21404922e+00
  -2.44965151e-01 -2.32420832e-01  1.94975042e+00 -5.60790837e-01
   1.12006569e+00  1.05753410e+00  9.31743309e-02 -1.75535083e-02]
 [ 1.23358637e-01 -8.95001650e-01  7.89375186e-01  2.14976698e-01
   1.15836546e-01 -9.63063478e-01 -9.56863701e-01 -7.70245790e-01
   1.37177765e-01  7.73502514e-02  1.88258719e+00  3.41821343e-01
   3.58105361e-01  4.08207655e-01 -1.27298498e+00  1.80640034e-02
   3.51345427e-02 -5.56624472e-01 -7.52286196e-01 -6.73322380e-01
   2.30141670e-01 -1.40092388e-01  6.96213007e-01 -7.11359918e-01
   2.99595892e-01 -5.75159550e-01  2.06913376e+00 -3.07388306e-01
   3.41815591e-01  3.32812250e-01 -7.55258352e-02  7.97227025e-02]
 [ 1.15898080e-01 -1.12417281e+00  3.86181235e-01  1.02992630e+00
   6.78624585e-02 -6.72819436e-01 -1.32759929e+00 -7.07420945e-01
  -4.55886184e-04  4.74052466e-02  1.83974814e+00  2.39772379e-01
   1.75279051e-01  7.48827755e-01 -8.81719291e-01  1.31694466e-01
  -1.02450557e-01 -4.24847245e-01 -2.04005837e-01 -4.14500624e-01
   5.89281857e-01 -5.48373424e-02  7.14984298e-01 -1.30505013e+00
   6.42568171e-01 -9.01722848e-01  1.98387980e+00  2.16354243e-02
   3.33355963e-02  4.43303168e-01 -4.58337292e-02 -6.09000959e-02]
 [-9.65548754e-02 -8.34180415e-01 -1.48382396e-01  9.85919356e-01
   1.20508298e-03 -2.31949612e-01 -1.13404536e+00 -4.34289187e-01
   1.39890596e-01 -9.90230441e-02  1.50145543e+00  2.58655429e-01
   3.50512028e-01  4.31957752e-01 -4.67890263e-01  3.02486151e-01
  -6.58550337e-02 -1.80034235e-01  1.88704461e-01 -8.13886896e-03
   6.23777747e-01  4.54554614e-03  4.29948986e-01 -1.43077517e+00
   7.32764423e-01 -4.65873450e-01  1.59638894e+00  2.09419549e-01
   2.47221753e-01  6.93704844e-01 -1.15865335e-01 -8.51895213e-02]
 [-7.50103639e-03 -7.75810897e-01 -1.09837377e+00  1.07904005e+00
  -3.67862582e-02  6.76733702e-02 -1.35309684e+00 -2.05328941e-01
   8.34174976e-02 -5.99498600e-02  1.39188612e+00 -5.09597480e-01
   6.02295756e-01  4.61243801e-02  2.61467844e-01 -3.89749885e-01
   9.60503817e-02  6.35046303e-01  9.05185878e-01  1.06943274e+00
   7.42621720e-01 -1.30153328e-01 -3.27996343e-01 -1.90993166e+00
   1.09615338e+00 -5.25089145e-01  1.18225956e+00 -1.15248606e-01
   9.48798716e-01  1.39828920e+00 -6.88001662e-02  2.41258182e-02]
 [ 8.45647007e-02 -1.40274036e+00 -1.71284354e+00  7.96433628e-01
  -2.05132216e-02 -1.89481586e-01 -1.36551750e+00  6.61233723e-01
  -1.91524178e-02  8.63741562e-02  1.39108515e+00 -5.88509202e-01
   1.44050896e+00 -5.71580112e-01  3.58546138e-01 -9.34266686e-01
  -9.56624076e-02  1.05295920e+00  1.26186097e+00  1.63392091e+00
   4.32977855e-01  1.46353543e-02 -1.56379962e+00 -2.02803898e+00
   8.79304230e-01  1.12720273e-01  1.11425555e+00 -8.51261437e-01
   1.73648608e+00  1.82870770e+00  7.12360665e-02 -4.17415723e-02]
 [ 7.82840699e-02 -7.03305542e-01 -9.46504295e-01  5.32390594e-01
   1.10725090e-01 -1.89065635e-01 -7.43294239e-01  4.28701699e-01
   1.13928117e-01  6.75682724e-02  8.91024888e-01 -4.43663925e-01
   9.44225907e-01 -3.28826904e-01  3.78633708e-01 -7.03036785e-01
  -8.49163011e-02  7.32827425e-01  7.12637722e-01  1.06504929e+00
   2.05112144e-01 -1.01745818e-02 -9.23985541e-01 -1.08294630e+00
   5.53102195e-01  6.01567375e-03  6.31048858e-01 -7.36973524e-01
   1.09026408e+00  1.07864320e+00  2.39823256e-02  2.30592340e-02]
 [-9.65956450e-02 -1.15631528e-01  4.00272071e-01 -3.32908958e-01
   1.32654281e-02 -4.77444082e-01 -3.26046675e-01 -2.58431256e-01
  -3.07296291e-02  5.14377058e-02  4.40718353e-01  2.83953071e-01
   5.11916220e-01  1.09541882e-02 -4.93524104e-01  1.65355206e-01
  -1.00907221e-01 -5.17439544e-01 -4.06859398e-01 -2.87082195e-01
  -1.22929746e-02 -1.32699341e-01 -1.66648313e-01 -7.41501078e-02
  -3.12908411e-01  2.37311751e-01  5.15788198e-01  1.69105694e-01
   2.81184137e-01  6.57795519e-02 -1.19715251e-01 -3.50059643e-02]
 [ 2.14013308e-02 -3.10720772e-01  6.75877929e-01 -7.32503474e-01
  -3.06951776e-02 -1.09793961e+00 -5.96822917e-01 -4.50415760e-01
  -9.01194662e-02  7.86016509e-03  8.76851499e-01  8.65419984e-01
   1.05824351e+00  2.90729292e-02 -1.16283321e+00  3.73430222e-01
   1.28861845e-01 -9.15137529e-01 -7.16294169e-01 -7.49542356e-01
  -2.48494111e-02  4.96171415e-02 -2.98097581e-01 -2.03117430e-01
  -6.35484576e-01  3.80733967e-01  8.91760588e-01  2.24992007e-01
   1.59095675e-01  1.21140026e-01 -1.15321651e-01 -7.52588063e-02]
 [-1.02091417e-01 -4.07648861e-01  6.91303670e-01 -6.79347754e-01
   1.43307718e-02 -1.09825635e+00 -3.70349258e-01  2.58725528e-02
   2.45147981e-02 -9.37107876e-02  8.57498467e-01  6.87052786e-01
   1.07903278e+00 -4.93099898e-01 -1.08604443e+00  4.26183075e-01
   1.90443583e-02 -9.77567852e-01 -8.79184484e-01 -6.63174510e-01
  -4.91877019e-01  1.84043869e-02 -5.29404283e-01 -3.41425419e-01
  -5.79091012e-01  6.09098136e-01  6.20889723e-01  5.08019984e-01
   8.73069093e-02  1.78341776e-01  7.38835484e-02 -4.16506231e-02]
 [-5.89034967e-02  6.55073822e-02  8.05076361e-01 -3.76541734e-01
   1.38112143e-01 -7.99850345e-01 -2.56161124e-01  2.61612803e-01
  -9.10806358e-02  9.36091617e-02  4.31825459e-01  6.06465816e-01
   5.22267699e-01 -4.72786546e-01 -8.32729816e-01  9.02090073e-01
   1.02876529e-01 -7.88854718e-01 -4.22157168e-01 -7.59353518e-01
  -3.03264499e-01 -9.95608047e-02 -2.63986021e-01 -6.80469632e-01
  -2.98199147e-01  5.62871218e-01  1.15845844e-01  8.84067714e-01
  -3.44296366e-01 -2.23781392e-01 -3.98974232e-02  2.22020168e-02]
 [-1.02653310e-01  6.38155520e-01  6.65252447e-01 -1.37489900e-01
  -1.04494259e-01 -2.28122026e-01 -2.73652792e-01  3.48525792e-01
  -1.33372381e-01 -1.21483997e-01 -3.55388194e-01  5.36883533e-01
  -8.07091966e-02 -6.19448662e-01 -4.76649791e-01  1.40381980e+00
  -1.06558971e-01 -7.18077481e-01  5.43878153e-02 -9.41022933e-01
   1.20845117e-01  6.21336997e-02  2.28187870e-02 -8.36101651e-01
  -2.43257135e-01  6.21881902e-01 -5.83608568e-01  1.55449283e+00
  -7.03925192e-01 -6.44516587e-01 -1.27468958e-01  2.53722481e-02]
 [-1.15971491e-01  6.83488309e-01  5.39581120e-01  2.19865978e-01
  -8.42668768e-03  3.80056262e-01 -3.51907730e-01  3.53181481e-01
   1.18454494e-01 -9.52539593e-02 -5.27769387e-01  5.81507802e-01
  -3.88580263e-01 -6.10869706e-01 -4.26486105e-01  1.82705164e+00
   7.23664761e-02 -8.13642681e-01  1.44361362e-01 -9.18976843e-01
   4.01919544e-01  4.22252044e-02 -1.09625287e-01 -6.35055482e-01
   5.28639220e-02  9.17467296e-01 -1.12549698e+00  2.04802084e+00
  -1.04165018e+00 -6.26522899e-01 -6.43555969e-02 -1.16725504e-01]
 [-3.41965258e-02  1.18515027e+00  1.88968867e-01  7.03543782e-01
   1.21201845e-02  1.36818898e+00 -6.13304317e-01 -4.46432024e-01
  -1.18139409e-01  4.94250283e-02 -5.92353523e-01  3.65044802e-01
  -7.94734657e-01  1.93094909e-01 -1.64046034e-01  1.79629099e+00
  -6.49237484e-02 -5.30287921e-01  1.12452233e+00 -7.23411560e-01
   1.01496685e+00 -1.35916248e-01  1.59801662e-01  1.20169297e-01
   4.43237692e-01  6.80613935e-01 -1.46029663e+00  2.07344580e+00
  -1.59012091e+00 -9.60577130e-01  5.27477004e-02  2.86112651e-02]
 [-3.16919386e-02 -1.36556864e-01 -1.31389701e+00  3.08810443e-01
  -5.03109619e-02  1.00333846e+00 -6.42136335e-01  3.06331813e-01
  -1.88445784e-02 -1.23160668e-01  2.44165033e-01 -4.38903928e-01
   2.15531021e-01 -1.71230122e-01  2.14576110e-01 -3.74811888e-02
   6.46421835e-02  2.72018611e-01  8.15525532e-01  8.64281178e-01
   3.49429756e-01  1.14469551e-01 -7.59963930e-01 -9.25158799e-01
   2.83699244e-01  3.31725240e-01 -8.24416935e-01  3.86620313e-01
   3.79963666e-01  5.09868860e-01 -6.35450929e-02  5.65961562e-02]
 [ 9.36989188e-02 -1.97985840e+00 -1.82435310e+00 -1.71490157e+00
   3.80620882e-02 -1.53825057e+00  6.86463356e-01  2.06750417e+00
   1.00278728e-01 -1.31263942e-01  6.37307823e-01  8.10516000e-01
   1.98790371e+00 -1.71702886e+00 -7.01644480e-01 -1.00821769e+00
   3.45145240e-02 -5.05389333e-01 -1.35686910e+00  1.76834214e+00
  -1.73262537e+00 -4.62328419e-02 -2.15166736e+00 -2.10149360e+00
  -1.51362145e+00  1.29902232e+00  3.32698882e-01 -1.21859837e+00
   2.22700381e+00  1.96320617e+00 -1.20784394e-01  1.13823108e-01]
 [-9.28358063e-02 -8.19988966e-01  7.50373662e-01 -6.44499898e-01
  -7.49799237e-03 -8.95725369e-01  1.25816679e+00  5.57514250e-01
  -1.13984287e-01 -9.62506682e-02  4.22145665e-01  1.45092762e+00
   1.03745699e+00 -1.74471080e-01 -1.04406369e+00  3.24882939e-02
  -4.79599088e-02 -7.95402288e-01 -1.50925779e+00 -4.78715926e-01
  -8.75693917e-01 -1.44114271e-01 -3.76103610e-01 -3.52458447e-01
  -7.90855408e-01  6.99484169e-01  7.73880541e-01 -2.98771173e-01
   7.96528101e-01  4.26602811e-01  1.26303792e-01 -6.92746863e-02]
 [ 8.27216730e-02 -8.05614471e-01  1.36279619e+00  1.70659602e-01
   5.30813709e-02 -7.87982285e-01  3.80287886e-01 -4.26232994e-01
  -1.43400609e-01 -2.97723711e-02  8.65322590e-01  1.36075008e+00
   5.85458159e-01  7.51777291e-01 -1.62148845e+00  8.44176531e-01
  -9.62564349e-02 -1.03459084e+00 -1.44097471e+00 -1.46469259e+00
  -1.98730305e-01  6.04683273e-02  6.23960376e-01  2.51060694e-01
  -3.53308581e-02  8.47516507e-02  1.35865402e+00  4.08520967e-01
  -5.35821557e-01 -7.46067524e-01 -1.40836298e-01 -8.00728723e-02]
 [-1.14824682e-01 -7.86540389e-01  1.17244983e+00  4.22481388e-01
  -6.15368262e-02 -8.62309754e-01 -5.07604539e-01 -3.85232806e-01
   1.00192614e-01 -4.58227098e-03  1.16081536e+00  6.90819442e-01
   3.83473903e-01  6.74180508e-01 -1.19340706e+00  9.73599672e-01
   1.38092086e-01 -1.14229023e+00 -9.06174481e-01 -1.39335310e+00
   1.35901079e-01 -8.90803337e-02  4.38215196e-01 -4.14173067e-01
   2.22449839e-01 -3.86755973e-01  1.43618178e+00  6.83967173e-01
  -4.06092703e-01 -4.77237940e-01  9.14057791e-02 -1.64527167e-02]
 [ 5.08310869e-02 -1.04558051e-01  3.83284658e-01  6.89136565e-01
   9.55950543e-02 -8.64955708e-02 -8.51391673e-01 -7.74018466e-01
  -1.27260745e-01 -5.98002970e-02  1.05807900e+00 -1.22660756e-01
  -3.35407794e-01  6.36964500e-01 -3.42263281e-01  6.42165840e-01
   6.97680712e-02 -4.92723286e-01 -2.70251572e-01 -8.50504518e-01
   6.26379728e-01 -3.78947007e-03  6.97259009e-01 -6.59125686e-01
   3.88923287e-01 -6.97404742e-01  7.49454081e-01  8.31970990e-01
  -7.21263468e-01 -1.22170545e-01  7.88406804e-02 -1.23388581e-01]
 [ 4.47997414e-02 -1.32509172e-01 -7.96531200e-01  1.21262813e+00
   9.49511826e-02  8.87801409e-01 -1.22633719e+00 -8.97733867e-01
   1.09424464e-01 -1.89491604e-02  1.02078176e+00 -8.23882997e-01
  -8.34407806e-01  7.71089196e-01  5.87267220e-01 -3.62416118e-01
  -8.60246345e-02  6.66214287e-01  8.65435123e-01  5.18643260e-01
   1.11797071e+00 -1.00306518e-01  6.71658874e-01 -9.72352743e-01
   1.09496248e+00 -1.04955053e+00  9.62893069e-01 -6.13078661e-02
  -7.14232540e-03  6.65978849e-01 -3.24445255e-02 -4.66171056e-02]
 [ 1.26619220e-01 -7.66687870e-01 -1.28000391e+00  9.00461316e-01
   1.19611435e-01 -6.46892637e-02 -1.08879709e+00 -1.63557474e-02
  -9.98987071e-03  2.86541432e-02  1.06302655e+00 -5.13510525e-01
   4.10002202e-01 -6.14955314e-02  3.40267062e-01 -8.61661017e-01
   1.11121446e-01  7.96254098e-01  8.09960783e-01  1.31682694e+00
   5.44716239e-01 -9.78935212e-02 -6.20577097e-01 -1.19870281e+00
   7.11424947e-01 -3.52657735e-01  1.05492294e+00 -6.51592195e-01
   8.90730977e-01  1.30783987e+00  7.54295709e-03  8.97320509e-02]
 [-3.13352942e-02 -6.23676777e-01 -8.29689920e-01  3.17064196e-01
  -1.07320964e-01 -2.71985084e-01 -4.83511597e-01  2.48230323e-01
   1.13977287e-02  1.03135919e-02  5.98924756e-01 -1.06336176e-01
   6.05779767e-01 -2.92795032e-01 -2.15030294e-02 -5.07265329e-01
   9.90728140e-02  1.65782884e-01  2.45024979e-01  7.56440878e-01
  -6.13376237e-02 -5.29578514e-02 -6.33538961e-01 -8.20457399e-01
   1.33540452e-01 -7.46596754e-02  5.17053843e-01 -4.75932479e-01
   8.52260947e-01  8.69191229e-01  6.72035217e-02 -1.50222331e-02]
 [-2.57438719e-02 -5.34457676e-02  3.54284257e-01 -4.02103066e-01
  -3.43454219e-02 -3.29878122e-01 -3.04297179e-01 -2.38456726e-01
   1.99026465e-02 -3.74906361e-02  4.07505661e-01  3.55221391e-01
   3.42945039e-01  1.71238437e-01 -4.72428739e-01  1.83818832e-01
   1.16037637e-01 -2.34877422e-01 -4.97986406e-01 -2.52052486e-01
  -1.07020617e-01 -2.94886008e-02  5.25594503e-03  1.19719999e-02
  -3.83653104e-01  1.95542410e-01  2.52575755e-01  1.34195387e-01
   4.31092940e-02  1.01201557e-01 -1.47203207e-02  8.42714757e-02]
 [-4.25168201e-02 -2.53422186e-02  7.30638683e-01 -7.02734232e-01
   9.90983844e-02 -7.96465993e-01 -1.44309521e-01 -4.31303345e-02
  -2.54016044e-03  7.91837052e-02  3.99140209e-01  6.25790238e-01
   6.06643677e-01 -2.59291619e-01 -9.53070104e-01  4.14423555e-01
   6.87299520e-02 -8.85131240e-01 -8.07099700e-01 -8.52241457e-01
  -4.93007392e-01  1.34737402e-01 -3.85708869e-01 -1.22929983e-01
  -8.60256851e-01  4.19123739e-01  3.79022032e-01  5.52444100e-01
   2.31697354e-02 -1.35378629e-01  1.06454894e-01 -1.05691254e-02]
 [ 3.92355621e-02 -6.04932383e-02  9.84021187e-01 -7.75538325e-01
   5.46986889e-03 -1.05457532e+00  4.21396673e-01  5.09454489e-01
   1.18830889e-01 -5.54816946e-02 -7.23314360e-02  7.98213005e-01
   7.22683668e-01 -8.76123607e-01 -9.80814278e-01  8.93790126e-01
  -1.37213408e-03 -1.11157823e+00 -8.52905989e-01 -8.69023561e-01
  -7.20291495e-01 -1.22030295e-01 -4.23649281e-01 -5.03108680e-01
  -7.77387798e-01  5.94740331e-01 -3.42707783e-01  1.05370951e+00
  -3.73759747e-01 -6.07345521e-01  7.22260922e-02  9.65868682e-02]
 [ 4.75993790e-02  7.44244814e-01  7.16888547e-01 -4.45934266e-01
  -1.43896669e-01 -5.91902621e-02 -1.79217115e-01  2.56736487e-01
  -1.21843785e-01 -6.90671131e-02 -7.47755110e-01  2.02991396e-01
  -5.83012104e-01 -1.08802414e+00 -2.23421052e-01  1.19317782e+00
   6.67616278e-02 -6.80148125e-01 -2.17955559e-01 -8.52998614e-01
  -3.19577157e-01 -6.92185611e-02  2.44664699e-01 -7.31129825e-01
  -3.33041370e-01  3.52707118e-01 -1.09312046e+00  1.47037685e+00
  -1.03069746e+00 -8.79881561e-01 -8.19558352e-02  3.26189995e-02]
 [-7.64706507e-02  1.32697022e+00  5.63904107e-01 -3.81735563e-01
  -4.79293391e-02  3.51035148e-01 -2.42234454e-01  6.92113161e-01
  -2.56274920e-02  1.12058008e-02 -1.31452119e+00 -3.18979770e-02
  -9.66297448e-01 -1.45396042e+00  2.51267850e-01  1.47098398e+00
  -8.21570307e-02 -6.26978815e-01  2.54298836e-01 -6.11031890e-01
  -3.35085064e-01 -5.43919671e-03  2.85116941e-01 -6.99901223e-01
  -9.04204771e-02  4.48772639e-01 -1.63987434e+00  1.97883713e+00
  -1.23876476e+00 -8.40776086e-01 -1.35265395e-01 -1.13978297e-01]
 [ 1.11144505e-01  1.35195827e+00 -3.33376288e-01  1.26403630e-01
   1.00620590e-01  1.63539183e+00 -2.07479268e-01  4.83674556e-01
  -8.76311511e-02  3.92084084e-02 -1.40969205e+00 -2.99756706e-01
  -1.14031792e+00 -9.62725639e-01  8.65749896e-01  1.25282156e+00
   1.92993656e-02  1.83977216e-01  1.10790455e+00  1.65102899e-01
   4.01032090e-01 -7.67803565e-02  2.56516814e-01 -2.27059901e-01
   5.85601687e-01  7.47857690e-01 -2.11382818e+00  2.01726270e+00
  -9.79403377e-01 -7.08632231e-01 -5.61663508e-02 -1.93040986e-02]
 [-4.46450189e-02  1.22579026e+00 -9.82624531e-01  1.47835445e+00
  -6.27317801e-02  2.46410871e+00 -1.45056009e-01 -1.26846984e-01
  -2.02357005e-02  1.33071885e-01 -1.00736940e+00 -5.45873880e-01
  -1.44633126e+00  4.41080093e-01  1.56200790e+00  5.15085995e-01
  -5.04707135e-02  1.56449044e+00  2.00349188e+00  9.86136019e-01
   1.24344015e+00 -1.27987325e-01  2.38176659e-01  5.32608807e-01
   1.18552816e+00  1.20895207e-01 -1.80359030e+00  8.60685825e-01
  -1.12552905e+00 -2.37787664e-01 -5.83193684e-03  1.18341399e-02]
 [-1.36952072e-01 -1.10554910e+00 -1.87338579e+00  5.43007031e-02
   6.69896379e-02  5.71781218e-01  1.25508237e+00  1.71174455e+00
  -2.33759265e-02 -1.91117381e-03 -3.22401285e-01  5.69385946e-01
   8.55271339e-01 -8.37831080e-01  7.05581069e-01 -6.54187858e-01
  -1.24240227e-01  9.59411860e-01  2.48233095e-01  1.76591671e+00
  -5.45054376e-01  2.18825899e-02 -1.77637661e+00 -9.84322488e-01
  -3.15231472e-01  1.39316773e+00 -6.39312029e-01 -6.36642218e-01
   1.08905280e+00  1.03010547e+00  2.19877530e-02 -1.03381962e-01]
 [-7.55441636e-02 -2.03357601e+00 -1.31141996e+00 -1.71251333e+00
   1.09280668e-01 -1.17488146e+00  2.41776109e+00  2.59545183e+00
  -9.17884484e-02  4.85756844e-02 -7.73186624e-01  2.03279614e+00
   2.00640631e+00 -1.67965007e+00 -4.86198992e-01 -2.98894197e-01
  -1.33751869e-01 -5.43984652e-01 -1.69363594e+00  1.20661473e+00
  -1.99695039e+00 -2.29743533e-02 -2.14654326e+00 -1.35845673e+00
  -1.84670639e+00  2.22146153e+00 -5.18401980e-01 -7.22423136e-01
   1.83103716e+00  1.30418146e+00  1.41215786e-01 -1.39431342e-01]
 [-1.32378533e-01 -2.40507364e-01  1.07967901e+00 -3.48410726e-01
  -1.11484956e-02 -9.43730846e-02  2.23085093e+00  8.85765731e-01
  -3.29007581e-03 -1.34430155e-01 -7.02732563e-01  2.00928736e+00
   7.63718247e-01  2.28108481e-01 -9.91970539e-01  9.05112922e-01
  -8.75473022e-02 -5.64197183e-01 -1.05968785e+00 -9.36222196e-01
  -7.73525596e-01  4.08673771e-02 -3.85690391e-01  8.77683759e-01
  -6.47353530e-01  1.36244202e+00 -3.64802718e-01  3.55183661e-01
  -4.57584769e-01 -8.12422931e-01  3.75721678e-02 -7.89093412e-03]
 [ 8.69259983e-02 -1.76841468e-01  1.35690916e+00 -6.43434644e-01
  -3.87660787e-02 -8.37285578e-01  1.13798130e+00  4.92534459e-01
   9.81237832e-03 -1.13499239e-01 -1.29369814e-02  1.80832696e+00
   7.93296993e-01  5.84975928e-02 -1.74988568e+00  1.15241671e+00
   7.58119449e-02 -1.34370828e+00 -1.32587218e+00 -1.39819670e+00
  -6.93018377e-01 -6.42846674e-02 -1.16237685e-01  6.57093704e-01
  -6.73130155e-01  1.31147599e+00  2.10478410e-01  7.97349513e-01
  -6.66199625e-01 -8.44848573e-01  5.04295062e-03 -1.07999310e-01]
 [ 6.65411167e-03  8.09038728e-02  1.22916162e+00 -2.49182791e-01
   1.01888016e-01 -5.25399685e-01  8.60538110e-02 -5.24746999e-02
  -4.16970886e-02 -3.26251313e-02  1.47200882e-01  8.14488351e-01
   5.99546954e-02 -1.91472068e-01 -1.11013627e+00  1.00613892e+00
   7.43363127e-02 -1.11917472e+00 -8.36839259e-01 -1.29388809e+00
  -7.24649802e-02 -1.47099718e-01  4.99345362e-02  2.99621187e-03
  -4.47699785e-01  1.58024669e-01 -2.26714127e-02  1.07273841e+00
  -5.86394548e-01 -8.19497526e-01  9.24220681e-02 -1.21643491e-01]
 [-9.06108469e-02  1.26277232e+00  2.97342420e-01  6.00799561e-01
  -7.88826868e-02  7.40983248e-01 -8.21893334e-01 -1.20217741e+00
  -1.21403798e-01 -1.06811732e-01 -1.45892441e-01 -6.03465319e-01
  -1.42887151e+00  5.12353361e-01  3.07468891e-01  5.70075810e-01
   1.72888599e-02 -2.57306900e-02  2.75554031e-01 -7.98111498e-01
   8.64761829e-01  2.49077957e-02  1.12258518e+00  3.71241242e-01
   6.08318508e-01 -7.36354947e-01 -3.97157550e-01  1.10761821e+00
  -1.53704858e+00 -1.11988938e+00 -1.46843595e-02  1.07487135e-01]
 [-1.23028152e-01  1.66043568e+00 -6.96632624e-01  1.41897154e+00
   1.24686398e-01  1.80584145e+00 -1.19618702e+00 -1.41934884e+00
   9.90757644e-02 -1.15623474e-01  1.19487666e-01 -1.29698455e+00
  -1.99579895e+00  1.30426717e+00  1.27062309e+00 -4.05364722e-01
  -1.33227259e-01  1.11284113e+00  1.40176761e+00  1.05064444e-01
   1.63264787e+00  1.05701081e-01  1.45255363e+00  5.89274883e-01
   1.37930620e+00 -1.19043398e+00 -2.56498873e-01  2.76691347e-01
  -1.32943928e+00 -6.63108289e-01  1.04824066e-01 -1.19991884e-01]
 [ 8.91005397e-02  3.61667573e-01 -6.55382574e-01  7.99254239e-01
  -3.83549696e-03  8.35093617e-01 -6.76966667e-01 -6.24053597e-01
  -1.11627169e-01  1.21729359e-01  1.87401429e-01 -5.96298873e-01
  -9.98018026e-01  7.70015419e-01  8.56273234e-01 -3.31978947e-01
  -4.79588881e-02  7.49470890e-01  7.15247035e-01  4.66833860e-01
   9.55233097e-01  4.99321185e-02  6.13589048e-01  5.00043988e-01
   8.09419990e-01 -7.03613818e-01  2.92746574e-01 -3.51957589e-01
  -2.92576164e-01  2.60132886e-02 -9.30352509e-03 -1.13589145e-01]
 [ 4.67889309e-02 -1.66816771e-01 -3.52585375e-01  1.09997466e-01
   1.02692172e-01 -9.69422311e-02 -8.06045905e-02 -9.93786082e-02
   1.26525700e-01  9.40398052e-02  2.64233828e-01 -6.10046498e-02
  -3.97007242e-02  2.34071568e-01  1.85122073e-01 -2.33007044e-01
  -5.87645322e-02  1.05465546e-01  1.77028775e-01  2.10987896e-01
   1.68337196e-01 -5.53927235e-02  1.51323110e-01 -1.91982329e-01
   1.10034309e-01 -1.10059761e-01  3.60559136e-01 -3.71724337e-01
   2.99765855e-01  2.88886517e-01 -1.05484806e-01  1.27730608e-01]
 [ 7.04739243e-02 -1.09069876e-01 -4.75989133e-02 -2.45412201e-01
   7.03504980e-02 -1.99392155e-01 -1.78494051e-01 -1.43771097e-01
  -6.23682365e-02  7.36674219e-02  1.95187375e-01  9.53513160e-02
   3.04666132e-01 -1.01798207e-01 -1.24319687e-01  5.71998842e-02
  -2.89811864e-02 -2.22292811e-01 -8.32006410e-02 -1.60284147e-01
  -7.34692961e-02 -8.80904347e-02 -2.24043384e-01 -7.42692649e-02
  -2.09594354e-01 -4.06497680e-02  7.15406388e-02 -4.08213958e-02
   9.50338617e-02  1.26345649e-01  1.19236641e-01  1.90098137e-02]
 [ 4.80088890e-02 -7.88302273e-02  3.66858721e-01 -8.00180018e-01
  -8.46582502e-02 -4.24879462e-01  3.28332126e-01  5.49438298e-01
   2.77738553e-02  1.42776668e-02  1.35553274e-02  5.71361721e-01
   4.35721904e-01 -7.09332705e-01 -5.26732922e-01  4.63492751e-01
   1.03318904e-04 -6.55673683e-01 -7.43144512e-01 -3.79323542e-01
  -7.06787646e-01  1.43852234e-01 -3.12829614e-01 -1.18749633e-01
  -5.62584579e-01  6.39907002e-01 -1.59870088e-01  4.61340547e-01
  -4.90235612e-02 -1.81625813e-01  7.94477537e-02 -1.30023167e-01]
 [ 3.91765088e-02  4.81631696e-01  9.94922161e-01 -6.58660173e-01
  -1.08363830e-01 -5.44738591e-01  3.53001416e-01  4.09366041e-01
   1.30246922e-01 -8.46173689e-02 -4.50394511e-01  3.30570370e-01
  -2.54009254e-02 -7.28804946e-01 -3.84252369e-01  8.35909486e-01
   2.56998874e-02 -6.56844795e-01 -5.32769024e-01 -6.43814206e-01
  -6.56631291e-01 -1.36590656e-02 -9.33348835e-02 -6.42763495e-01
  -5.33452272e-01  1.84813887e-01 -5.03099918e-01  1.10831702e+00
  -4.72489685e-01 -6.69973135e-01  7.50139281e-02 -7.25700706e-02]
 [-8.73560384e-02  1.43093967e+00  1.01129687e+00 -2.63843030e-01
  -3.23332101e-02  2.40786538e-01 -2.75214851e-01 -2.36896910e-02
   1.28090411e-01  5.84620200e-02 -1.26988399e+00 -3.56329083e-01
  -1.44716311e+00 -8.24554920e-01  3.69752675e-01  1.06400859e+00
   3.85363773e-02 -3.98402452e-01 -1.35992229e-01 -8.14023197e-01
  -2.41991639e-01  1.86886955e-02  1.11212587e+00 -1.83688506e-01
   1.96934910e-04 -3.03099006e-01 -1.11321115e+00  1.59668863e+00
  -1.57038856e+00 -1.18821549e+00 -2.34707817e-03 -4.15035710e-02]
 [-1.46475509e-01  1.71502995e+00  6.87908411e-01 -1.67125478e-01
  -1.36222714e-03  9.26512420e-01 -1.64618611e-01 -5.94793558e-02
  -1.74643919e-02 -2.34188642e-02 -1.48393226e+00 -3.41649860e-01
  -1.69861209e+00 -1.14634669e+00  7.61942327e-01  1.40426862e+00
  -1.42096967e-01 -2.40961701e-01  1.46751419e-01 -8.08983028e-01
  -8.39416981e-02 -5.90634793e-02  1.07046604e+00  1.51432842e-01
   1.49158329e-01 -5.85815944e-02 -1.83179867e+00  1.70148909e+00
  -1.21575141e+00 -1.24841917e+00 -1.69751677e-03  7.55976662e-02]
 [ 8.62948298e-02  1.50640690e+00 -5.21340705e-02  7.84331262e-01
  -1.16809227e-01  2.03192282e+00 -4.56607454e-02 -2.56193280e-01
  -7.50868991e-02  3.06481570e-02 -1.55822897e+00 -1.05257630e+00
  -1.77842951e+00 -1.53295532e-01  1.72084999e+00  7.31584013e-01
   4.84120799e-04  1.22445607e+00  1.50171983e+00  8.93268734e-02
   6.49655104e-01  6.78380132e-02  7.67879844e-01  4.90949273e-01
   9.03040111e-01 -1.69429675e-01 -1.90932798e+00  1.12135684e+00
  -1.15356565e+00 -9.48474228e-01 -7.49960244e-02 -4.37384006e-04]
 [-2.89813001e-02  1.08114171e+00 -6.45234048e-01  1.64032388e+00
   7.97639191e-02  2.60397172e+00  1.06781709e+00 -1.12168472e-02
  -5.88077456e-02  7.70778060e-02 -1.57723832e+00 -2.74971902e-01
  -1.64685619e+00  9.04732466e-01  1.87901878e+00  1.08769231e-01
  -1.42779008e-01  1.81465960e+00  1.76723814e+00  6.91395581e-01
   1.08921385e+00 -1.00563414e-01  5.47346771e-01  1.48869073e+00
   1.30424035e+00  1.51128531e-01 -1.65661228e+00  7.79422224e-02
  -1.30963266e+00 -9.97176230e-01 -6.91693127e-02 -1.26290768e-01]
 [-8.88818726e-02 -1.39095640e+00 -8.08184981e-01 -1.15972713e-01
  -9.06018391e-02  4.06501144e-01  2.36465931e+00  2.09953833e+00
   1.55453794e-02  2.26774216e-02 -1.39664280e+00  1.46852076e+00
   1.14231980e+00 -5.22448003e-01  7.78637409e-01  1.01816885e-01
  -1.15918316e-01  7.45190024e-01 -2.98756838e-01  8.42494309e-01
  -1.20657349e+00  7.75491148e-02 -1.42625141e+00 -3.14334095e-01
  -3.97601098e-01  1.47917235e+00 -6.86672390e-01 -5.44281542e-01
   9.14329708e-01  3.23613495e-01  2.60900129e-02  8.34792852e-02]
 [-6.50533736e-02 -1.40639031e+00 -4.22714017e-02 -8.95547330e-01
  -1.00546859e-01 -4.88703728e-01  2.70386672e+00  1.94166517e+00
  -9.05292202e-03  9.64199901e-02 -1.43897724e+00  1.82967114e+00
   1.35463142e+00 -6.00962460e-01 -1.42552033e-01  5.15211940e-01
   3.49174179e-02 -1.76101297e-01 -1.13898396e+00  1.49119094e-01
  -1.50261188e+00  1.56854969e-02 -1.49183500e+00 -3.44475120e-01
  -9.04508829e-01  1.73981619e+00 -4.14728612e-01 -1.11809224e-01
   8.42447340e-01  1.43489420e-01 -1.99139547e-02 -8.13764408e-02]
 [-1.17347188e-01  7.83170283e-01  1.48439336e+00 -2.11183622e-01
  -2.42522303e-02  3.24593365e-01  1.96354234e+00  4.75044884e-02
  -1.35874912e-01  1.10953234e-01 -7.12786615e-01  1.90268862e+00
   1.22079715e-01  7.84028292e-01 -1.05944014e+00  1.35122395e+00
  -1.25820085e-01 -7.56479144e-01 -7.17197478e-01 -1.29745317e+00
  -8.12926367e-02 -1.38494223e-01  3.69905919e-01  1.61800361e+00
  -3.60128999e-01  1.41276920e+00 -3.78769130e-01  7.47694016e-01
  -1.22617960e+00 -1.38341475e+00  9.67123508e-02 -3.84703018e-02]
 [-5.37454057e-03  1.27830312e-01  1.11869669e+00 -8.96317899e-01
   5.46759367e-02 -6.95956826e-01  8.37069750e-01  5.24491370e-01
   5.95447533e-02  4.96946126e-02 -2.78271958e-02  1.29726112e+00
   4.13622439e-01 -6.21901870e-01 -1.61440301e+00  1.10897541e+00
   2.58114226e-02 -1.00470817e+00 -9.82662499e-01 -8.93364608e-01
  -6.85936809e-01 -7.04719871e-02 -1.44595459e-01  4.79662925e-01
  -9.67223048e-01  1.30960226e+00 -5.99165261e-01  8.09987128e-01
  -5.41203499e-01 -4.85445291e-01  1.37746081e-01 -1.40165746e-01]
 [ 1.23446986e-01  5.78867674e-01  1.80883527e-01 -5.04879236e-01
  -9.36959311e-02  1.37066960e-01 -2.68782228e-01 -1.83415025e-01
   1.17827669e-01 -7.44511709e-02 -1.34746552e-01  7.71749914e-02
  -4.22036767e-01 -6.66582227e-01 -2.82433569e-01  4.54022348e-01
  -1.35312244e-01 -2.63673216e-01 -1.34444118e-01 -8.95059854e-02
  -7.45497867e-02 -2.51914095e-02  5.26721217e-02 -6.56845793e-02
  -3.79147202e-01  1.40177310e-01 -9.07988250e-01  1.08371258e+00
  -5.33125103e-01 -4.75814670e-01 -9.92717370e-02  6.79568574e-02]
 [-6.71150014e-02  1.56161571e+00 -2.79173702e-01  4.19428438e-01
  -9.41151902e-02  1.17561769e+00 -6.16529226e-01 -9.38607991e-01
   1.37043655e-01 -2.75531579e-02 -4.86472577e-01 -8.32453907e-01
  -1.41268122e+00  1.81009129e-01  6.55441999e-01  1.61359549e-01
   2.98811533e-02  3.55533123e-01  8.14363003e-01 -7.70020410e-02
   8.05016935e-01  1.38498738e-01  7.55545199e-01  5.71267366e-01
   5.35547554e-01 -8.08623374e-01 -9.40933347e-01  1.02877557e+00
  -1.38168442e+00 -9.55412805e-01 -7.36145005e-02  4.71931174e-02]
 [-3.14494632e-02  1.59267175e+00 -3.17779481e-01  1.12290990e+00
   3.18747461e-02  1.49235678e+00 -7.38139570e-01 -1.38436151e+00
   1.01754829e-01  5.92448898e-02 -2.38537341e-01 -1.21319067e+00
  -1.78805113e+00  1.10127497e+00  1.34553957e+00 -1.79546833e-01
  -1.28513068e-01  9.75525796e-01  1.10140586e+00  4.76465821e-02
   1.20830178e+00  5.35794199e-02  1.39474392e+00  8.22948396e-01
   1.15025747e+00 -9.63334680e-01 -2.32955292e-01  4.62210774e-01
  -1.26572883e+00 -6.74699724e-01 -1.15684576e-01 -4.37165573e-02]
 [-1.07582912e-01  9.79279459e-01 -5.05933017e-02  8.76699328e-01
  -4.90688458e-02  9.15226996e-01 -1.86634660e-01 -1.04872882e+00
  -6.99513108e-02 -3.01477686e-02 -1.39097671e-03 -6.66906297e-01
  -1.16850913e+00  1.07088721e+00  9.41623151e-01 -3.60266209e-01
   9.32047889e-03  7.98736274e-01  7.03710258e-01 -4.61019576e-02
   8.16087723e-01  1.03516504e-01  1.20768714e+00  9.04276311e-01
   8.22226286e-01 -6.63024008e-01  1.10691853e-01 -2.73493230e-01
  -7.62480259e-01 -3.25971574e-01 -1.36366457e-01  9.19336528e-02]
 [-1.14937335e-01  1.18336417e-01  4.06843014e-02  4.74462241e-01
  -3.25414017e-02  1.15221508e-01 -2.96243250e-01 -4.32138503e-01
  -1.09140545e-01 -3.72445472e-02  2.30718225e-01 -1.43559054e-01
  -7.76692703e-02  4.23036426e-01  1.57242343e-01 -2.57841855e-01
  -5.80483004e-02  4.63579804e-01  3.81794870e-01  1.55160531e-01
   5.33965290e-01  5.18447012e-02  4.80085790e-01  3.75114501e-01
   3.16858888e-01 -4.03344393e-01  5.57943404e-01 -5.10400295e-01
   1.92071628e-02 -3.51007655e-02 -6.73796088e-02  3.08456719e-02]
 [-6.41698465e-02 -2.94676602e-01 -1.54773638e-01 -1.27351983e-02
  -1.07282877e-01 -1.67714462e-01 -1.35349333e-01  7.01549202e-02
   1.09310746e-01 -8.35690796e-02  2.85562664e-01 -1.25155658e-01
   3.26125503e-01 -3.41980964e-01  1.16925025e-02 -3.14940900e-01
   6.57538027e-02  2.25700647e-01 -1.73446357e-01  1.58287391e-01
  -5.50832711e-02 -1.19859457e-01 -3.20951045e-01 -1.09849207e-01
   1.30205518e-02 -1.44019768e-01  1.95193052e-01 -4.01636213e-01
   3.03022116e-01  4.09829676e-01  1.58607662e-02 -4.85177562e-02]
 [-7.30622038e-02 -7.04627752e-01 -3.32152843e-01 -2.68526524e-01
  -4.30510566e-02 -7.66128719e-01 -4.58011106e-02  4.33013380e-01
  -1.40359268e-01  9.17436182e-02  4.89348799e-01  1.50584772e-01
   5.37076116e-01 -3.86741936e-01 -4.37373817e-01 -4.13653165e-01
   1.40496776e-01  1.41714498e-01 -3.49972397e-01  3.77698362e-01
  -5.37763000e-01  9.41156968e-02 -4.70534265e-01 -3.66434276e-01
  -1.11177772e-01  7.49363005e-02  5.31098604e-01 -5.11847854e-01
   6.96885049e-01  4.72414941e-01 -1.39119714e-01  1.00930691e-01]
 [-1.02656558e-01 -1.24448873e-01  7.14953616e-02 -1.06484368e-01
  -1.29400313e-01 -4.54124480e-01 -4.82795298e-01 -2.00586364e-01
  -5.04639465e-03  3.68166082e-02  3.99323672e-01 -2.31542215e-01
   8.70997459e-02 -1.90455556e-01 -1.15367077e-01 -3.41185093e-01
  -6.05294406e-02  1.16912961e-01 -1.55899718e-01 -2.01049168e-02
  -1.05188854e-01 -8.32725987e-02  3.68075669e-01 -4.79649991e-01
   2.20984966e-01 -4.78603214e-01  6.17191374e-01 -1.97204575e-01
   1.76843852e-01  4.31290567e-01  4.00308669e-02  4.41203266e-02]
 [-5.59878498e-02  1.23060608e+00  8.62359166e-01  2.35809579e-01
   6.87147751e-02  1.11228295e-01 -5.05957723e-01 -7.10006833e-01
  -5.51933162e-02 -1.20732665e-01 -2.86779195e-01 -5.29527962e-01
  -1.16549110e+00 -4.61541787e-02  5.47849536e-01  4.18999940e-01
   7.45987967e-02 -2.92131081e-02 -4.14619781e-03 -3.72817248e-01
   1.91703096e-01  5.83806708e-02  1.34629011e+00  1.35074541e-01
   4.42697972e-01 -8.37062001e-01  1.92020044e-01  6.00706875e-01
  -9.18089926e-01 -5.68352640e-01 -7.32631460e-02 -7.59924576e-02]
 [-1.09442092e-01  1.17404103e+00  1.32857406e+00  2.23827749e-01
  -1.20498955e-01  3.68145704e-01 -3.03911656e-01 -7.27350414e-01
   1.06864475e-01  5.10996580e-02 -8.93139899e-01 -4.35808033e-01
  -1.30898857e+00  2.38776207e-01  5.18302858e-01  6.90981686e-01
   1.25800550e-01 -1.02645077e-01 -4.92366031e-02 -8.78100932e-01
   3.19106936e-01 -3.61073874e-02  1.35709250e+00  5.60747027e-01
   3.96534622e-01 -7.29812145e-01 -4.61328775e-01  9.55064356e-01
  -1.40416431e+00 -1.06269932e+00 -6.85452148e-02 -1.33683607e-01]
 [-2.63264403e-02  1.08139813e+00  1.17469466e+00  1.13197148e+00
  -1.44158117e-02  1.32161283e+00  4.33471441e-01 -7.04880297e-01
  -1.43329576e-01  1.10324323e-02 -1.16076899e+00  1.37577906e-01
  -1.37411928e+00  1.01572084e+00  1.09369385e+00  6.78060472e-01
   1.23680597e-02  3.38655829e-01  5.36341012e-01 -9.82826293e-01
   1.01694798e+00 -3.40292193e-02  1.27788842e+00  1.33299661e+00
   8.95487726e-01 -6.54125154e-01 -6.72451138e-01  8.10797274e-01
  -1.20757675e+00 -1.37405443e+00 -7.20912591e-02  1.78845506e-02]
 [ 2.05921475e-02  2.37886578e-01  1.26404047e+00  1.01251662e+00
  -4.35261615e-03  1.12632692e+00  1.97385919e+00  1.09340727e-01
  -3.52167487e-02  1.04447275e-01 -1.37551963e+00  1.25597596e+00
  -7.21736550e-01  1.43969691e+00  6.81197703e-01  9.98985112e-01
   3.31768915e-02  3.25013280e-01  2.53371662e-03 -1.03010547e+00
   2.92902440e-01  3.61632481e-02  6.58201516e-01  1.70311570e+00
   3.89565229e-01  4.35945272e-01 -3.21570456e-01  5.14921010e-01
  -1.41718984e+00 -1.40067816e+00 -3.47081153e-03 -1.27678826e-01]
 [ 1.12954848e-01 -9.74996090e-01  8.35514486e-01 -3.62846315e-01
  -1.10215396e-02 -4.67692882e-01  2.25493431e+00  1.36325526e+00
   1.28635913e-01 -4.62005436e-02 -1.08295941e+00  1.82738256e+00
   1.08425748e+00  2.10564397e-03  2.31712148e-01  6.95762932e-01
  -1.08247250e-02 -2.50543207e-01 -8.95342827e-01 -6.28290594e-01
  -1.16240466e+00 -7.26934373e-02 -9.80217218e-01  5.28934419e-01
  -5.68665147e-01  1.14017189e+00  2.52026170e-01 -2.57908702e-01
   5.12651861e-01 -6.35770142e-01  6.10224577e-03  1.37438565e-01]
 [ 1.31047800e-01 -1.62741661e-01  1.34600055e+00 -6.03935421e-01
   1.37904078e-01 -6.54175818e-01  2.13189101e+00  9.80975211e-01
  -9.52335224e-02  1.02198094e-01 -1.09526205e+00  1.98813677e+00
   9.90704179e-01  1.09573886e-01 -3.45235646e-01  1.04968810e+00
   1.82570834e-02 -7.63578653e-01 -1.17848897e+00 -1.30431736e+00
  -8.77748072e-01  6.85694441e-02 -4.50003862e-01  7.98763156e-01
  -6.72438025e-01  1.24126256e+00 -1.26822367e-02  5.97774267e-01
  -2.89358884e-01 -1.01569867e+00 -1.13489993e-01 -2.85606701e-02]
 [-3.83263603e-02  9.35622394e-01  1.88240433e+00 -3.96789402e-01
  -4.12046313e-02 -1.60888687e-01  1.08198559e+00 -4.55628753e-01
   1.22443564e-01 -9.85155255e-02 -4.70690310e-01  1.73513162e+00
  -2.31606111e-01  9.35182810e-01 -1.40909135e+00  1.14941823e+00
   1.70868896e-02 -1.03229475e+00 -1.00086045e+00 -1.53439975e+00
  -2.18306422e-01 -1.39448464e-01  9.25600410e-01  1.43178010e+00
  -3.20025444e-01  1.03912675e+00  1.81574479e-01  1.00714993e+00
  -1.24767232e+00 -1.06959224e+00 -3.03232409e-02 -1.42335325e-01]
 [-1.32167622e-01  3.93560618e-01  2.98128724e-01 -1.81753904e-01
   1.23209544e-01  7.43647888e-02 -2.70801932e-01 -3.48862946e-01
  -6.79036528e-02  7.99905583e-02  6.08588040e-01  4.26425785e-02
   6.55488297e-02 -3.62525940e-01 -7.87255108e-01  1.35405347e-01
  -6.79840520e-02 -1.65973753e-01 -2.18057916e-01  1.98731590e-02
  -5.86992539e-02 -1.10950455e-01  2.84228712e-01  4.14310023e-02
   1.56020582e-01  4.75534201e-02 -1.37035936e-01  1.74158409e-01
  -3.38184744e-01 -1.56931058e-01  5.74515983e-02  2.14418862e-02]
 [-1.28289670e-01  3.26112568e-01 -8.74034882e-01  2.17136800e-01
   6.61702678e-02  3.97535563e-01 -6.63201392e-01 -4.69356447e-01
   1.12396844e-01  3.89905013e-02  5.63207865e-01 -8.76253128e-01
  -4.76877570e-01 -3.05375189e-01  2.53173023e-01 -5.93387306e-01
   7.43925199e-02  6.32516563e-01  7.20093608e-01  1.01839435e+00
   5.04347682e-01  1.29593015e-01 -7.98134357e-02  4.85085472e-02
   2.36620918e-01 -5.75270236e-01 -3.40443015e-01 -1.27728999e-01
  -2.55229026e-01  1.72555998e-01 -1.20307542e-01 -1.20565221e-02]
 [-8.19292814e-02  6.08562589e-01 -8.75124037e-01  3.97427499e-01
   2.58928686e-02  6.25235021e-01 -7.08780289e-01 -4.89957124e-01
   1.03000306e-01 -6.51575550e-02  3.12643826e-01 -8.28025520e-01
  -5.96238852e-01 -7.30720535e-02  5.89560390e-01 -6.12646103e-01
   8.49285349e-02  7.65456498e-01  7.36060560e-01  8.12964618e-01
   5.60609043e-01 -3.12891044e-02  1.98077247e-01  5.20377494e-02
   5.17605126e-01 -4.45979923e-01 -7.63455331e-02 -1.91229388e-01
  -2.88060158e-01  1.17866151e-01  8.70160684e-02 -9.87917781e-02]
 [ 6.77623879e-03  5.57845712e-01 -3.12723786e-01  9.20514226e-01
   4.75092568e-02  8.65078092e-01 -5.38204432e-01 -7.75519192e-01
  -2.99508572e-02 -7.51161352e-02  3.63986611e-01 -7.29441106e-01
  -7.30389833e-01  5.87104917e-01  6.93484962e-01 -5.73850811e-01
   5.69697954e-02  9.34281528e-01  9.32563722e-01  5.76162696e-01
   9.07025635e-01  1.27704397e-01  7.72291839e-01  3.92466486e-01
   8.14665258e-01 -6.40589535e-01  6.92574680e-01 -5.04860580e-01
  -2.71588057e-01  1.09201148e-01 -6.09485582e-02 -2.83735991e-03]
 [ 1.04607731e-01  6.25101686e-01  2.85991192e-01  9.48744416e-01
   6.45448044e-02  7.17104673e-01 -3.81362468e-01 -1.17639995e+00
   1.11289760e-02  1.33097634e-01  4.86551166e-01 -4.97256935e-01
  -7.36544609e-01  1.23157918e+00  8.30812514e-01 -6.70981765e-01
  -1.01871369e-02  9.22954917e-01  7.64134288e-01  1.28199965e-01
   1.01151466e+00  1.33894250e-01  1.36904454e+00  1.34317899e+00
   1.06148422e+00 -9.52968359e-01  8.62816572e-01 -9.46259141e-01
  -4.05155867e-01 -4.21023704e-02  8.03882033e-02  1.16284788e-02]
 [-1.76750422e-02  2.50090480e-01  1.51994035e-01  6.83509350e-01
  -1.46234736e-01  2.42704853e-01 -1.22197688e-01 -5.32751143e-01
  -1.18476450e-01  1.36755090e-02  2.99283534e-01 -4.38785732e-01
  -3.23978484e-01  7.64409542e-01  5.10541856e-01 -5.79880297e-01
   1.18348509e-01  4.86794144e-01  4.65362191e-01  4.06437404e-02
   5.01597643e-01 -4.39361967e-02  6.83670819e-01  6.07724786e-01
   6.43273413e-01 -5.33376396e-01  6.30617321e-01 -4.34604287e-01
  -1.87408999e-01 -4.62131016e-02  7.52447993e-02 -6.60950318e-02]
 [-7.75649101e-02 -5.62295914e-01 -4.74434376e-01 -2.80136347e-01
  -7.41436630e-02 -4.14512664e-01 -2.56353617e-01  1.87705204e-01
   9.66345370e-02  1.05403826e-01  4.74382758e-01 -2.97019422e-01
   3.52959514e-01 -3.25059682e-01 -1.47544786e-01 -5.60241401e-01
   1.35275275e-01  3.22391182e-01 -2.03303271e-03  4.32339132e-01
  -3.02205235e-01 -9.27513987e-02 -4.62851197e-01 -4.20166284e-01
  -2.23300345e-02 -3.03227872e-01  5.69301426e-01 -5.70456028e-01
   4.32166427e-01  6.40760720e-01 -9.58340913e-02  3.35238874e-03]
 [ 2.19117701e-02 -1.07631326e+00 -6.37400270e-01 -1.74923703e-01
   9.06972364e-02 -7.26985693e-01 -3.43624473e-01  4.10413235e-01
   9.23968330e-02 -7.05706626e-02  1.21679413e+00 -5.23562469e-02
   8.06385458e-01 -5.19052923e-01 -5.25846303e-01 -1.05770791e+00
   1.49803516e-02  4.41095144e-01 -4.42156225e-01  8.41113746e-01
  -4.31460589e-01 -9.58994403e-02 -4.05705005e-01 -4.67819631e-01
  -6.12135082e-02 -1.64582551e-01  1.31542778e+00 -1.18649364e+00
   1.05615866e+00  9.84711647e-01  5.55955293e-03  1.90193057e-02]
 [-4.37533110e-02 -6.24032319e-01 -6.12339020e-01  4.67360556e-01
   9.50413570e-02 -3.90647858e-01 -5.67160308e-01 -1.89085022e-01
  -9.11402479e-02 -1.74964510e-03  1.41170979e+00 -5.21066666e-01
   1.79876104e-01  2.48392835e-01  2.03132570e-01 -1.45073915e+00
   5.66325188e-02  6.06560469e-01  2.58057892e-01  9.08566892e-01
   2.30090499e-01 -4.05528117e-05  2.29933724e-01 -2.88144320e-01
   5.58371067e-01 -5.64344227e-01  1.90304852e+00 -1.60872996e+00
   8.88917983e-01  1.25624645e+00 -1.23179249e-01  7.42243305e-02]
 [ 9.89939831e-03  2.56922185e-01 -1.27870023e-01  6.72829509e-01
  -8.94264579e-02 -1.72030613e-01 -8.38831961e-01 -9.41670418e-01
  -1.96004361e-02  8.97106603e-02  1.41510785e+00 -6.72584414e-01
  -2.89428443e-01  6.88088655e-01  4.07195151e-01 -1.19388986e+00
   1.12667337e-01  8.73349011e-01  4.82267410e-01  6.27049625e-01
   5.42846739e-01  6.10730499e-02  1.06885827e+00 -1.62589222e-01
   9.94418681e-01 -9.10313010e-01  1.71787739e+00 -1.31111884e+00
   4.39008176e-01  9.77132916e-01 -5.82994893e-04  4.81259972e-02]
 [-1.41189545e-01  4.93239969e-01  4.27328765e-01  8.89059842e-01
   1.10930756e-01  2.61165231e-01 -7.65438735e-01 -1.07154953e+00
  -8.40982944e-02  3.26444618e-02  4.32154477e-01 -5.01214325e-01
  -8.06529760e-01  1.10963809e+00  5.39410830e-01 -5.48637331e-01
   2.69821845e-04  5.33361912e-01  3.78461808e-01 -9.49735418e-02
   8.51949513e-01 -1.46090865e-01  1.36290705e+00  7.23825097e-01
   9.76693451e-01 -1.02434468e+00  1.12919009e+00 -4.01612878e-01
  -8.05164576e-01 -2.99913943e-01 -4.79074158e-02 -2.58835424e-02]
 [-6.28967658e-02  5.17360628e-01  9.39637661e-01  1.45576656e+00
   3.87869496e-03  1.02798069e+00  5.19108653e-01 -9.09888983e-01
   6.45815656e-02 -1.16346136e-01 -6.32580101e-01  1.46459937e-01
  -9.36498463e-01  1.62578940e+00  7.28862166e-01  3.01582545e-01
   1.13871016e-01  3.52756351e-01  4.61821020e-01 -8.37256730e-01
   1.05213487e+00 -8.11554715e-02  1.12469649e+00  1.46997452e+00
   9.01434720e-01 -5.86258709e-01  5.39006710e-01  2.44599320e-02
  -1.55458939e+00 -1.52323544e+00 -7.40552247e-02  5.16603887e-02]
 [ 4.03659157e-02  2.16678441e-01  1.14561450e+00  1.17929411e+00
   1.03382945e-01  8.24043810e-01  1.60460079e+00 -3.22930336e-01
   1.38415799e-01  1.24032758e-01 -1.02625287e+00  1.11620080e+00
  -5.54595888e-01  1.67397475e+00  8.55633736e-01  6.54118478e-01
   3.61153558e-02  3.96981627e-01  1.26067966e-01 -1.24711215e+00
   6.79898679e-01  9.95830745e-02  5.90504169e-01  1.92001927e+00
   5.14174938e-01 -1.52309507e-01  3.21925461e-01 -3.90161902e-01
  -1.27041590e+00 -1.57103050e+00 -1.39434636e-01  1.00177854e-01]
 [-1.46306187e-01 -6.00321591e-02  1.14058673e+00 -2.55144954e-01
   2.60374248e-02 -4.29076403e-01  1.73852026e+00  6.19817495e-01
   5.07325716e-02 -1.18612148e-01 -6.91029847e-01  1.38282609e+00
   6.44640267e-01  7.11138904e-01  1.57202497e-01  5.14362872e-01
  -2.77401283e-02 -2.99723297e-01 -6.30529702e-01 -1.05564833e+00
  -5.09187996e-01 -4.60997671e-02  2.48170234e-02  1.17556334e+00
  -4.07258570e-01  5.19507706e-01  7.87504852e-01 -8.38025510e-02
  -1.31549999e-01 -8.30974460e-01 -1.18803889e-01  3.17860879e-02]
 [-1.03049643e-01  5.28316140e-01  1.51156080e+00 -5.42446256e-01
   3.69163789e-02 -6.35116816e-01  1.29609907e+00  2.04599038e-01
  -1.31575018e-01  5.01859225e-02 -4.89762932e-01  1.31999195e+00
   3.34010184e-01  4.54143673e-01 -7.76416779e-01  7.81717837e-01
  -1.08458996e-01 -8.95974994e-01 -7.64443398e-01 -1.49354708e+00
  -3.38128239e-01  5.57461791e-02  2.81013429e-01  1.08799005e+00
  -5.83474159e-01  6.29940629e-01  4.81615156e-01  4.54200894e-01
  -6.63015604e-01 -1.03547192e+00  7.84390718e-02 -1.13456480e-01]
 [ 4.58843149e-02  4.91372138e-01  7.58032501e-01  5.78329623e-01
  -1.22492097e-01  3.94991100e-01 -1.56643875e-02 -8.83806586e-01
   2.06032693e-02 -2.04246826e-02  5.68817973e-01  2.15793818e-01
  -4.25398618e-01  8.06840122e-01 -3.08638990e-01  2.77931035e-01
  -4.07743640e-02  1.33374915e-01  2.00396523e-01 -5.77542841e-01
   8.30489099e-01  1.02693714e-01  9.62599158e-01  9.34253573e-01
   7.07168877e-01 -2.60908693e-01  8.08818638e-01  3.19781639e-02
  -5.08675635e-01 -4.07373995e-01 -6.34216666e-02 -8.68836790e-02]
 [ 7.41665810e-02  4.67780441e-01 -7.45491028e-01  8.03679824e-01
   5.04595228e-02  8.96569908e-01 -6.23901427e-01 -6.14479005e-01
  -3.95822227e-02 -6.37098849e-02  8.17792952e-01 -9.23146725e-01
  -6.11492336e-01  5.21834433e-01  4.39510614e-01 -9.95166302e-01
  -1.29568800e-01  1.11352074e+00  9.05484438e-01  1.09635365e+00
   9.48730528e-01 -1.13463007e-01  4.95050937e-01  7.01826334e-01
   8.41575265e-01 -6.38964891e-01  5.86939514e-01 -7.85520852e-01
  -1.52685881e-01  4.32031780e-01  3.05572636e-02 -6.73122332e-02]
 [-1.35282263e-01  3.65671396e-01 -1.12583113e+00  5.33143938e-01
   9.98212546e-02  6.02926314e-01 -3.63677144e-01 -4.25949067e-01
   6.55482113e-02 -1.18147835e-01  7.22887754e-01 -7.03176558e-01
  -3.08782876e-01  2.52925813e-01  6.62739694e-01 -1.13481534e+00
   3.32257673e-02  1.03454673e+00  7.63382375e-01  1.13620317e+00
   6.01669669e-01  1.89840682e-02  1.09677143e-01  3.28337193e-01
   6.92178190e-01 -4.50605422e-01  4.33766127e-01 -1.09701002e+00
   4.34579290e-02  4.85454053e-01 -7.50741959e-02 -1.14172272e-01]
 [-1.33003399e-01  1.25281274e-01 -8.14597964e-01  6.54645979e-01
  -1.15383230e-01  3.23677808e-01 -1.28236145e-01 -4.65214252e-01
  -3.73857617e-02  9.27344710e-02  8.52557182e-01 -5.47800303e-01
  -7.23915696e-02  3.64167243e-01  5.82415521e-01 -1.28405988e+00
  -4.83490750e-02  1.08355832e+00  7.90631533e-01  1.23128378e+00
   5.69991946e-01 -9.99200791e-02  1.50338918e-01  5.88710248e-01
   6.21932685e-01 -5.57350278e-01  1.27431202e+00 -1.29137647e+00
   3.69130373e-01  6.77857101e-01 -1.44908950e-01  7.06638163e-03]
 [-7.50340000e-02  1.87204331e-01  1.52704701e-01  8.09809864e-01
   1.12770431e-01  3.86186332e-01 -2.35906616e-01 -6.52606130e-01
  -3.45254391e-02  4.58113700e-02  9.02794361e-01 -2.50215739e-01
  -3.26318979e-01  1.12789536e+00  6.97186351e-01 -1.23154783e+00
   7.27917701e-02  1.14464319e+00  6.69708848e-01  5.58052421e-01
   8.57682705e-01 -1.37528718e-01  1.02694595e+00  9.88157630e-01
   9.94435966e-01 -5.43222010e-01  1.56677234e+00 -1.46617496e+00
  -3.10610738e-02  2.28889108e-01 -1.08897217e-01  1.25709474e-02]
 [-2.06544995e-04  4.97998893e-01  8.29495668e-01  1.11730254e+00
   1.07108817e-01  5.27422190e-01 -1.92318633e-01 -1.23200238e+00
   6.99457573e-03 -1.29067987e-01  4.84066755e-01 -2.85600662e-01
  -7.23378658e-01  1.70584023e+00  7.14579225e-01 -1.06415117e+00
   1.19573018e-02  1.03764510e+00  7.43635058e-01 -4.05069530e-01
   9.23816979e-01  1.16095811e-01  1.69994509e+00  1.60557950e+00
   1.11835146e+00 -8.38020086e-01  1.47950327e+00 -1.20178819e+00
  -4.11472380e-01 -5.95804811e-01  1.25016540e-01  9.12110806e-02]
 [-1.67734325e-02  1.94135442e-01  3.94103110e-01  3.35967541e-01
   1.34718150e-01  1.22959681e-01  7.00099990e-02 -4.93670583e-01
   4.14406415e-04  1.10000357e-01  1.35195524e-01 -2.71325886e-01
  -1.68013021e-01  9.02844787e-01  3.84862840e-01 -3.73558342e-01
   5.23610413e-02  5.12376666e-01  2.84209371e-01 -1.46209180e-01
   3.33035320e-01 -4.84055541e-02  6.05064809e-01  5.88653266e-01
   4.08814043e-01 -5.32810748e-01  8.69532168e-01 -6.16134703e-01
  -2.54431039e-01 -2.14958176e-01  8.01713169e-02  2.37640738e-03]
 [ 1.31153107e-01 -7.78734446e-01 -5.25439203e-01 -1.29576072e-01
  -3.41064110e-02 -2.30341509e-01 -3.79120409e-01  3.13048571e-01
  -1.16619088e-01 -1.20705053e-01  7.93983340e-01 -4.37657297e-01
   5.95394194e-01 -3.49391997e-01 -9.61041451e-02 -5.99665165e-01
   3.87296379e-02  6.04440570e-01  4.57001999e-02  7.20213294e-01
  -2.23534614e-01 -8.07180777e-02 -5.12926519e-01 -3.40647429e-01
  -1.05499953e-01 -3.61748338e-01  6.23793542e-01 -7.40036726e-01
   7.17571437e-01  6.22103095e-01 -1.55354291e-02  1.32164747e-01]
 [-1.39928252e-01 -1.21917570e+00 -9.06598449e-01 -1.75875440e-01
   7.11173043e-02 -7.93346941e-01 -4.42308784e-01  3.37831080e-01
   1.21030927e-01 -1.21347718e-02  1.48203361e+00 -3.74706566e-01
   9.23668325e-01 -4.92049277e-01 -4.14101064e-01 -1.27845657e+00
  -1.04029253e-01  8.70015562e-01 -2.15745315e-01  1.11580837e+00
  -3.22310835e-01  3.91532667e-02 -6.73421502e-01 -4.64645684e-01
   3.02407872e-02 -4.80561972e-01  1.56578898e+00 -1.60860908e+00
   1.38431227e+00  1.14507723e+00 -9.61924344e-02 -3.86576429e-02]
 [ 3.20392847e-02 -9.08355713e-01 -7.38391697e-01  2.52562165e-01
  -1.12919196e-01 -5.80999792e-01 -2.62654334e-01 -1.89965397e-01
   1.12793609e-01 -2.42032260e-02  1.73266518e+00 -4.95172530e-01
   6.91075385e-01  1.91106811e-01  1.44155264e-01 -1.96802747e+00
   8.62186998e-02  9.81872201e-01 -2.38779448e-02  1.18678081e+00
  -1.32758498e-01 -1.01359673e-02  8.44084918e-02 -1.74269080e-02
   5.56280911e-01 -5.59953392e-01  2.35649705e+00 -2.15467048e+00
   1.40680659e+00  1.37182462e+00 -1.07529260e-01  4.38314378e-02]
 [-3.00566871e-02 -6.48272991e-01 -8.69304657e-01  7.25806653e-01
   1.66460089e-02 -2.27365911e-01 -9.05525386e-01 -7.93906093e-01
  -1.31504089e-01 -9.72792134e-03  1.88207579e+00 -5.38975418e-01
   5.74172772e-02  6.38351321e-01  4.39772516e-01 -1.71836877e+00
   5.66333346e-02  1.00979257e+00  6.21515632e-01  1.13428366e+00
   6.26391113e-01  1.20271146e-01  6.18643522e-01 -4.06372339e-01
   9.43681896e-01 -9.48720157e-01  2.52973390e+00 -2.12346387e+00
   1.41492534e+00  1.66724145e+00  6.98534176e-02  1.13748804e-01]
 [ 9.15114656e-02 -6.55783653e-01 -8.25991631e-01  1.07169819e+00
   8.29050988e-02  1.00886375e-01 -7.21149266e-01 -7.69404709e-01
  -9.35652032e-02  7.76189715e-02  1.47749305e+00 -6.39262378e-01
  -2.10588112e-01  9.66752410e-01  7.87769020e-01 -1.29498255e+00
  -8.70775729e-02  9.70342278e-01  5.94435513e-01  1.06014812e+00
   8.40739429e-01 -6.03844598e-02  7.42644191e-01 -6.44409447e-05
   1.04788363e+00 -7.68853188e-01  2.24971128e+00 -1.72757995e+00
   7.87560701e-01  1.37339103e+00 -1.08560726e-01  3.93087119e-02]
 [-9.07495152e-03 -2.72434831e-01 -5.80108404e-01  1.43402421e+00
  -1.14951454e-01  7.88967252e-01 -2.61666954e-01 -5.27958095e-01
  -8.17099772e-03  7.01257065e-02  6.21812999e-01 -2.13394463e-01
  -3.41455698e-01  1.27181816e+00  1.17112768e+00 -1.03045809e+00
   4.85118367e-02  1.06812000e+00  6.44351900e-01  7.16718137e-01
   9.32559907e-01  9.07846540e-02  7.50464082e-01  6.28900588e-01
   1.07281864e+00 -9.33601558e-01  1.63009870e+00 -1.39424896e+00
  -7.18198195e-02  4.57581818e-01  6.08514510e-02 -9.89796668e-02]
 [ 8.66649002e-02  7.34599590e-01 -3.99847984e-01  1.27921617e+00
   8.11765194e-02  1.33649242e+00  6.81804657e-01 -7.61523426e-01
   7.17979372e-02  3.93588841e-02 -4.02543634e-01 -5.32552600e-01
  -6.44275308e-01  1.29535055e+00  1.54804468e+00 -8.59979451e-01
   5.49559407e-02  1.36361516e+00  1.25924492e+00  4.90595341e-01
   1.12458086e+00 -9.93415415e-02  6.07997358e-01  1.55763805e+00
   8.51477087e-01 -8.14160585e-01  6.07335985e-01 -1.20447350e+00
  -4.97308046e-01 -7.09289849e-01 -1.14999458e-01 -8.09007362e-02]
 [ 2.93539139e-03  1.06093538e+00  5.20805120e-01  4.29430783e-01
  -1.44232437e-01  7.54698277e-01  9.10909712e-01 -6.01431310e-01
  -1.40923306e-01 -4.12388816e-02 -7.42000997e-01 -2.72797011e-02
  -6.88352346e-01  9.62731957e-01  9.63485897e-01  3.37564312e-02
  -4.28097621e-02  5.97528160e-01  8.08841765e-01 -3.44038635e-01
   5.37746012e-01  7.96079189e-02  7.85388649e-01  1.54499102e+00
   3.43479931e-01 -2.34042242e-01  2.84354016e-02 -2.87631333e-01
  -8.25239301e-01 -9.44335520e-01 -1.13294318e-01 -1.40465230e-01]
 [ 2.66582109e-02  1.17449141e+00  5.80590010e-01  3.78671944e-01
  -3.53486612e-02  6.02553666e-01  4.88176614e-01 -6.17807746e-01
   1.16243102e-01  1.72093809e-02 -5.41248202e-01  2.16747761e-01
  -6.47434473e-01  6.93881571e-01  3.67160410e-01  1.93295047e-01
  -1.34140864e-01  3.86034489e-01  5.64962745e-01 -5.77241302e-01
   4.83971506e-01 -1.18764602e-01  5.34899652e-01  1.35307801e+00
   1.54223353e-01  6.89565763e-02 -4.66222018e-02  4.14493650e-01
  -8.33218455e-01 -8.89497042e-01  8.87697339e-02 -1.23167440e-01]
 [ 8.63548219e-02  9.43399131e-01 -2.48416841e-01  8.25189829e-01
   1.08367637e-01  1.37237298e+00  1.55799150e-01 -6.28127933e-01
   1.09065764e-01  1.97384246e-02  1.34973647e-02 -4.90823328e-01
  -8.41236889e-01  6.02443933e-01  8.81944656e-01 -5.24481058e-01
   1.08809322e-01  9.03649926e-01  1.00533462e+00  3.04034561e-01
   9.92558122e-01  9.49949250e-02  5.83833158e-01  1.12032628e+00
   8.59692931e-01 -4.95819330e-01 -2.78640717e-01 -2.47664437e-01
  -8.80159199e-01 -3.14253151e-01  1.76728982e-02 -8.23964551e-03]
 [-1.36729524e-01  6.01890087e-01 -7.59059310e-01  6.35951400e-01
   1.08773105e-01  9.53034997e-01 -5.42306341e-02 -4.56852645e-01
   3.09943780e-02  1.71373226e-02  1.23704337e-01 -2.79323816e-01
  -4.29504633e-01  4.69630063e-01  9.18123960e-01 -7.72915423e-01
   1.20189831e-01  1.16551411e+00  9.30996776e-01  9.29930151e-01
   7.09093809e-01 -3.62681821e-02  3.74780297e-01  8.29547703e-01
   8.42906356e-01 -2.40892038e-01  2.07907379e-01 -8.63125682e-01
  -4.20772463e-01  1.02830410e-01  9.95244235e-02 -5.47473207e-02]
 [ 1.34766370e-01  5.47323711e-02 -3.84888411e-01  5.59183657e-01
   3.96733135e-02  5.02302885e-01  3.59815389e-01 -1.28394186e-01
  -1.03636056e-01 -8.02966282e-02  4.76245850e-01 -1.44095883e-01
  -2.52546102e-01  5.19203663e-01  4.17335123e-01 -9.43367481e-01
   1.26812741e-01  7.46021271e-01  5.17549336e-01  8.06022346e-01
   3.64913493e-01  7.87740014e-03  4.30962116e-01  7.53492236e-01
   6.22462094e-01 -1.14539862e-01  1.08524525e+00 -9.92447317e-01
   1.29754961e-01  5.30336440e-01  4.67523374e-02 -7.13342652e-02]
 [-9.94673297e-02 -5.05099595e-02  2.89924145e-01  5.45574844e-01
  -7.67867938e-02  1.32079452e-01  3.21553618e-01 -4.95627433e-01
   3.95155475e-02  8.94149244e-02  7.67133355e-01 -7.48058707e-02
  -9.72242132e-02  8.43772709e-01  4.00612414e-01 -1.18541658e+00
  -1.08779825e-01  7.65543342e-01  3.70475113e-01  5.27896166e-01
   5.34112334e-01 -7.81954825e-02  7.20324159e-01  1.09223843e+00
   7.65160143e-01 -4.75894600e-01  1.98157251e+00 -1.39064705e+00
