Weights for layer dense: [[-6.37283847e-02  1.04785115e-02 -2.68020444e-02 -1.74970627e-02]
 [-6.52417913e-02 -3.86671163e-02 -7.90491700e-03 -1.82930306e-02]
 [-5.71601018e-02 -5.42667061e-02  3.33021507e-02  4.21600938e-02]
 [ 5.24571687e-02 -6.34394959e-02 -5.67448884e-03  1.16700530e-02]
 [-3.84653807e-02  8.68480504e-02  5.31452298e-02 -2.49498188e-02]
 [-7.07426295e-02  6.08188510e-02 -1.60205588e-02  1.46729201e-02]
 [-6.47217482e-02 -7.83783644e-02  2.24753395e-02  7.43457079e-02]
 [-5.81085682e-04 -1.80251971e-02  2.70551667e-02 -5.11430241e-02]
 [-3.51133719e-02  2.46274546e-02 -6.97199106e-02 -7.66288266e-02]
 [-7.03835487e-03 -5.14111519e-02 -8.35565478e-02 -3.80917974e-02]
 [-8.55366737e-02  3.20722461e-02 -6.25737309e-02  3.36357057e-02]
 [-5.12003899e-03  6.51718080e-02  5.03543168e-02  7.70058632e-02]
 [-2.33672038e-02  6.99937716e-02  2.33100280e-02  7.20454603e-02]
 [ 2.16192100e-02  4.37946431e-02  1.33107798e-02 -8.17675814e-02]
 [-6.93001300e-02  6.00069575e-02  1.41747831e-03 -7.02294633e-02]
 [-7.38061294e-02 -5.86585049e-03  5.42326830e-02 -8.40929523e-02]
 [-2.49528363e-02  9.06082243e-03 -7.50941187e-02  7.59599358e-03]
 [-1.19799376e-02  5.37107736e-02  4.67337072e-02  3.90252918e-02]
 [-4.82689142e-02  7.44601935e-02 -7.43611157e-03 -3.78435813e-02]
 [ 6.59221411e-02  7.48409629e-02 -2.08948776e-02  3.49519551e-02]
 [-5.68080097e-02 -4.42178547e-03  6.72916770e-02 -5.16161993e-02]
 [ 5.52588403e-02  3.26544717e-02 -6.05985522e-04  1.97861567e-02]
 [-7.93407261e-02 -6.44573271e-02 -5.47447056e-02 -6.01894110e-02]
 [ 1.88162625e-02  2.24498287e-02 -5.84121421e-02  8.71045291e-02]
 [ 2.83740535e-02 -6.21868744e-02  9.97388363e-03  2.03021243e-02]
 [ 2.13041827e-02  8.38837326e-02 -7.86104947e-02  4.16534543e-02]
 [ 3.64521891e-02 -4.96066287e-02  5.31719774e-02 -3.02088484e-02]
 [-8.33426565e-02 -7.90316761e-02  4.31924462e-02  6.30414635e-02]
 [ 6.96649849e-02 -7.28871748e-02 -3.85717303e-03  5.71316481e-03]
 [-7.60522559e-02  8.41067135e-02 -8.19522142e-03  5.24381101e-02]
 [ 4.61754054e-02  4.56394404e-02 -5.16695827e-02 -1.86269432e-02]
 [-7.47933462e-02 -1.63711533e-02  8.71977955e-02  7.72392899e-02]
 [-2.35245619e-02 -1.02363236e-01  3.85099724e-02 -4.00729254e-02]
 [-3.37621495e-02 -5.81265278e-02  3.42363082e-02  1.04013324e-01]
 [-3.13574858e-02 -4.95980214e-03 -5.25664017e-02  1.57464042e-01]
 [ 7.51615595e-03  5.41061461e-02 -8.39434341e-02  4.18291315e-02]
 [-7.96452165e-03  6.27110898e-02 -1.85824081e-01  1.21741064e-01]
 [ 1.00745127e-01  3.69793251e-02 -1.04640327e-01  1.16439506e-01]
 [ 1.54601336e-01 -8.92450754e-03 -2.14617252e-01  3.40794712e-01]
 [ 2.08637267e-01 -5.58737740e-02 -3.19147736e-01  3.79766822e-01]
 [ 2.11396620e-01  7.19004422e-02 -2.73590297e-01  3.48777920e-01]
 [ 2.34656170e-01 -2.80497354e-02 -2.26541027e-01  3.37951064e-01]
 [ 3.02551627e-01  9.15944725e-02 -1.19045824e-01  1.65044844e-01]
 [ 1.45417809e-01  5.78640960e-02 -1.63147017e-01  2.57235438e-01]
 [ 2.16115654e-01  1.21224232e-01 -5.56199700e-02  2.55108267e-01]
 [ 2.86780119e-01  3.61100286e-02 -6.24753609e-02  2.70040840e-01]
 [ 3.29126209e-01 -3.29242609e-02 -1.45312905e-01  3.27289283e-01]
 [ 1.87209904e-01  1.25462756e-01 -1.67774037e-01  2.12200731e-01]
 [ 4.96622659e-02  3.62412259e-02 -1.29614860e-01  2.12784797e-01]
 [ 2.32748259e-02  5.11394255e-02 -1.53089380e-02  1.91509262e-01]
 [ 1.75312273e-02 -1.03567645e-01 -3.97504345e-02  7.23050386e-02]
 [ 2.25177482e-02 -9.24919620e-02 -1.89146735e-02 -4.60110009e-02]
 [ 2.81702802e-02 -5.96347079e-02 -7.27200136e-02 -2.46045291e-02]
 [-7.27748573e-02  2.75013596e-02 -5.49682677e-02 -2.37480998e-02]
 [-4.38042954e-02 -1.06434077e-02  7.25390762e-02 -3.73133011e-02]
 [-6.46938309e-02  4.97191548e-02 -2.28854120e-02 -7.26017207e-02]
 [ 4.05556709e-03 -8.50931928e-02  7.04326481e-03 -6.82759881e-02]
 [ 8.66230577e-02 -3.04358453e-02  8.20832253e-02  7.93014318e-02]
 [ 1.57525130e-02  1.83505611e-03 -7.10735619e-02 -3.55120338e-02]
 [-7.46448664e-03  5.70602305e-02  2.21024873e-03  8.46570879e-02]
 [ 1.30470634e-01  2.69647576e-02 -1.09287482e-02  1.79678500e-01]
 [ 1.99397514e-03 -4.37455922e-02 -2.12151464e-02  1.94332153e-01]
 [-5.54872379e-02  6.26178458e-02 -1.29405707e-01  9.52535048e-02]
 [ 9.63148773e-02  1.53714642e-01 -1.35173827e-01  3.32629740e-01]
 [ 1.12048432e-01  9.23482254e-02 -3.27579707e-01  2.52920598e-01]
 [ 2.80545473e-01 -6.86271340e-02 -2.86627680e-01  4.19519097e-01]
 [ 4.37748134e-01 -1.75375089e-01 -5.31081915e-01  5.64472198e-01]
 [ 4.79046494e-01  8.48923028e-02 -5.39032519e-01  7.36549556e-01]
 [ 5.26798189e-01  1.62719451e-02 -6.94136143e-01  7.73500443e-01]
 [ 6.40047431e-01  2.74685305e-02 -6.44909084e-01  9.67572093e-01]
 [ 7.44438946e-01  2.89648306e-02 -5.18677831e-01  8.59130561e-01]
 [ 6.56345904e-01  2.18213052e-01 -4.12872463e-01  9.37205493e-01]
 [ 7.47043669e-01  1.39958516e-01 -3.89980853e-01  9.05382156e-01]
 [ 8.64788890e-01  2.26263210e-01 -5.03546774e-01  1.23882282e+00]
 [ 9.48707581e-01  3.83049160e-01 -4.15111214e-01  1.46106374e+00]
 [ 1.02621508e+00  2.97599852e-01 -4.46429014e-01  1.23826075e+00]
 [ 8.64896715e-01  3.88136536e-01 -3.86210799e-01  1.20846903e+00]
 [ 7.31691539e-01  2.12303832e-01 -2.56952524e-01  8.81709099e-01]
 [ 4.40809429e-01  1.00819416e-01 -2.80567020e-01  6.39285922e-01]
 [ 1.44192845e-01 -2.63454323e-03 -9.69914570e-02  3.79560947e-01]
 [ 1.00905813e-01 -5.56134768e-02 -3.09809092e-02  1.92469284e-01]
 [ 6.11645449e-03 -7.18168244e-02  3.25972475e-02 -2.63502635e-02]
 [ 1.32192001e-02 -5.73882386e-02  5.63683361e-02  4.75106388e-02]
 [-5.08491658e-02  6.63207471e-02  7.87632167e-02 -8.53164196e-02]
 [-2.29221955e-02  8.39678049e-02 -8.41148198e-03 -2.77732313e-02]
 [ 2.53031403e-02  3.21730226e-02  2.23208219e-02 -6.28894567e-02]
 [-6.57052919e-02 -2.31467392e-02  4.41329889e-02  1.47915604e-02]
 [ 8.80862772e-02 -2.88034175e-02  4.47536856e-02  1.24254949e-01]
 [ 8.38612318e-02 -6.52441308e-02 -2.18891799e-02  5.06056622e-02]
 [ 1.68449394e-02 -4.87837382e-02 -4.01576087e-02  1.71325635e-02]
 [ 3.30645554e-02 -1.31599486e-01 -2.46305674e-01 -3.65967788e-02]
 [-6.87480792e-02 -2.28787549e-02 -3.29334885e-01  1.41795412e-01]
 [ 1.47761121e-01 -4.88341004e-02 -4.30502087e-01  3.23170722e-01]
 [ 2.07339659e-01 -1.26912847e-01 -5.32791793e-01  3.20715636e-01]
 [ 1.58177331e-01 -2.23712459e-01 -5.42172551e-01  2.90101439e-01]
 [ 1.75397113e-01 -3.56163532e-01 -6.22270703e-01  3.39866906e-01]
 [ 4.49848808e-02 -3.38493913e-01 -6.59893513e-01  4.46561038e-01]
 [ 1.06396750e-01 -2.27962002e-01 -8.63877118e-01  3.71095151e-01]
 [ 2.29747504e-01 -3.12936008e-01 -6.86022699e-01  4.07038540e-01]
 [ 1.61036238e-01 -3.62306237e-01 -6.18406236e-01  4.05482441e-01]
 [ 1.97294131e-01 -3.64347667e-01 -4.47749853e-01  4.26779121e-01]
 [ 2.82908201e-01 -2.41439074e-01 -2.68633157e-01  5.05899847e-01]
 [ 4.76544023e-01 -1.22904405e-01 -1.28990620e-01  6.02243960e-01]
 [ 5.24956942e-01 -2.18589813e-03 -1.37786314e-01  5.53183615e-01]
 [ 5.64983249e-01 -1.64726049e-01 -1.26574457e-01  3.72046232e-01]
 [ 6.21259987e-01 -1.06773444e-01 -1.19953699e-01  2.55197078e-01]
 [ 5.85817516e-01 -4.00476605e-02 -1.70814116e-02  3.08925748e-01]
 [ 5.61042190e-01  5.55716082e-02 -5.11551760e-02  1.73537508e-01]
 [ 3.57861310e-01 -5.88034242e-02 -3.84494700e-02  1.76695928e-01]
 [ 1.08941779e-01 -2.33359095e-02 -2.52153650e-02  1.98399425e-01]
 [ 6.10142052e-02 -7.05197528e-02  7.26348609e-02  8.86050388e-02]
 [-4.65788804e-02  8.25565457e-02  3.02336439e-02  3.19582820e-02]
 [-4.00700755e-02  6.98167086e-02 -4.48976643e-02 -1.36713460e-02]
 [-1.77105311e-02  5.30472808e-02  7.93624222e-02  8.97497162e-02]
 [ 1.69733260e-02 -5.66374995e-02  7.45778009e-02  8.47602449e-03]
 [ 7.02945068e-02 -3.59751880e-02  1.37513177e-02  6.58555254e-02]
 [ 1.91263080e-01 -1.32262990e-01 -1.75293982e-02  7.68524408e-02]
 [ 1.74081355e-01 -2.68223464e-01  5.99292330e-02 -5.56168333e-02]
 [ 3.24411094e-02 -1.48088455e-01 -2.03235850e-01  6.56911433e-02]
 [ 4.95421328e-02 -1.79960743e-01 -1.02682851e-01  7.56545514e-02]
 [ 5.18497452e-02 -2.03255102e-01 -1.75276622e-01  1.24573767e-01]
 [ 1.14834476e-02 -3.04662734e-01 -2.18086749e-01 -2.16974691e-02]
 [ 2.20663622e-02 -1.98622927e-01 -4.10558730e-01 -3.02191284e-02]
 [-1.45727322e-01 -2.19953805e-01 -1.40746117e-01 -6.79425597e-02]
 [-2.11676881e-01 -1.97641715e-01 -2.31493816e-01 -2.99567804e-02]
 [-1.96674317e-01 -1.71673074e-01 -3.45789433e-01 -5.44010289e-02]
 [-1.02740131e-01 -1.72761410e-01 -4.03406769e-01 -3.63821760e-02]
 [-9.20055881e-02 -1.22495681e-01 -4.04928505e-01 -9.77405440e-03]
 [-8.87999013e-02 -1.38410658e-01 -3.51222038e-01  1.49880812e-01]
 [-1.09783327e-02  1.50232045e-02 -2.09865391e-01  1.20407537e-01]
 [ 5.12436256e-02 -1.38472700e-02 -9.93258283e-02  4.26109694e-02]
 [ 1.35690728e-02  5.56083173e-02 -7.78209344e-02  6.15396351e-02]
 [-2.48734616e-02  1.81766655e-02  1.01632170e-01 -4.20278758e-02]
 [-1.72469262e-02  1.18902653e-01  1.72603592e-01  1.12334035e-01]
 [ 1.49845809e-01  1.08409084e-01  1.89586818e-01  2.61125844e-02]
 [ 2.67399967e-01  2.15963423e-01  1.28790662e-01 -4.27469388e-02]
 [ 4.51077104e-01  2.56193932e-02  1.74797580e-01  1.45295709e-01]
 [ 4.31234002e-01 -1.01865970e-01 -3.52988653e-02  5.45794284e-03]
 [ 1.00715347e-01  4.81264517e-02  1.20799907e-01 -3.59574929e-02]
 [-6.55671731e-02 -2.86365282e-02  3.95744108e-02  6.71019182e-02]
 [-4.56837974e-02 -6.06514513e-02 -7.37506598e-02  3.81766409e-02]
 [ 5.06890565e-02  6.98734820e-03 -8.07187185e-02 -3.17220464e-02]
 [-4.03767638e-02 -1.24583937e-01 -5.46336025e-02 -5.28801046e-02]
 [ 1.20812863e-01 -1.08966552e-01 -7.45610148e-02  5.06313704e-02]
 [ 1.97210506e-01 -3.35441411e-01 -7.47052431e-02  1.99948043e-01]
 [ 1.91092297e-01 -2.82841653e-01  4.88505401e-02 -2.51104916e-03]
 [ 9.70131997e-03 -2.45850414e-01  3.29592042e-02  5.23837283e-02]
 [ 1.13417439e-01 -2.47727752e-01 -4.19069966e-03  4.42832038e-02]
 [ 7.75798783e-02 -2.27870569e-01 -8.96429569e-02  2.41780672e-02]
 [ 1.17752403e-01 -1.72409400e-01 -1.22298889e-01 -1.70082618e-02]
 [ 4.72931862e-02 -1.27087280e-01 -9.24957320e-02  3.98956500e-02]
 [-1.91689152e-02 -9.06533897e-02 -9.15918723e-02 -2.26411596e-01]
 [-4.95650917e-02 -1.48197897e-02 -1.16570443e-01 -1.60434470e-01]
 [-8.35284814e-02 -1.19385622e-01 -1.89942315e-01 -1.39363319e-01]
 [-9.11410078e-02 -6.20851964e-02 -2.23425552e-01 -8.22961256e-02]
 [-5.22947051e-02 -1.30555406e-02 -2.56134391e-01 -8.90645608e-02]
 [-4.65666205e-02  5.87676615e-02 -2.76250839e-01  7.23494291e-02]
 [ 1.22718113e-02  1.07209124e-01 -2.03362197e-01  9.57685634e-02]
 [-2.05877032e-02  1.00281872e-01 -1.73485354e-01  9.52521786e-02]
 [-5.22438101e-02  3.87075469e-02 -4.20490839e-02  1.41734108e-01]
 [ 2.22903229e-02  1.24263361e-01 -3.17263156e-02  7.16179311e-02]
 [-6.71947002e-02  2.09346190e-01  1.52096957e-01  1.40024140e-01]
 [ 4.87956889e-02  3.33991736e-01  2.68936664e-01  6.10767864e-02]
 [ 3.53580773e-01  3.59836131e-01  3.34887981e-01  1.41585544e-01]
 [ 6.29575670e-01  2.17976674e-01  3.62752050e-01 -2.22444683e-02]
 [ 6.53028011e-01  1.65267527e-01  1.34933323e-01 -1.76456511e-01]
 [ 2.73395360e-01  9.99671519e-02  1.66170504e-02 -5.61946183e-02]
 [-3.77864689e-02  3.64944302e-02  5.04734926e-02  6.52623028e-02]
 [ 5.90580106e-02 -5.82098663e-02  3.29288617e-02 -2.79143229e-02]
 [-3.30613777e-02  5.58712222e-02  6.22505769e-02  6.36798330e-04]
 [ 5.30589484e-02  8.35668016e-03 -5.65992594e-02  3.68560143e-02]
 [ 4.01058584e-01 -2.97303170e-01 -5.48879616e-02  3.68900597e-02]
 [ 3.28786314e-01 -2.83633292e-01  1.99000798e-02  1.77320868e-01]
 [ 7.51636997e-02 -3.70526820e-01  1.10187188e-01 -1.42617509e-01]
 [ 2.54299603e-02 -2.44240224e-01 -1.38702700e-02  2.11785119e-02]
 [-8.65606815e-02 -2.21335202e-01 -3.01061217e-02 -3.55205797e-02]
 [-4.53805886e-02 -1.08784109e-01 -3.53237800e-02 -1.00448571e-01]
 [ 5.05964421e-02 -1.55763224e-01 -6.83877021e-02 -1.39840677e-01]
 [ 5.80309629e-02 -1.39578402e-01 -7.43404329e-02 -9.08395424e-02]
 [-6.16115183e-02 -5.03287762e-02 -2.94666016e-03 -1.42015353e-01]
 [ 2.95534497e-03 -9.14458558e-02 -1.44668937e-01 -2.06161082e-01]
 [-9.66082513e-02 -1.04656197e-01 -5.31161353e-02 -2.55986065e-01]
 [-2.87517384e-02 -7.28964657e-02  1.58484820e-02 -2.47743204e-01]
 [-6.01609871e-02 -1.12331100e-02  7.93402791e-02 -1.61234900e-01]
 [-2.90681217e-02 -5.73825911e-02  5.35199083e-02 -1.42331064e-01]
 [-6.61880895e-02 -6.38809949e-02  5.20300865e-02 -1.38853639e-01]
 [-3.59992720e-02 -1.67101845e-02  9.78110060e-02 -3.19214277e-02]
 [-4.00924981e-02  5.68840913e-02  4.00119424e-02 -1.62120201e-02]
 [ 6.83048507e-03  2.02652812e-02  1.36152627e-02  1.28132496e-02]
 [ 7.28899315e-02  7.05905259e-02  4.66214605e-02  1.21628754e-01]
 [ 1.12562954e-01  1.85914963e-01  9.51018408e-02  1.81502044e-01]
 [ 5.18313468e-01  4.63496506e-01  8.96839201e-02  1.01012640e-01]
 [ 7.94331431e-01  5.10394931e-01 -6.12597726e-02  6.71726167e-02]
 [ 7.72622049e-01  3.89756441e-01  9.49140489e-02  3.09358723e-02]
 [ 4.76864368e-01 -2.39879154e-02 -8.86114016e-02  2.96108015e-02]
 [ 1.42629012e-01  2.84621920e-02 -1.73378624e-02  9.82488766e-02]
 [-6.10153601e-02 -2.50973217e-02 -5.31337131e-03 -3.91752422e-02]
 [-6.98896572e-02  8.35856050e-02  1.23513959e-01  7.73891583e-02]
 [-8.40573385e-02  1.72837138e-01  2.87009239e-01 -6.13322407e-02]
 [ 2.02360868e-01 -1.59176275e-01  3.23280126e-01 -2.56294347e-02]
 [ 1.08928457e-01 -3.04897517e-01 -3.48428600e-02 -3.54122999e-03]
 [-2.66894139e-02 -3.19028795e-01 -2.40627099e-02 -1.30877942e-01]
 [-8.47602785e-02 -2.12967604e-01 -7.28117377e-02 -1.46328032e-01]
 [-1.99219082e-02 -1.05551653e-01 -5.39767854e-02 -1.24880448e-01]
 [ 5.81789687e-02 -3.33811305e-02 -9.00474638e-02 -1.45492747e-01]
 [ 4.78583993e-03 -7.56288096e-02 -9.22174007e-03 -9.02919918e-02]
 [-2.48148087e-02 -8.39761347e-02 -9.08446983e-02 -1.60640374e-01]
 [-5.48369512e-02 -1.40351161e-01 -4.00073268e-02 -8.55227411e-02]
 [-9.20286402e-02 -1.17417574e-01  2.51162946e-02 -1.22234486e-01]
 [-1.46400452e-01 -1.23420745e-01  1.06271058e-01 -1.35192588e-01]
 [-2.06212420e-02 -1.10117897e-01  7.05892220e-02 -1.24450751e-01]
 [ 7.40617933e-03 -1.13899313e-01  1.87683582e-01 -8.99511501e-02]
 [-4.91776727e-02 -2.74131689e-02  6.51640445e-02 -9.73317474e-02]
 [-5.22148572e-02 -3.09707206e-02  1.05485402e-01 -1.23802405e-02]
 [-5.44596091e-02  2.41399519e-02  4.40941937e-03 -1.10767158e-02]
 [-4.44404259e-02  8.85948539e-03  5.31125441e-02 -1.70540716e-02]
 [-6.19112439e-02  7.35710412e-02  3.98423560e-02 -7.86992833e-02]
 [-3.79831158e-02  8.24571699e-02 -1.13232717e-01 -1.05080366e-01]
 [-4.59015891e-02  2.73598492e-01 -9.33158547e-02  9.62397009e-02]
 [ 3.26055586e-01  4.51096714e-01  2.05882713e-02  1.28007501e-01]
 [ 7.67379284e-01  5.29422820e-01 -1.05276890e-01  1.83835000e-01]
 [ 9.51458454e-01  3.79529148e-01 -1.65193919e-02  1.28522843e-01]
 [ 4.55763966e-01  8.54830444e-02 -8.01917017e-02 -4.52815043e-03]
 [ 1.61653966e-01  3.83537039e-02  4.75702100e-02  3.91441621e-02]
 [ 6.00698926e-02 -6.69563562e-02 -3.07204518e-02  8.15382004e-02]
 [-8.16652402e-02  2.32183695e-01  3.43411922e-01 -1.10908382e-01]
 [-2.68538475e-01  4.05061275e-01  6.03351235e-01 -2.15317056e-01]
 [ 6.09902255e-02  1.01590715e-01  4.35878903e-01 -1.68689892e-01]
 [ 7.50112459e-02 -3.00520688e-01  1.54939383e-01 -2.38456175e-01]
 [-2.79630944e-02 -2.42450386e-01 -4.06411141e-02 -2.83354521e-01]
 [-9.78309438e-02 -1.84034735e-01 -1.28778040e-01 -2.30954409e-01]
 [-5.77550121e-02  1.42596429e-02 -3.56477052e-02 -2.69086748e-01]
 [ 8.33626539e-02 -1.09470412e-02 -8.25396255e-02 -1.70794889e-01]
 [ 4.32050899e-02  3.70906703e-02  1.14818849e-02 -4.46817167e-02]
 [ 4.19148952e-02  4.38326895e-02  1.48881804e-02 -2.35039126e-02]
 [-9.51472223e-02 -1.20627560e-01  9.46511179e-02 -3.29510048e-02]
 [-5.25478721e-02 -1.10262502e-02  1.09061085e-01 -1.93107538e-02]
 [-1.61194295e-01 -2.14392375e-02  1.82560831e-01  6.24072179e-02]
 [-1.73642024e-01 -1.47022009e-01  6.69204295e-02 -4.82533053e-02]
 [-1.47412732e-01 -1.60953045e-01  7.02509955e-02 -6.76227510e-02]
 [-1.79985002e-01 -1.64054751e-01  2.49141678e-02 -3.68565209e-02]
 [-9.01383460e-02 -8.68165717e-02  1.67382304e-02  4.40042540e-02]
 [-1.24698937e-01  1.63136404e-02  8.61195549e-02 -2.18725987e-02]
 [-7.33606517e-02 -3.79528031e-02 -4.79668677e-02 -6.82568029e-02]
 [ 1.72684602e-02  8.63785017e-03 -3.18929739e-03 -4.43614367e-03]
 [-6.45873621e-02 -3.81306298e-02 -2.20346376e-02 -8.34130198e-02]
 [ 9.34286639e-02  1.72907397e-01  3.46564427e-02 -3.76830995e-03]
 [ 2.81179756e-01  4.14727449e-01 -8.09247717e-02  9.82846618e-02]
 [ 6.99856937e-01  5.84840000e-01 -8.88616517e-02  5.67459911e-02]
 [ 1.02018535e+00  3.86503041e-01 -6.14768341e-02  1.13343909e-01]
 [ 4.50910211e-01  1.09093875e-01 -1.96685847e-02  7.27718621e-02]
 [-3.85105684e-02  3.83160822e-02 -4.32194844e-02  2.19410076e-03]
 [ 5.79694659e-02  3.57019678e-02 -3.21786515e-02  5.16816862e-02]
 [-1.68629423e-01  3.60588402e-01  4.55851555e-01 -5.05084656e-02]
 [-4.62456226e-01  8.08700383e-01  6.95305824e-01 -2.06812710e-01]
 [-8.90174955e-02  1.71149716e-01  3.93293798e-01 -2.22623661e-01]
 [-5.92209306e-03 -1.54164881e-01  3.70726697e-02 -2.68598586e-01]
 [-6.98817223e-02 -1.16411559e-01 -3.78737897e-02 -2.02524096e-01]
 [-2.18324400e-02 -1.16041727e-01 -1.31344303e-01 -1.62677854e-01]
 [ 3.33241895e-02  2.69693043e-02 -5.16042784e-02 -1.32517725e-01]
 [ 8.67254585e-02  1.82733640e-01 -6.74489141e-02 -3.52405272e-02]
 [ 6.05573095e-02  1.09769017e-01  5.98081760e-02  7.95077756e-02]
 [ 3.88031639e-02  1.63337976e-01  1.19325221e-01  1.23231262e-01]
 [-9.61227156e-03  1.15958482e-01  1.44252017e-01  1.09136514e-01]
 [-9.95942280e-02  7.37234429e-02  2.09273323e-01  4.54333238e-02]
 [-1.78731203e-01 -7.50264898e-02  1.46055907e-01  3.59163620e-02]
 [-3.65811914e-01 -1.59340248e-01  1.22138791e-01 -9.62698534e-02]
 [-2.45173663e-01 -1.87970638e-01 -4.91794869e-02 -1.98068902e-01]
 [-2.84025788e-01 -3.26521546e-01 -1.85951628e-02 -1.96454361e-01]
 [-1.48696259e-01 -1.37129009e-01  1.19572170e-01 -1.29790291e-01]
 [-1.77965716e-01 -1.28060773e-01  5.40709570e-02 -2.63488553e-02]
 [-1.17460065e-01 -2.33796351e-02  2.30748821e-02 -7.69652501e-02]
 [-9.57456511e-03  1.64978877e-02  3.73787582e-02 -8.63098279e-02]
 [ 2.66887154e-03  4.85673882e-02  3.61916311e-02 -2.82610245e-02]
 [ 3.58187221e-02  9.51310173e-02 -2.10251287e-02 -1.26918957e-01]
 [ 6.07331246e-02  3.14734936e-01  2.72893906e-02  8.40188488e-02]
 [ 4.74888921e-01  5.11750221e-01 -1.53176710e-01  3.00335616e-01]
 [ 8.79790127e-01  1.71141580e-01 -1.16630174e-01  2.03215048e-01]
 [ 4.25027877e-01  1.03329584e-01 -1.58054382e-01 -6.87286491e-03]
 [ 1.66495107e-02 -1.11315176e-02  4.04801918e-04  2.17627902e-02]
 [ 2.19603814e-02  4.54013143e-03  9.59216990e-03 -6.42254017e-05]
 [-2.21519589e-01  4.05014575e-01  3.38974804e-01 -8.12896714e-02]
 [-2.68520296e-01  5.89593172e-01  6.43880248e-01 -3.82053494e-01]
 [-1.11255720e-01  5.16967028e-02  2.47730628e-01 -1.64264619e-01]
 [-9.02305320e-02 -1.33035302e-01 -1.22638516e-01 -4.26708348e-02]
 [-1.44206911e-01 -1.12789974e-01  5.22427913e-03 -9.83311608e-02]
 [ 8.46635550e-03  1.07893437e-01 -1.14838146e-02 -9.73745659e-02]
 [ 6.52184710e-02  2.42647544e-01  5.90937845e-02  9.54966247e-02]
 [ 4.16927971e-02  3.80230784e-01  5.73446006e-02  1.09131269e-01]
 [ 9.25557613e-02  4.28075284e-01  1.69267625e-01  8.04340541e-02]
 [ 7.85390437e-02  4.21692908e-01  2.34842524e-01  1.23887323e-01]
 [ 3.76172923e-02  3.74323100e-01  6.73573315e-02  8.32360312e-02]
 [-2.54346076e-02  3.49112391e-01  2.30130732e-01  1.53924868e-01]
 [-1.40862778e-01 -1.03990594e-02  1.81359872e-01  3.58043388e-02]
 [-2.12988719e-01 -2.05393247e-02 -5.60072847e-02 -1.39229015e-01]
 [-2.12038144e-01 -1.87266216e-01 -3.79584148e-03 -3.84164602e-01]
 [-2.12501228e-01 -3.66963863e-01  4.47649136e-02 -1.99472114e-01]
 [-2.34931797e-01 -2.37382114e-01  7.67451003e-02 -1.75899044e-01]
 [-1.33345932e-01 -1.38764262e-01  6.83250353e-02 -1.20421976e-01]
 [-1.26618624e-01 -2.51296442e-04  6.83385581e-02 -1.41879648e-01]
 [-1.27404898e-01  2.19955947e-02  8.91685635e-02 -7.91285783e-02]
 [-6.55826405e-02  1.12575829e-01  1.41780168e-01  3.50408675e-03]
 [-1.13073543e-01  1.03104822e-01  1.53668076e-01  2.81305239e-02]
 [-1.64179936e-01  3.10493082e-01 -2.08564196e-03  2.31530637e-01]
 [ 3.06532025e-01  1.87313676e-01 -4.86146696e-02  3.50810379e-01]
 [ 6.48480058e-01 -5.45533933e-02 -1.51176706e-01  6.30873218e-02]
 [ 2.79259861e-01 -1.10614158e-01 -6.64884076e-02  1.50795653e-01]
 [ 8.93267244e-03  6.23967089e-02  5.64922988e-02 -3.46964225e-02]
 [ 7.02055125e-03  9.82244760e-02 -1.61666498e-02 -8.53266791e-02]
 [-1.01629011e-01  2.10834980e-01  3.32038283e-01 -5.95257878e-02]
 [-3.34304065e-01  4.49461907e-01  4.56547886e-01 -3.08473617e-01]
 [-2.09000260e-01  1.49563253e-01  2.20049098e-01 -1.34261519e-01]
 [-1.62182987e-01 -7.37386718e-02  6.98494017e-02 -1.31100565e-01]
 [-4.21648510e-02  9.07790381e-03  1.04597829e-01 -1.08046532e-01]
 [ 5.31978160e-03  3.40783119e-01  4.25896794e-02 -1.27998795e-02]
 [ 1.59198776e-01  5.62108755e-01  1.40349925e-01  8.94409791e-02]
 [ 9.73482132e-02  4.71567512e-01  1.55719906e-01  1.58413976e-01]
 [ 1.36784673e-01  4.75017667e-01  2.34397084e-01  1.60084009e-01]
 [ 1.81550011e-01  5.02740741e-01  1.31820336e-01  1.23660550e-01]
 [ 2.20868811e-01  4.71589535e-01  2.33195975e-01  7.79794976e-02]
 [ 2.90700495e-01  4.86948490e-01  9.47355106e-02  7.99203888e-02]
 [ 2.03949943e-01  1.86676696e-01 -4.89934068e-03  1.43104838e-02]
 [-1.56346951e-02  4.85645011e-02 -9.20559047e-04 -3.07612717e-01]
 [-1.06806777e-01 -3.42361964e-02  7.31592206e-03 -5.01025856e-01]
 [-2.09778640e-03 -2.19806939e-01  1.41817480e-01 -2.87634075e-01]
 [ 2.74374243e-02 -2.10154325e-01  7.48712942e-02 -1.82410210e-01]
 [-1.04636505e-01 -1.19265079e-01  9.77722332e-02 -3.17651957e-01]
 [-1.47973165e-01  2.22035986e-03  4.14662287e-02 -8.98615047e-02]
 [-1.26181290e-01  1.73557363e-02  6.11770377e-02 -1.35402784e-01]
 [-2.13699862e-01  2.25488585e-03  2.70099312e-01  1.56115065e-03]
 [-2.84357935e-01  2.55193681e-01  2.68877298e-01 -6.56583831e-02]
 [-2.81617433e-01  3.09081107e-01 -6.77966094e-03  2.92876333e-01]
 [-1.81486711e-01  3.39401335e-01  7.82717392e-03  3.45862120e-01]
 [ 3.58683914e-01 -8.03783312e-02 -8.14920366e-02  7.26160705e-02]
 [ 1.22518197e-01 -2.22780034e-02 -1.12436451e-01  5.34298941e-02]
 [-7.25354180e-02  3.07664778e-02  2.29794960e-02  3.20465602e-02]
 [ 2.63417475e-02  6.28846660e-02  1.77625585e-02 -8.04122165e-03]
 [-8.71881470e-02  1.95749521e-01  2.12392062e-01 -1.35250509e-01]
 [-3.35888773e-01  4.58660156e-01  4.38055456e-01 -2.24943072e-01]
 [-2.45185167e-01  5.91922030e-02  2.60900289e-01 -3.15342061e-02]
 [-1.97331280e-01 -9.63311344e-02  2.65247047e-01 -1.22818440e-01]
 [-5.13084047e-02  5.65471165e-02  2.44092718e-01  6.02731928e-02]
 [ 2.06009641e-01  3.87411535e-01  2.45874107e-01  1.92494050e-01]
 [ 1.53619096e-01  4.67760533e-01  2.79104948e-01  1.21548966e-01]
 [ 1.94733232e-01  4.24728423e-01  1.94652885e-01  1.77966803e-01]
 [ 2.81432688e-01  3.66345674e-01  1.08733974e-01  1.76634878e-01]
 [ 2.92178452e-01  4.39951718e-01  5.02477549e-02  1.63347915e-01]
 [ 4.13666368e-01  4.39507395e-01 -3.02521070e-03  1.70058087e-01]
 [ 4.22298908e-01  4.60721672e-01 -1.65962130e-01  1.60447299e-01]
 [ 3.18737715e-01  2.40690008e-01 -2.65760213e-01 -3.96139733e-03]
 [ 9.59841907e-02  3.27676982e-01 -2.03209728e-01 -3.25562358e-01]
 [ 1.69249386e-01  1.31311178e-01  1.08908787e-02 -3.15594912e-01]
 [ 1.72431976e-01 -2.48945057e-02  1.15615912e-01 -2.33432338e-01]
 [ 6.14039823e-02 -7.24007040e-02  2.78765827e-01 -1.37639821e-01]
 [ 3.54302377e-02  5.10706101e-03  1.08154200e-01 -1.63871750e-01]
 [-1.49258167e-01 -7.78348371e-02  1.66573316e-01 -1.05650470e-01]
 [-1.79204166e-01 -6.03913218e-02  4.83438484e-02 -6.78656101e-02]
 [-1.62082255e-01  1.51971355e-01  2.48389304e-01  6.70849755e-02]
 [-1.14289239e-01  2.78977841e-01  2.70517737e-01  3.41945812e-02]
 [-1.71332106e-01  3.81490052e-01  6.60333186e-02  2.78208286e-01]
 [-1.48031339e-01  2.08788842e-01 -6.84141144e-02  3.75760615e-01]
 [ 2.51395069e-02 -1.43591315e-01  4.32890579e-02 -4.19675447e-02]
 [-5.30594997e-02  2.79743075e-02 -8.44578594e-02  3.02671995e-02]
 [-6.08346518e-03 -6.50814772e-02  1.49997110e-02 -1.06317893e-01]
 [ 2.71455608e-02 -1.59298852e-02 -8.79234746e-02  2.75114700e-02]
 [ 1.36024994e-03  1.22155540e-01  1.31824896e-01  2.41467971e-02]
 [-1.35982201e-01  3.08340341e-01  2.53807336e-01 -1.23647213e-01]
 [-1.07735239e-01 -6.70772865e-02  1.87604025e-01 -7.49032721e-02]
 [-6.43154234e-02 -1.57939211e-01  3.91036421e-01 -6.26415294e-03]
 [-5.31189144e-04  2.42992323e-02  2.58048326e-01  1.83379129e-01]
 [ 2.32284918e-01  3.34585756e-01  1.88569829e-01  2.36024395e-01]
 [ 2.02765927e-01  4.75335926e-01  1.90284654e-01  3.36654454e-01]
 [ 3.20540130e-01  2.60141462e-01  1.99900031e-01  2.33570978e-01]
 [ 2.29237199e-01  3.33123088e-01  1.45739079e-01  2.42537886e-01]
 [ 2.83682227e-01  2.78718621e-01  1.10407546e-01  3.13169777e-01]
 [ 4.50307041e-01  3.99236917e-01 -5.67988120e-03  1.57445133e-01]
 [ 3.80673319e-01  2.38939494e-01 -2.52242327e-01  8.35031644e-02]
 [ 2.65450984e-01  2.00033337e-01 -2.56146669e-01 -1.48934841e-01]
 [ 1.21875919e-01  3.15384209e-01 -4.41182926e-02 -2.38137037e-01]
 [ 1.80012986e-01  3.45060945e-01  1.14793979e-01 -1.90681785e-01]
 [ 2.51970351e-01  1.55884355e-01  1.39633730e-01 -9.09281522e-02]
 [ 2.67169058e-01  1.34054283e-02  1.77616224e-01 -2.79942211e-02]
 [ 9.98926163e-02  2.55245157e-02  2.46077448e-01 -5.99239022e-02]
 [ 3.57406847e-02  5.39625101e-02  2.03364566e-01 -7.73280933e-02]
 [-6.15778714e-02  8.18555206e-02  1.90080374e-01 -4.62427400e-02]
 [-4.25712280e-02  1.62493959e-01  1.32682472e-01  1.36187300e-01]
 [-2.96980832e-02  3.72459143e-01  1.00466006e-01  3.60766709e-01]
 [ 2.98623778e-02  3.80300373e-01 -3.45918536e-02  4.96844381e-01]
 [ 1.79810435e-01 -1.77251622e-02 -1.88297451e-01  4.80698138e-01]
 [-1.42650176e-02 -1.95306033e-01 -7.34417737e-02 -2.95363441e-02]
 [-1.76208779e-01 -3.37123945e-02  2.94386391e-02 -5.65055832e-02]
 [-2.38712840e-02  2.30537783e-02  2.67328862e-02  1.89137720e-02]
 [-3.05676013e-02  4.92164455e-02 -9.08013284e-02  3.18154111e-03]
 [ 2.66105998e-02  1.31942390e-04  4.83212695e-02 -7.44470879e-02]
 [-1.67755093e-02  1.27055034e-01  1.45605803e-01 -3.20985839e-02]
 [-3.79430540e-02  8.01768899e-03  1.17227048e-01  5.15079200e-02]
 [-2.78207771e-02 -1.90720797e-01  3.75710517e-01  8.74714702e-02]
 [-2.11013332e-02  4.54474688e-02  1.62505060e-01  2.04445899e-01]
 [ 1.78418368e-01  1.14216030e-01  2.53114998e-01  2.57904261e-01]
 [ 2.32221752e-01  2.42106080e-01  3.01684737e-01  4.33961660e-01]
 [ 1.35464892e-01  2.63604879e-01  2.03618124e-01  2.50175476e-01]
 [ 2.51621991e-01  1.85404852e-01  9.99649391e-02  3.27966303e-01]
 [ 1.84130058e-01  2.38303185e-01  1.26103600e-02  2.91997671e-01]
 [ 2.69736558e-01  1.48213387e-01 -1.96795210e-01  1.78446725e-01]
 [ 2.42385566e-01  1.13860466e-01 -1.35222897e-01  7.02781975e-03]
 [ 1.45532876e-01  2.79800147e-01 -2.09947452e-01 -1.06097780e-01]
 [ 1.68699399e-01  3.46063077e-01 -1.17499363e-02 -1.50857285e-01]
 [ 9.85792950e-02  2.32839212e-01  1.52961895e-01 -1.08549614e-02]
 [ 2.63612032e-01  8.01273584e-02  2.41025686e-01 -8.78396630e-02]
 [ 1.55149668e-01 -3.63202877e-02  2.52761513e-01 -9.07653291e-03]
 [ 1.17562108e-01 -1.25060109e-02  2.05654204e-01 -5.47183901e-02]
 [-5.80328964e-02 -9.07537267e-02  2.81151652e-01  3.05194873e-02]
 [-9.47592184e-02 -2.01453511e-02  1.20334335e-01  7.71747455e-02]
 [ 4.50202934e-02  4.27605323e-02  4.82321680e-02  1.73657209e-01]
 [ 7.11514950e-02  2.45243996e-01  1.34057015e-01  3.24913442e-01]
 [ 4.72264364e-02  2.06985801e-01 -8.70064646e-03  4.75375116e-01]
 [ 1.67038664e-01  1.12975217e-01 -1.85470670e-01  3.42292011e-01]
 [ 9.16131437e-02 -3.56879771e-01 -7.87815601e-02 -1.22042209e-01]
 [-2.93802440e-01 -7.99676925e-02 -7.79480115e-02 -1.94128454e-02]
 [ 6.09425316e-03 -2.90800091e-02 -3.18842754e-02  2.55277716e-02]
 [ 4.78855446e-02  5.03261387e-03 -2.98335925e-02 -7.36488104e-02]
 [ 2.15533730e-02  5.62809184e-02 -6.21781386e-02 -2.26981211e-02]
 [ 3.69324312e-02  6.58729579e-03  6.60853609e-02 -1.92434136e-02]
 [ 1.38417810e-01 -3.85505185e-02  8.25040787e-02  1.53427243e-01]
 [-1.82008803e-01  4.18039458e-03  7.85455033e-02  1.74952433e-01]
 [-1.45478904e-01 -8.86219461e-03  1.36855364e-01  4.17721242e-01]
 [-2.26315670e-02 -5.09483218e-02  2.36841246e-01  4.36693102e-01]
 [ 7.83179980e-03  1.62323028e-01  2.68461198e-01  4.58943933e-01]
 [ 3.98263633e-02  6.58914670e-02  1.82743594e-01  4.32754815e-01]
 [ 1.79670809e-03  6.99701384e-02  1.69663578e-01  3.11367363e-01]
 [ 3.29448208e-02  8.68748277e-02  2.90527977e-02  3.54109287e-01]
 [ 2.13122889e-01  6.78007379e-02 -7.12275952e-02  5.30386828e-02]
 [ 1.91030234e-01  1.25222564e-01 -8.77104402e-02 -1.87289752e-02]
 [ 1.35362223e-01  2.94184536e-01 -1.38919383e-01 -1.09849192e-01]
 [ 1.09592579e-01  3.77428710e-01 -3.52782048e-02 -8.86101276e-03]
 [ 8.26341286e-02  1.25932783e-01  1.54515237e-01  2.03668289e-02]
 [ 1.34317115e-01 -5.40679097e-02  1.88164920e-01 -9.83701199e-02]
 [ 2.00990602e-01 -5.49221449e-02  2.68312991e-01 -5.00338003e-02]
 [-3.30214612e-02 -1.85046811e-02  1.57485321e-01 -1.95666309e-02]
 [-7.25098252e-02 -1.49837941e-01  1.21203497e-01  5.27159572e-02]
 [-1.85314640e-02 -8.56703520e-02  1.02766879e-01  1.83128700e-01]
 [-9.55901458e-04  8.58988799e-03  1.17931664e-01  1.55070230e-01]
 [ 1.13952324e-01 -1.79338381e-02  1.34658709e-01  2.19856694e-01]
 [ 1.49354935e-01  1.68639317e-01  4.44871709e-02  1.44066066e-01]
 [ 1.11739293e-01 -1.52019281e-02 -2.42605180e-01  2.06938401e-01]
 [-1.61109697e-02 -3.58160555e-01 -2.96829760e-01  6.16854951e-02]
 [-1.70773312e-01 -1.26018539e-01 -1.35919645e-01 -7.00460896e-02]
 [-7.04861656e-02 -8.51922482e-02 -1.03372522e-01  7.18236864e-02]
 [-9.10810009e-02 -2.05027312e-02 -5.18582948e-02 -1.15233436e-02]
 [ 4.37839776e-02  9.09330919e-02  1.17653953e-02 -3.72597724e-02]
 [ 2.19018444e-01 -9.98722389e-03 -6.04513735e-02  7.60879144e-02]
 [ 2.30177477e-01 -2.40321815e-01 -1.10787235e-01 -9.96030420e-02]
 [-1.88479021e-01 -1.99177295e-01  5.51283434e-02  5.70104457e-02]
 [-3.16659689e-01 -7.71363601e-02 -1.74229257e-02  2.05905527e-01]
 [-2.52156466e-01 -1.01845995e-01  1.79723591e-01  2.64213294e-01]
 [-1.46000773e-01 -1.11056631e-03  1.92188516e-01  3.40181470e-01]
 [-7.18814731e-02  6.65438250e-02  2.76912570e-01  3.44475985e-01]
 [-5.37662394e-03 -5.12667280e-03  1.60500094e-01  4.06905681e-01]
 [-5.91874085e-02  1.79553777e-01  1.12729900e-01  3.98109645e-01]
 [ 1.05214283e-01  1.01894543e-01  5.22996970e-02  2.80811876e-01]
 [ 2.32015729e-01  2.00999022e-01  1.01512857e-01  9.74494815e-02]
 [ 1.04218654e-01  2.88933665e-01 -5.18809147e-02  1.33883163e-01]
 [ 3.59570421e-02  2.87794501e-01  1.09679051e-01  1.24305680e-01]
 [ 1.23238392e-01  9.97608230e-02  1.74519315e-01  3.55049819e-02]
 [ 1.32094681e-01 -1.08205844e-02  2.29854777e-01  1.94387734e-02]
 [-5.62041402e-02 -9.40295607e-02  2.32158735e-01 -1.01022236e-02]
 [-8.75482932e-02 -1.82506680e-01  1.08526491e-01  4.33714725e-02]
 [-1.58725474e-02 -1.11037850e-01  4.59435172e-02  1.77626804e-01]
 [-1.96854640e-02 -9.60306823e-02  1.25708461e-01  4.10539024e-02]
 [-2.05628928e-02 -7.72999674e-02  1.05384275e-01  1.20598726e-01]
 [ 8.06170255e-02 -8.48194212e-02  1.02858350e-01  1.32515341e-01]
 [ 1.76171362e-01  1.68843970e-01 -8.26850459e-02  1.02928549e-01]
 [ 1.92815978e-02 -1.47136211e-01 -3.14548969e-01  1.04212210e-01]
 [-4.38238420e-02 -4.40203696e-01 -5.12886047e-01  6.96304515e-02]
 [-2.37658769e-01 -1.03482768e-01 -2.90147632e-01 -4.33190586e-03]
 [-1.10792726e-01 -5.75051531e-02 -1.14055485e-01 -6.72371909e-02]
 [ 8.62199366e-02 -7.71783888e-02 -5.83654195e-02  5.65587580e-02]
 [ 5.06976023e-02 -5.80457691e-03  1.79167162e-03  5.14092594e-02]
 [ 3.38214219e-01 -1.12845935e-01  4.47975122e-04 -1.34977419e-02]
 [ 1.96133733e-01 -4.27976280e-01 -8.74241143e-02 -1.91300511e-01]
 [-2.10663140e-01 -1.49474531e-01 -2.17353255e-01 -1.22559004e-01]
 [-3.71442646e-01 -2.23557726e-01 -1.23861425e-01  2.53271498e-02]
 [-2.59355843e-01 -2.26591498e-01  1.51733616e-02  2.61204213e-01]
 [-2.42636859e-01 -1.63071066e-01  1.30379394e-01  1.71297640e-01]
 [-1.70608893e-01 -5.56563288e-02  8.75523537e-02  2.49950051e-01]
 [-7.49591216e-02  1.25390694e-01  5.09676803e-03  2.54877597e-01]
 [-1.20852850e-01  1.83944881e-01  9.25331041e-02  4.27578419e-01]
 [-3.81530747e-02  1.57360449e-01  1.54662982e-01  4.45784211e-01]
 [-9.61715207e-02  1.64838016e-01  2.16250136e-01  2.56702036e-01]
 [-2.21310034e-02  1.65473670e-01  2.47105688e-01  1.60337985e-01]
 [-1.99018884e-02  1.06967673e-01  1.34689838e-01  8.74880776e-02]
 [ 3.17915692e-03 -5.53703792e-02  2.07361341e-01  3.04921772e-02]
 [-7.01193511e-02 -2.13987663e-01  1.21367469e-01 -3.44188586e-02]
 [-6.26806840e-02 -2.27188498e-01 -2.44632326e-02 -5.53318299e-02]
 [ 2.76274718e-02 -1.59579247e-01 -4.84490618e-02 -1.15462928e-03]
 [ 3.02668922e-02 -1.56497195e-01 -9.46266577e-02  9.04261693e-02]
 [-6.34744205e-03 -9.88636613e-02 -5.58599904e-02 -1.62488483e-02]
 [ 1.13013409e-01 -1.28314734e-01 -1.08452715e-01  4.92332987e-02]
 [ 1.79360472e-02 -9.85287800e-02 -1.48389086e-01 -2.70598382e-02]
 [ 1.33983627e-01  1.68994535e-03 -3.35516274e-01 -1.37396827e-01]
 [-6.54141754e-02 -4.29718979e-02 -4.88417059e-01 -6.65378049e-02]
 [-1.76400453e-01 -3.19985271e-01 -3.18849355e-01  1.72004536e-01]
 [-2.25807756e-01 -2.10128143e-01 -1.64160997e-01 -5.49938940e-02]
 [-5.84529340e-02 -2.26041302e-02 -2.17276607e-02 -4.74095121e-02]
 [-3.38068046e-02 -1.33913020e-02 -7.87950233e-02  7.51149580e-02]
 [ 8.70419480e-03  1.76798683e-02 -6.44519040e-03  8.53910297e-02]
 [ 4.24263209e-01 -1.00000843e-01 -4.66905534e-02  1.93312064e-01]
 [ 1.89163938e-01 -4.85733718e-01 -2.64565855e-01 -1.20799273e-01]
 [-1.41626457e-02 -2.45789781e-01 -3.68596554e-01 -8.85195751e-03]
 [-1.38285413e-01 -1.78329155e-01 -1.90532804e-01 -7.32571706e-02]
 [-1.36144027e-01 -2.80593187e-01 -1.66629627e-01 -2.54962984e-02]
 [-1.76706538e-01 -1.24208368e-01 -1.07320182e-01  5.08018769e-02]
 [-1.20353281e-01  3.25811692e-02  3.05359568e-02  4.07506004e-02]
 [-1.19209811e-01  1.03915557e-01 -3.24822441e-02  1.93038464e-01]
 [-1.66980639e-01  6.43190965e-02 -2.18994226e-02  2.79904932e-01]
 [-1.48755819e-01  5.13874926e-02  2.06031650e-02  2.97690481e-01]
 [-1.83545455e-01 -4.58995178e-02  1.18383110e-01  1.81544140e-01]
 [-2.06217915e-01  6.01685746e-03  1.36360854e-01  6.93323016e-02]
 [-1.78207874e-01 -6.97958544e-02  2.52498239e-01  3.39133590e-02]
 [-7.27441683e-02 -1.48774236e-01  4.74213660e-02  5.46279699e-02]
 [-1.63281802e-02 -2.78920621e-01 -9.18858126e-02 -2.56842617e-02]
 [-2.10331418e-02 -2.37595409e-01 -1.02379590e-01 -2.24318705e-03]
 [ 1.16294593e-01 -1.48174122e-01 -7.66011626e-02  3.96320261e-02]
 [ 5.42855822e-03 -1.35996193e-01 -9.43340883e-02  6.88781515e-02]
 [-2.41945479e-02 -9.89362672e-02 -2.75683757e-02 -9.15007740e-02]
 [ 8.08569938e-02 -1.18801296e-01 -1.91152692e-01 -1.64707247e-02]
 [-2.73512006e-02 -2.02932447e-01 -4.00255263e-01 -1.15761697e-01]
 [ 3.41989473e-03 -1.34607032e-01 -3.99796158e-01  1.60284825e-02]
 [-2.23605230e-01 -3.05321574e-01 -4.37680483e-01  1.42949387e-01]
 [-2.05198571e-01 -4.54115778e-01 -3.02005470e-01  1.50544599e-01]
 [-1.63172502e-02 -1.53318286e-01 -2.00320840e-01  3.00453641e-02]
 [ 6.06495067e-02 -4.14632373e-02  3.63642834e-02 -1.63672268e-02]
 [-1.39964162e-03  6.25965074e-02 -2.08176840e-02 -4.84305583e-02]
 [-6.18415363e-02 -5.22077829e-02  6.77487701e-02  1.37011595e-02]
 [ 4.94560272e-01 -2.16619104e-01 -8.57857093e-02  1.55209318e-01]
 [ 3.31582129e-01 -3.57516706e-01 -1.52855501e-01 -2.17476502e-01]
 [ 7.38652572e-02 -4.22123998e-01 -4.05169606e-01 -1.58562243e-01]
 [ 6.49852827e-02 -1.70236081e-01 -3.03937823e-01 -1.20097157e-02]
 [ 1.27397984e-01 -1.30872801e-01 -3.17252070e-01 -6.27044886e-02]
 [ 3.23845781e-02 -1.26035199e-01 -2.55486399e-01 -2.74678431e-02]
 [-3.66463177e-02 -7.58611113e-02 -3.25525075e-01  7.97412470e-02]
 [-9.47983749e-03  6.14692830e-02 -2.26333708e-01  1.03311934e-01]
 [-2.10878532e-02  4.71175052e-02 -2.09047705e-01  1.66919217e-01]
 [-6.96880817e-02 -2.29354911e-02 -2.15208605e-01  2.68752635e-01]
 [-1.82826117e-01 -9.76629704e-02 -1.36769444e-01  1.95528999e-01]
 [-1.40482023e-01  8.10214691e-03 -3.02083157e-02  3.24793868e-02]
 [-1.07124351e-01 -4.79958355e-02  2.68577393e-02  1.87907413e-01]
 [ 2.65032500e-02  9.03254095e-03  4.12723124e-02  1.76638722e-01]
 [ 1.17283454e-02 -1.03634045e-01 -1.65652886e-01  8.91579315e-02]
 [ 1.31949544e-01 -3.43725197e-02 -1.42985910e-01  1.22077182e-01]
 [ 5.27721159e-02 -1.30432397e-01 -1.56942368e-01 -3.36793587e-02]
 [ 8.06683823e-02 -8.73083770e-02 -2.41119429e-01 -6.95034042e-02]
 [ 4.46569733e-02 -1.61506519e-01 -1.45252228e-01  7.89376497e-02]
 [-6.31861994e-03 -1.83300003e-01 -3.32985103e-01 -9.05540735e-02]
 [-3.57119590e-02 -9.02517289e-02 -4.01597738e-01 -2.91124731e-02]
 [-1.70617819e-01 -1.45461231e-01 -3.73037577e-01 -1.63929775e-01]
 [-3.29811603e-01 -4.51525003e-01 -3.77602279e-01  3.69446054e-02]
 [-1.85427949e-01 -4.16551292e-01 -1.36604026e-01  1.47826159e-02]
 [-3.29807326e-02 -2.23405175e-02  5.14114052e-02 -5.00224642e-02]
 [-1.03459015e-01  8.16627443e-02  6.76723123e-02 -1.12165213e-01]
 [ 1.09924972e-02 -1.01633370e-03 -8.36704075e-02 -2.17498317e-02]
 [ 3.50900218e-02  3.28977294e-02  6.33860305e-02  7.56511986e-02]
 [ 4.13450837e-01 -1.17118493e-01 -9.99752879e-02  3.62392068e-01]
 [ 2.99193978e-01 -4.73373264e-01 -1.65564060e-01 -1.17607191e-01]
 [ 5.89932837e-02 -4.00850326e-01 -4.67649311e-01 -5.45782000e-02]
 [ 1.35409534e-01 -2.42206931e-01 -5.00989556e-01 -3.17973457e-02]
 [ 2.74747219e-02 -1.17748536e-01 -4.31962430e-01 -1.31361663e-01]
 [ 8.35630670e-02  1.71421226e-02 -4.41293508e-01  2.64807362e-02]
 [ 3.22633469e-03  2.48024557e-02 -4.94880199e-01  2.22364701e-02]
 [-2.53038132e-03 -3.30488123e-02 -3.29610169e-01  6.32169172e-02]
 [-1.08748302e-03  6.05514757e-02 -4.19024020e-01  5.71031757e-02]
 [ 3.76836807e-02  9.50665399e-02 -2.75041252e-01  7.62957484e-02]
 [ 6.65577203e-02  1.50078550e-01 -2.14600727e-01  1.36607036e-01]
 [ 3.32423151e-02  5.81041984e-02 -1.36401877e-01  1.68529540e-01]
 [ 3.77700515e-02  1.39877439e-01 -2.30448507e-02  1.49912432e-01]
 [ 4.71947603e-02  5.82004972e-02 -1.15931109e-01  1.47768497e-01]
 [ 8.84482637e-02  5.70723712e-02 -3.87627892e-02  6.53178319e-02]
 [ 1.04625143e-01  3.55387740e-02 -1.26636788e-01  1.66197401e-02]
 [ 2.10900158e-02 -1.26659393e-01 -2.86083162e-01 -2.79032178e-02]
 [ 9.62925889e-03 -1.12296283e-01 -5.92389256e-02 -7.97596853e-03]
 [-5.87957464e-02 -1.14938170e-01 -1.81923211e-01 -4.87036519e-02]
 [-7.16415048e-02 -2.19278723e-01 -3.18578094e-01 -8.26074835e-03]
 [-1.29758507e-01 -1.15178443e-01 -3.25168878e-01 -1.98410694e-02]
 [-2.64434397e-01 -2.14947343e-01 -1.76389322e-01  1.99103411e-02]
 [-3.17431718e-01 -4.05843586e-01 -1.53293893e-01 -4.81784306e-02]
 [-1.31924704e-01 -2.49435887e-01 -1.01374567e-01 -2.46410538e-02]
 [ 4.97251526e-02 -1.41205356e-01 -2.99814921e-02  5.75395674e-02]
 [-3.08301970e-02 -7.69806802e-02  7.33387172e-02  1.88276246e-02]
 [-5.54252565e-02 -6.82443604e-02  3.31389308e-02 -5.10074422e-02]
 [ 4.58976328e-02 -8.42358097e-02 -7.60301575e-02  5.40289842e-02]
 [ 3.74770373e-01 -1.56924918e-01 -2.58163139e-02  2.04784855e-01]
 [ 2.77713567e-01 -3.03931445e-01 -2.10197419e-01  1.46754295e-01]
 [ 7.82194585e-02 -4.29450721e-01 -4.35343951e-01 -9.68586281e-02]
 [-7.28702247e-02 -2.01565593e-01 -3.43080789e-01 -8.44084024e-02]
 [-5.16217202e-02 -1.86681509e-01 -5.35296619e-01 -7.36064240e-02]
 [ 1.53459730e-02 -1.05247572e-01 -4.14216340e-01 -3.48745361e-02]
 [ 2.94084735e-02 -4.72891368e-02 -3.12257767e-01 -3.46091688e-02]
 [-5.67144081e-02 -4.87839095e-02 -2.49824002e-01 -5.49464580e-03]
 [ 5.27862459e-04  1.02302410e-01 -1.88361987e-01  4.36053947e-02]
 [-9.28750262e-03  7.71019533e-02 -2.31483802e-01  1.25460580e-01]
 [ 1.34305224e-01  1.12165317e-01 -1.52764633e-01  2.08440751e-01]
 [ 7.27075934e-02  9.56479609e-02 -1.58171505e-01  1.81714386e-01]
 [ 1.20471157e-01  1.68907210e-01 -9.09103751e-02  2.01073110e-01]
 [ 9.47285816e-02  1.38612509e-01 -9.02304202e-02  1.25031531e-01]
 [ 1.89786870e-02 -1.76447164e-02 -4.68535125e-02  1.63477555e-01]
 [ 2.48960871e-02 -4.14483771e-02 -3.57076377e-02  1.11520909e-01]
 [ 8.40087309e-02 -5.94069436e-02 -1.10534042e-01  4.11246829e-02]
 [ 8.06234479e-02 -7.72619322e-02 -5.74525520e-02 -1.02244645e-01]
 [-5.00435047e-02 -9.43360105e-02 -1.05922356e-01 -1.04135185e-01]
 [-1.40730932e-01 -1.43001869e-01 -9.90836620e-02 -9.64364111e-02]
 [-3.00543666e-01 -2.13858858e-01 -1.52895600e-01 -5.49743176e-02]
 [-1.75764024e-01 -2.56336600e-01 -2.07338288e-01  4.76285033e-02]
 [-2.33343139e-01 -4.37061250e-01  9.75081418e-03  1.15659155e-01]
 [-1.52775630e-01 -8.20987225e-02 -4.73695621e-02  1.04990132e-01]
 [-7.66876861e-02 -6.88483268e-02 -1.66938350e-01  3.90006751e-02]
 [-4.21532169e-02  6.68261647e-02 -6.00978285e-02  5.62853515e-02]
 [-9.49585587e-02  3.87606025e-03  1.50996223e-02  3.30289453e-02]
 [ 1.14532128e-01  6.66932389e-02 -6.76232055e-02 -6.25408813e-02]
 [ 3.23440969e-01 -1.96626171e-01 -1.51120156e-01  1.78957254e-01]
 [ 2.42660254e-01 -2.73266375e-01 -2.41679206e-01  2.66378552e-01]
 [ 2.04985991e-01 -3.53912562e-01 -2.70557314e-01 -3.21238935e-02]
 [-1.44784406e-01 -8.04357380e-02 -2.30307847e-01 -1.93347529e-01]
 [-1.08706042e-01 -1.75858721e-01 -2.80612230e-01 -1.20658621e-01]
 [-9.67654064e-02 -2.83974037e-02 -2.12321937e-01 -9.03676003e-02]
 [-3.82543355e-02 -1.12575576e-01 -9.47556943e-02  1.49667002e-02]
 [ 3.05418298e-02 -3.48817259e-02 -1.67334974e-01  5.33611001e-03]
 [ 4.10776995e-02  6.18782789e-02 -7.35263526e-02  4.00600359e-02]
 [ 5.85388914e-02  7.70659596e-02 -8.69682580e-02  7.75425434e-02]
 [ 1.16788141e-01  1.43570811e-01  1.31411329e-02  1.16637379e-01]
 [ 1.20270923e-01  2.09181249e-01 -1.17653608e-01  1.57934204e-01]
 [ 6.24328144e-02  1.59058005e-01 -1.38728432e-02  3.26858498e-02]
 [ 1.66246742e-02  1.25298664e-01 -5.59874251e-02  9.82693434e-02]
 [ 7.96046481e-02  7.07837790e-02 -6.59992695e-02  1.29020929e-01]
 [ 2.59112027e-02  4.08717096e-02 -6.00567386e-02  7.99512714e-02]
 [ 2.94129970e-03 -5.12193292e-02 -9.01838839e-02 -1.75942562e-03]
 [ 1.08423911e-01 -3.44511978e-02 -1.03706360e-01  5.30614071e-02]
 [-3.28408033e-02 -5.90943433e-02 -6.78197443e-02  5.52056991e-02]
 [-6.49005398e-02 -1.15097918e-01  8.23166780e-03  1.66322306e-01]
 [-2.34837577e-01 -1.13061056e-01 -5.11831157e-02  1.20503396e-01]
 [-1.49061069e-01 -3.43700677e-01 -7.16379434e-02  3.04360520e-02]
 [-1.55576602e-01 -3.07123780e-01 -4.59221676e-02  1.11759245e-01]
 [-1.40494227e-01 -5.27496710e-02 -3.17385755e-02  4.55400273e-02]
 [ 6.09652512e-02 -4.37278561e-02 -4.18998525e-02  7.37810358e-02]
 [-7.16681257e-02  6.59312233e-02 -4.31788154e-02 -5.84922545e-03]
 [-2.15630904e-02  1.20204017e-02  4.67929542e-02 -8.40826854e-02]
 [-6.61019832e-02  8.46472979e-02 -6.92921132e-02 -4.41373959e-02]
 [ 2.87160635e-01 -1.85102642e-01 -4.24120314e-02  1.20202377e-01]
 [ 6.29997790e-01 -4.01650339e-01 -1.06273703e-01  1.56217158e-01]
 [ 3.74050707e-01 -3.20545137e-01 -2.59809881e-01  1.31275594e-01]
 [-6.19942602e-03 -1.55269206e-01 -2.05524534e-01 -1.23340130e-01]
 [ 2.85615716e-02 -1.69380486e-01 -1.30923748e-01 -6.20362014e-02]
 [ 2.74823643e-02 -5.58828004e-02 -1.33925661e-01 -1.14729784e-01]
 [ 8.84476602e-02 -3.44732776e-02 -1.02358408e-01  6.99375272e-02]
 [ 9.12966579e-02  5.69326170e-02 -1.80943772e-01  2.08848827e-02]
 [ 1.55651212e-01 -8.32828786e-03 -1.21405289e-01  7.12834671e-02]
 [ 1.19455621e-01  1.12957194e-01 -7.91582465e-02  1.31194636e-01]
 [ 1.57206610e-01  1.59117788e-01 -2.09312364e-01  7.31509775e-02]
 [ 8.65429267e-02  2.69644141e-01 -2.22936213e-01 -4.36853617e-03]
 [ 8.93983766e-02  1.67212829e-01 -1.99391961e-01  1.48729205e-01]
 [ 3.71716619e-02  3.44701707e-01 -1.71063349e-01  9.25632566e-02]
 [-4.94885724e-03  2.39213169e-01 -4.32579704e-02  2.11947691e-02]
 [ 5.19266427e-02  3.39742959e-01 -3.23305302e-03  6.23472966e-02]
 [ 1.43291891e-01  1.39781699e-01 -7.16089532e-02  1.78048030e-01]
 [ 1.21107303e-01  7.41536766e-02 -1.05702937e-01  1.71302095e-01]
 [ 1.13950484e-01  1.05687089e-01  6.26732782e-02  2.56298810e-01]
 [ 5.18885404e-02  3.49058434e-02  1.49829807e-02  1.06925666e-01]
 [-1.41437218e-01 -1.56967551e-01  3.03254537e-02  1.34062350e-01]
 [ 1.26358112e-02 -9.96021330e-02  1.38094882e-02  1.03922218e-01]
 [-1.40798725e-02 -1.44988954e-01  9.09989774e-02 -9.45411250e-02]
 [-2.63714045e-02  2.63174064e-02 -4.76352498e-03 -7.08187371e-02]
 [-8.35087523e-02  1.72437541e-02 -1.12301096e-01  1.26806293e-02]
 [ 2.59420350e-02 -3.61853093e-03  2.87267938e-02  8.40389580e-02]
 [ 4.72521633e-02  6.39159381e-02 -4.83766608e-02  2.13221982e-02]
 [-3.10814232e-02 -4.65903431e-03  2.72874460e-02 -6.63430020e-02]
 [ 1.67819679e-01  3.65195051e-02 -1.09411657e-01 -6.89028064e-03]
 [ 3.18529367e-01 -1.63773075e-01 -5.04713356e-02  2.10421026e-01]
 [ 3.92697990e-01 -2.53970146e-01 -2.27326062e-02  7.45870471e-02]
 [ 1.74160525e-01 -2.31105030e-01  1.17072985e-01 -1.59300968e-01]
 [ 8.20832551e-02 -2.19788924e-01  9.12345424e-02 -9.66537595e-02]
 [ 2.01628000e-01 -1.84016630e-01  2.08759606e-02 -1.35301426e-01]
 [ 6.29189610e-02 -1.10669471e-01 -5.62170707e-02 -1.25954092e-01]
 [ 1.33481324e-01 -8.98381546e-02 -1.27568439e-01 -9.01241526e-02]
 [ 1.42833471e-01 -1.74942184e-02 -1.08965777e-01 -6.10962473e-02]
 [ 1.20517075e-01  2.73402594e-02 -1.59365609e-01  2.64384728e-02]
 [ 1.19344532e-01 -7.09768990e-03 -2.20676869e-01  1.02591282e-02]
 [ 1.70395747e-01 -2.01829839e-02 -2.15686619e-01  4.74865735e-02]
 [ 4.45038378e-02  1.88744552e-02 -1.98102862e-01  1.12723626e-01]
 [ 1.16115308e-03  6.00972511e-02 -2.46501759e-01  1.23844542e-01]
 [ 8.42228234e-02  1.68909222e-01 -1.86629131e-01  1.86019763e-01]
 [ 7.03851208e-02  1.67748675e-01 -8.27377215e-02  1.53919667e-01]
 [ 7.20478743e-02  3.65757644e-01 -1.20056115e-01  2.02906817e-01]
 [ 9.76908505e-02  3.99024546e-01  2.44297534e-02  2.19348505e-01]
 [ 2.47905761e-01  1.30915686e-01  2.00145945e-01  1.79709807e-01]
 [ 2.19985366e-01  7.92372674e-02  2.12414235e-01  8.76915306e-02]
 [ 1.30927905e-01  3.37285697e-02  1.31528974e-01  7.17297196e-04]
 [ 1.62990034e-01 -1.15652911e-01  1.61808692e-02  8.70279968e-02]
 [-7.21718967e-02 -3.78877483e-03  2.72448920e-02 -5.61491996e-02]
 [-5.20129949e-02 -5.22260331e-02 -1.83144566e-02 -7.26445764e-02]
 [ 4.57570748e-03 -5.19048497e-02  4.10967134e-02  2.32178867e-02]
 [ 6.15186244e-02 -4.93067503e-03  8.32477957e-02 -6.91961870e-02]
 [ 2.95491219e-02 -6.89868927e-02  5.41948080e-02 -2.14195028e-02]
 [-7.55704492e-02  6.85100257e-02  1.42045990e-02 -1.06401145e-02]
 [ 1.16181359e-01 -5.12439348e-02 -2.86495704e-02  4.21498753e-02]
 [ 5.26117161e-02  5.61269745e-02 -2.50817016e-02  6.27612248e-02]
 [ 4.48497906e-02 -6.39585331e-02  1.98621809e-01 -1.93535626e-01]
 [ 1.08209863e-01 -3.29647332e-01  3.60309988e-01 -3.15020770e-01]
 [ 8.17996040e-02 -3.39713812e-01  2.16774121e-01 -3.58048290e-01]
 [ 1.34587675e-01 -3.49584579e-01  2.40175903e-01 -2.79426277e-01]
 [-8.65611713e-03 -2.39432290e-01  1.56858265e-01 -2.02165619e-01]
 [-2.81757340e-02 -2.47127175e-01  6.20666929e-02 -2.96863437e-01]
 [ 6.80287182e-02 -2.53146052e-01  2.66588237e-02 -1.98270231e-01]
 [-7.69611225e-02 -2.62808532e-01  1.23364009e-01 -3.59016627e-01]
 [-1.38240114e-01 -3.88146222e-01  1.98915958e-01 -2.43586168e-01]
 [-1.33549824e-01 -3.37137014e-01  1.62059188e-01 -1.97353259e-01]
 [-1.16751105e-01 -1.53459713e-01  1.21338107e-01 -1.95547387e-01]
 [-1.97479092e-02 -2.37360131e-02  1.22648105e-01 -4.62669544e-02]
 [ 4.79659848e-02 -1.30367294e-01  1.53829247e-01 -1.08620189e-01]
 [-5.29024713e-02  3.39353904e-02  1.96241871e-01 -2.05302108e-02]
 [ 1.22611985e-01  9.87397805e-02  3.08838516e-01 -4.13457826e-02]
 [ 9.97982025e-02  1.44941524e-01  4.14674759e-01 -6.69094473e-02]
 [ 1.39138594e-01  1.18309952e-01  4.67201412e-01 -1.67838141e-01]
 [ 2.90880144e-01  1.14669695e-01  3.52010220e-01 -2.31562555e-02]
 [ 1.01805560e-01  1.34898424e-01  2.29349345e-01  1.11383926e-02]
 [ 1.48698524e-01  1.05576664e-02  1.29700944e-01 -1.26014858e-01]
 [ 5.65987080e-02 -3.81797925e-02  1.37681723e-01 -3.46407704e-02]
 [-6.67202892e-03 -4.76002693e-03  3.51650850e-03  5.61175942e-02]
 [-3.80454734e-02  1.54006938e-02  1.29046980e-02  3.02291065e-02]
 [ 3.24958861e-02  5.97831011e-02  3.65202203e-02 -3.57993096e-02]
 [-6.44325465e-02  6.63709044e-02 -6.95367530e-02 -5.20123541e-02]
 [ 7.40580857e-02 -8.04017633e-02  4.65841889e-02  4.08026278e-02]
 [ 6.74310029e-02  5.08628786e-02 -2.24296898e-02  3.71106267e-02]
 [ 9.96331591e-03 -9.27919000e-02 -3.40814237e-04 -6.71535730e-02]
 [ 1.31915256e-01 -5.57291061e-02  1.18018307e-01 -9.21189878e-03]
 [ 7.70449266e-03  8.27862397e-02  2.58141339e-01 -1.58102512e-01]
 [-1.34249374e-01  2.33663231e-01  6.24181569e-01 -3.06713164e-01]
 [-1.51282981e-01  3.15778643e-01  8.36667657e-01 -4.89373595e-01]
 [-1.35428935e-01  4.09193426e-01  7.86294103e-01 -4.91718560e-01]
 [-1.08375140e-01  4.30899680e-01  9.19317722e-01 -6.12111449e-01]
 [-9.12122205e-02  4.70224530e-01  7.43577898e-01 -4.51748043e-01]
 [-1.12745307e-01  4.10689324e-01  7.37799406e-01 -2.23813966e-01]
 [ 8.77627078e-03  4.46337849e-01  8.04905951e-01 -2.58950025e-01]
 [-5.33771655e-03  3.46986592e-01  9.23534811e-01 -2.12338179e-01]
 [-3.99940684e-02  2.67547846e-01  9.99242961e-01 -3.54658812e-01]
 [-6.68355376e-02  3.27847004e-01  8.34025681e-01 -2.54349023e-01]
 [-1.40017331e-01  3.20924848e-01  8.56645286e-01 -1.02961048e-01]
 [-8.28113630e-02  1.79959536e-01  8.19477737e-01 -8.20123181e-02]
 [ 3.12406830e-02  1.82092294e-01  7.53307581e-01 -1.28994912e-01]
 [-4.69462797e-02  2.44482934e-01  5.54853261e-01 -9.15389508e-02]
 [ 1.27598926e-01  3.32987756e-02  3.23285520e-01  3.52908075e-02]
 [ 1.19011946e-01  1.02477871e-01  2.19355166e-01  6.10224728e-04]
 [ 7.20492704e-03  9.74097848e-02  1.97859347e-01 -1.72080070e-01]
 [ 9.88572016e-02 -2.04743892e-02  6.90463707e-02  5.94190806e-02]
 [-6.49147704e-02  2.94601675e-02  1.31236324e-02 -1.04113529e-03]
 [-6.58347011e-02 -2.73439698e-02  3.84440310e-02  1.38664828e-03]
 [-6.95273280e-02 -2.41799951e-02 -4.82420586e-02  6.03383332e-02]
 [-1.58094987e-02 -6.66889995e-02  7.86586553e-02 -4.40636836e-02]
 [-5.58463745e-02  3.52446660e-02  3.71726826e-02 -6.72735423e-02]
 [ 2.23575458e-02  3.95917445e-02 -4.96557280e-02  4.49935943e-02]
 [ 7.62807131e-02 -5.48247583e-02 -2.42868662e-02  3.71812955e-02]
 [-3.95509861e-02  3.38995084e-02 -4.46436666e-02 -4.86822352e-02]
 [-6.51960447e-03  6.50503039e-02  1.28525987e-01  2.25741304e-02]
 [-9.41422060e-02  7.91878924e-02  1.42803147e-01 -7.83574209e-03]
 [ 6.20546984e-03  2.00796857e-01  2.08096907e-01 -8.65293369e-02]
 [-1.24244586e-01  4.36581433e-01  2.80567557e-01 -1.63431272e-01]
 [-1.41774133e-01  4.61059451e-01  4.59693134e-01 -1.50181293e-01]
 [-1.25105336e-01  5.38364291e-01  6.00076973e-01 -2.21538037e-01]
 [-3.05319786e-01  6.90659165e-01  7.06142783e-01 -3.36476922e-01]
 [-2.58597910e-01  6.57266676e-01  8.63316953e-01 -3.69528949e-01]
 [-2.98377275e-01  7.47341096e-01  8.30208480e-01 -2.53716052e-01]
 [-3.67691308e-01  9.00282204e-01  9.71809149e-01 -5.29513955e-01]
 [-2.44048968e-01  8.96294475e-01  8.78136814e-01 -3.58483672e-01]
 [-2.65694231e-01  8.42105508e-01  1.01751983e+00 -3.70361745e-01]
 [-3.82288396e-01  7.68490314e-01  9.01329994e-01 -2.89916515e-01]
 [-3.28466386e-01  7.30460882e-01  7.58338332e-01 -2.70937920e-01]
 [-3.19669038e-01  4.96599942e-01  5.73025167e-01 -2.75507182e-01]
 [-1.62278146e-01  3.69051993e-01  3.91795486e-01 -5.56085669e-02]
 [ 1.01131899e-02  5.27187251e-03  1.69406250e-01  6.30648136e-02]
 [ 5.42437471e-02  5.50148711e-02  2.11944021e-02 -2.16837768e-02]
 [ 5.14315702e-02  7.59296566e-02  4.59138863e-03 -1.52169373e-02]
 [ 5.32439500e-02  6.26772642e-02  2.37416252e-02 -1.70561634e-02]
 [ 1.85695812e-02  9.87158716e-03 -6.29511178e-02 -1.91511884e-02]
 [-4.51656878e-02 -8.74609500e-03 -3.01969498e-02  6.48073852e-04]
 [ 3.48004550e-02  8.41601640e-02 -6.64147586e-02  5.77286780e-02]
 [ 6.78313226e-02  5.78876585e-03 -7.05900118e-02 -1.51979178e-03]]
Biases for layer dense: [0.06646574 0.49344695 0.2356504  0.37688962]
Weights for layer dense_1: [[ 0.06136712  1.6234362   0.6212167  -0.24974932]
 [ 0.95481807  0.25617146 -0.24391818  1.2748606 ]
 [ 0.93116105  0.51689    -1.1580408  -1.2125148 ]
 [-1.0904293   0.09863111  0.42792168  0.42397764]]
Biases for layer dense_1: [ 0.93203026 -0.5514158   1.0265083   0.27514166]
Weights for layer dense_2: [[-1.5169353   0.7089908  -0.30576172 -0.01515333 -0.2971932  -0.48442584
  -1.7434725   1.157886    0.11684293  0.5440697 ]
 [-1.0663484  -1.3853239  -0.88931614  0.07118408  0.57729805  0.18911932
  -0.02318566 -0.802701   -0.29806694  0.10904227]
 [ 0.14924574 -1.3636532   0.77797246  0.6431267  -1.5696417  -0.2725172
   0.36403236 -1.4244735  -0.45404345 -0.8599827 ]
 [ 0.98074734  0.6350431   0.05090453 -0.88181126 -0.3518513   0.18033381
   0.37290508 -0.87119573  0.51818484 -0.8246    ]]
Biases for layer dense_2: [-0.41314623  0.14116861  1.9696923   0.7030088  -0.14680128 -0.4148014
 -0.97796065  0.33523485 -1.3331709  -0.5507779 ]
